<?xml version="1.0" encoding="UTF-8" standalone="yes"?>
<PMML xmlns="http://www.dmg.org/PMML-4_4" xmlns:data="http://jpmml.org/jpmml-model/InlineTable" version="4.4">
	<Header>
		<Application name="JPMML-SkLearn" version="1.6.15"/>
		<Timestamp>2021-03-16T08:07:57Z</Timestamp>
	</Header>
	<DataDictionary>
		<DataField name="next" optype="continuous" dataType="double"/>
		<DataField name="bw01" optype="continuous" dataType="float"/>
		<DataField name="bw02" optype="continuous" dataType="float"/>
		<DataField name="cpu01" optype="continuous" dataType="float"/>
		<DataField name="cpu02" optype="continuous" dataType="float"/>
		<DataField name="cur" optype="continuous" dataType="float"/>
		<DataField name="pi" optype="continuous" dataType="float"/>
		<DataField name="time" optype="continuous" dataType="float"/>
	</DataDictionary>
	<MiningModel functionName="regression" algorithmName="XGBoost (GBTree)" x-mathContext="float">
		<MiningSchema>
			<MiningField name="next" usageType="target"/>
			<MiningField name="bw01"/>
			<MiningField name="bw02"/>
			<MiningField name="cpu01"/>
			<MiningField name="cpu02"/>
			<MiningField name="cur"/>
			<MiningField name="pi"/>
			<MiningField name="time"/>
		</MiningSchema>
		<Targets>
			<Target field="next" rescaleConstant="0.5"/>
		</Targets>
		<Segmentation multipleModelMethod="sum">
			<Segment id="1">
				<True/>
				<TreeModel functionName="regression" noTrueChildStrategy="returnLastPrediction" x-mathContext="float">
					<MiningSchema>
						<MiningField name="bw01"/>
						<MiningField name="cpu01"/>
						<MiningField name="cpu02"/>
						<MiningField name="pi"/>
						<MiningField name="time"/>
					</MiningSchema>
					<Node score="7.467046">
						<True/>
						<Node score="114.12791">
							<SimplePredicate field="cpu02" operator="greaterOrEqual" value="54.150322"/>
							<Node score="75.62439">
								<SimplePredicate field="time" operator="greaterOrEqual" value="19.5"/>
								<Node score="95.225">
									<SimplePredicate field="bw01" operator="greaterOrEqual" value="37.239815"/>
								</Node>
							</Node>
							<Node score="144.35698">
								<SimplePredicate field="cpu01" operator="greaterOrEqual" value="69.46533"/>
								<Node score="116.6122">
									<SimplePredicate field="time" operator="greaterOrEqual" value="18.5"/>
								</Node>
							</Node>
						</Node>
						<Node score="66.68605">
							<SimplePredicate field="bw01" operator="greaterOrEqual" value="0.51731664"/>
							<Node score="36.732143">
								<SimplePredicate field="time" operator="greaterOrEqual" value="22.5"/>
							</Node>
							<Node score="52.534523">
								<SimplePredicate field="time" operator="greaterOrEqual" value="21.5"/>
							</Node>
						</Node>
						<Node score="29.84405">
							<SimplePredicate field="time" operator="greaterOrEqual" value="4.5"/>
						</Node>
						<Node score="15.455953">
							<SimplePredicate field="time" operator="greaterOrEqual" value="3.5"/>
						</Node>
						<Node score="10.564344">
							<SimplePredicate field="pi" operator="greaterOrEqual" value="56.5"/>
						</Node>
					</Node>
				</TreeModel>
			</Segment>
			<Segment id="2">
				<True/>
				<TreeModel functionName="regression" noTrueChildStrategy="returnLastPrediction" x-mathContext="float">
					<MiningSchema>
						<MiningField name="bw01"/>
						<MiningField name="cpu01"/>
						<MiningField name="cpu02"/>
						<MiningField name="time"/>
					</MiningSchema>
					<Node score="6.672264">
						<True/>
						<Node score="102.98053">
							<SimplePredicate field="cpu02" operator="greaterOrEqual" value="54.150322"/>
							<Node score="68.2464">
								<SimplePredicate field="time" operator="greaterOrEqual" value="19.5"/>
								<Node score="85.92923">
									<SimplePredicate field="bw01" operator="greaterOrEqual" value="37.239815"/>
								</Node>
							</Node>
							<Node score="129.95322">
								<SimplePredicate field="cpu01" operator="greaterOrEqual" value="69.46533"/>
								<Node score="105.235405">
									<SimplePredicate field="time" operator="greaterOrEqual" value="18.5"/>
								</Node>
							</Node>
						</Node>
						<Node score="60.172527">
							<SimplePredicate field="bw01" operator="greaterOrEqual" value="0.51731664"/>
							<Node score="33.14639">
								<SimplePredicate field="time" operator="greaterOrEqual" value="22.5"/>
							</Node>
							<Node score="47.406155">
								<SimplePredicate field="time" operator="greaterOrEqual" value="21.5"/>
							</Node>
						</Node>
						<Node score="26.9307">
							<SimplePredicate field="time" operator="greaterOrEqual" value="4.5"/>
						</Node>
						<Node score="10.709115">
							<SimplePredicate field="cpu01" operator="greaterOrEqual" value="8.323"/>
							<Node score="14.086344">
								<SimplePredicate field="time" operator="greaterOrEqual" value="3.5"/>
							</Node>
						</Node>
						<Node score="8.94366">
							<SimplePredicate field="bw01" operator="greaterOrEqual" value="0.058"/>
						</Node>
					</Node>
				</TreeModel>
			</Segment>
			<Segment id="3">
				<True/>
				<TreeModel functionName="regression" noTrueChildStrategy="returnLastPrediction" x-mathContext="float">
					<MiningSchema>
						<MiningField name="bw01"/>
						<MiningField name="cpu01"/>
						<MiningField name="cpu02"/>
						<MiningField name="time"/>
					</MiningSchema>
					<Node score="6.0209246">
						<True/>
						<Node score="108.19114">
							<SimplePredicate field="cpu02" operator="greaterOrEqual" value="54.150322"/>
							<Node score="61.588215">
								<SimplePredicate field="time" operator="greaterOrEqual" value="19.5"/>
								<Node score="77.54089">
									<SimplePredicate field="bw01" operator="greaterOrEqual" value="37.239815"/>
								</Node>
							</Node>
							<Node score="121.18688">
								<SimplePredicate field="cpu01" operator="greaterOrEqual" value="74.861"/>
							</Node>
						</Node>
						<Node score="48.67712">
							<SimplePredicate field="cpu01" operator="greaterOrEqual" value="15.247666"/>
							<Node score="29.910666">
								<SimplePredicate field="time" operator="greaterOrEqual" value="22.5"/>
							</Node>
						</Node>
						<Node score="24.145712">
							<SimplePredicate field="time" operator="greaterOrEqual" value="4.5"/>
						</Node>
						<Node score="9.503041">
							<SimplePredicate field="cpu01" operator="greaterOrEqual" value="7.995"/>
							<Node score="12.733733">
								<SimplePredicate field="time" operator="greaterOrEqual" value="3.5"/>
							</Node>
						</Node>
						<Node score="7.86468">
							<SimplePredicate field="bw01" operator="greaterOrEqual" value="0.058"/>
						</Node>
					</Node>
				</TreeModel>
			</Segment>
			<Segment id="4">
				<True/>
				<TreeModel functionName="regression" noTrueChildStrategy="returnLastPrediction" x-mathContext="float">
					<MiningSchema>
						<MiningField name="bw01"/>
						<MiningField name="cpu01"/>
						<MiningField name="cpu02"/>
						<MiningField name="time"/>
					</MiningSchema>
					<Node score="5.433168">
						<True/>
						<Node score="77.14336">
							<SimplePredicate field="cpu02" operator="greaterOrEqual" value="54.150322"/>
							<Node score="100.12993">
								<SimplePredicate field="cpu01" operator="greaterOrEqual" value="69.46533"/>
								<Node score="84.34991">
									<SimplePredicate field="time" operator="greaterOrEqual" value="18.5"/>
								</Node>
								<Node score="111.56233">
									<SimplePredicate field="time" operator="greaterOrEqual" value="13.5"/>
								</Node>
							</Node>
							<Node score="55.579617">
								<SimplePredicate field="time" operator="greaterOrEqual" value="20.5"/>
							</Node>
						</Node>
						<Node score="49.5407">
							<SimplePredicate field="bw01" operator="greaterOrEqual" value="0.51731664"/>
							<Node score="26.990818">
								<SimplePredicate field="time" operator="greaterOrEqual" value="22.5"/>
							</Node>
							<Node score="38.026596">
								<SimplePredicate field="time" operator="greaterOrEqual" value="21.5"/>
							</Node>
						</Node>
						<Node score="21.827852">
							<SimplePredicate field="time" operator="greaterOrEqual" value="4.5"/>
						</Node>
						<Node score="8.739726">
							<SimplePredicate field="cpu01" operator="greaterOrEqual" value="8.323"/>
							<Node score="11.473105">
								<SimplePredicate field="time" operator="greaterOrEqual" value="3.5"/>
							</Node>
						</Node>
						<Node score="7.2559924">
							<SimplePredicate field="bw01" operator="greaterOrEqual" value="0.058"/>
						</Node>
					</Node>
				</TreeModel>
			</Segment>
			<Segment id="5">
				<True/>
				<TreeModel functionName="regression" noTrueChildStrategy="returnLastPrediction" x-mathContext="float">
					<MiningSchema>
						<MiningField name="bw01"/>
						<MiningField name="cpu01"/>
						<MiningField name="cpu02"/>
						<MiningField name="time"/>
					</MiningSchema>
					<Node score="4.902787">
						<True/>
						<Node score="69.52086">
							<SimplePredicate field="cpu02" operator="greaterOrEqual" value="53.00997"/>
							<Node score="90.15748">
								<SimplePredicate field="cpu01" operator="greaterOrEqual" value="69.46533"/>
								<Node score="76.120636">
									<SimplePredicate field="time" operator="greaterOrEqual" value="18.5"/>
								</Node>
								<Node score="100.46026">
									<SimplePredicate field="time" operator="greaterOrEqual" value="13.5"/>
								</Node>
							</Node>
							<Node score="50.225906">
								<SimplePredicate field="time" operator="greaterOrEqual" value="20.5"/>
							</Node>
						</Node>
						<Node score="44.503254">
							<SimplePredicate field="bw01" operator="greaterOrEqual" value="0.51731664"/>
							<Node score="24.355999">
								<SimplePredicate field="time" operator="greaterOrEqual" value="22.5"/>
							</Node>
							<Node score="34.314476">
								<SimplePredicate field="bw01" operator="greaterOrEqual" value="10.263833"/>
							</Node>
						</Node>
						<Node score="19.697039">
							<SimplePredicate field="time" operator="greaterOrEqual" value="4.5"/>
						</Node>
						<Node score="7.747892">
							<SimplePredicate field="cpu01" operator="greaterOrEqual" value="7.995"/>
							<Node score="10.384109">
								<SimplePredicate field="time" operator="greaterOrEqual" value="3.5"/>
							</Node>
						</Node>
						<Node score="6.372249">
							<SimplePredicate field="bw01" operator="greaterOrEqual" value="0.058"/>
						</Node>
					</Node>
				</TreeModel>
			</Segment>
			<Segment id="6">
				<True/>
				<TreeModel functionName="regression" noTrueChildStrategy="returnLastPrediction" x-mathContext="float">
					<MiningSchema>
						<MiningField name="bw01"/>
						<MiningField name="cpu02"/>
						<MiningField name="time"/>
					</MiningSchema>
					<Node score="4.6225214">
						<True/>
						<Node score="78.272964">
							<SimplePredicate field="cpu02" operator="greaterOrEqual" value="53.00997"/>
							<Node score="51.096848">
								<SimplePredicate field="time" operator="greaterOrEqual" value="19.5"/>
							</Node>
							<Node score="87.72512">
								<SimplePredicate field="cpu02" operator="greaterOrEqual" value="74.59566"/>
							</Node>
						</Node>
						<Node score="40.15889">
							<SimplePredicate field="bw01" operator="greaterOrEqual" value="0.51731664"/>
							<Node score="21.97839">
								<SimplePredicate field="time" operator="greaterOrEqual" value="22.5"/>
							</Node>
							<Node score="30.964731">
								<SimplePredicate field="bw01" operator="greaterOrEqual" value="10.263833"/>
							</Node>
						</Node>
						<Node score="17.774235">
							<SimplePredicate field="time" operator="greaterOrEqual" value="4.5"/>
						</Node>
						<Node score="7.010798">
							<SimplePredicate field="time" operator="greaterOrEqual" value="2.5"/>
							<Node score="9.304472">
								<SimplePredicate field="time" operator="greaterOrEqual" value="3.5"/>
							</Node>
						</Node>
						<Node score="5.9356027">
							<SimplePredicate field="bw01" operator="greaterOrEqual" value="0.147"/>
						</Node>
					</Node>
				</TreeModel>
			</Segment>
			<Segment id="7">
				<True/>
				<TreeModel functionName="regression" noTrueChildStrategy="returnLastPrediction" x-mathContext="float">
					<MiningSchema>
						<MiningField name="bw01"/>
						<MiningField name="cpu01"/>
						<MiningField name="cpu02"/>
						<MiningField name="time"/>
					</MiningSchema>
					<Node score="4.243897">
						<True/>
						<Node score="56.243874">
							<SimplePredicate field="cpu02" operator="greaterOrEqual" value="54.150322"/>
							<Node score="73.05352">
								<SimplePredicate field="cpu01" operator="greaterOrEqual" value="69.46533"/>
								<Node score="60.919525">
									<SimplePredicate field="time" operator="greaterOrEqual" value="18.5"/>
								</Node>
								<Node score="81.86155">
									<SimplePredicate field="time" operator="greaterOrEqual" value="13.5"/>
								</Node>
							</Node>
							<Node score="40.27206">
								<SimplePredicate field="time" operator="greaterOrEqual" value="20.5"/>
							</Node>
						</Node>
						<Node score="36.393772">
							<SimplePredicate field="bw01" operator="greaterOrEqual" value="0.51731664"/>
							<Node score="19.83288">
								<SimplePredicate field="time" operator="greaterOrEqual" value="22.5"/>
							</Node>
							<Node score="27.941984">
								<SimplePredicate field="time" operator="greaterOrEqual" value="21.5"/>
							</Node>
						</Node>
						<Node score="16.03913">
							<SimplePredicate field="time" operator="greaterOrEqual" value="4.5"/>
						</Node>
						<Node score="6.6233735">
							<SimplePredicate field="cpu01" operator="greaterOrEqual" value="8.323"/>
							<Node score="8.66272">
								<SimplePredicate field="cpu01" operator="greaterOrEqual" value="9.548666"/>
							</Node>
						</Node>
						<Node score="5.504913">
							<SimplePredicate field="cpu01" operator="greaterOrEqual" value="6.4553337"/>
						</Node>
					</Node>
				</TreeModel>
			</Segment>
			<Segment id="8">
				<True/>
				<TreeModel functionName="regression" noTrueChildStrategy="returnLastPrediction" x-mathContext="float">
					<MiningSchema>
						<MiningField name="bw01"/>
						<MiningField name="cpu01"/>
						<MiningField name="cpu02"/>
						<MiningField name="cur"/>
						<MiningField name="time"/>
					</MiningSchema>
					<Node score="3.9269645">
						<True/>
						<Node score="54.890266">
							<SimplePredicate field="cpu02" operator="greaterOrEqual" value="53.00997"/>
							<Node score="41.28574">
								<SimplePredicate field="time" operator="greaterOrEqual" value="19.5"/>
							</Node>
							<Node score="77.0704">
								<SimplePredicate field="cur" operator="greaterOrEqual" value="1453.5"/>
								<Node score="63.495075">
									<SimplePredicate field="time" operator="greaterOrEqual" value="17.5"/>
								</Node>
							</Node>
							<Node score="65.82958">
								<SimplePredicate field="cpu01" operator="greaterOrEqual" value="69.46533"/>
							</Node>
						</Node>
						<Node score="32.685894">
							<SimplePredicate field="bw01" operator="greaterOrEqual" value="0.51731664"/>
							<Node score="17.89681">
								<SimplePredicate field="time" operator="greaterOrEqual" value="22.5"/>
							</Node>
							<Node score="25.214314">
								<SimplePredicate field="bw01" operator="greaterOrEqual" value="10.263833"/>
							</Node>
						</Node>
						<Node score="14.473404">
							<SimplePredicate field="time" operator="greaterOrEqual" value="4.5"/>
						</Node>
						<Node score="7.641065">
							<SimplePredicate field="time" operator="greaterOrEqual" value="3.5"/>
						</Node>
						<Node score="5.3597903">
							<SimplePredicate field="cpu01" operator="greaterOrEqual" value="6.7650003"/>
						</Node>
					</Node>
				</TreeModel>
			</Segment>
			<Segment id="9">
				<True/>
				<TreeModel functionName="regression" noTrueChildStrategy="returnLastPrediction" x-mathContext="float">
					<MiningSchema>
						<MiningField name="bw01"/>
						<MiningField name="cpu01"/>
						<MiningField name="cpu02"/>
						<MiningField name="cur"/>
						<MiningField name="time"/>
					</MiningSchema>
					<Node score="3.5393682">
						<True/>
						<Node score="49.222588">
							<SimplePredicate field="cpu02" operator="greaterOrEqual" value="53.00997"/>
							<Node score="32.795025">
								<SimplePredicate field="time" operator="greaterOrEqual" value="18.5"/>
								<Node score="45.838238">
									<SimplePredicate field="cur" operator="greaterOrEqual" value="1161.5"/>
								</Node>
							</Node>
							<Node score="66.604904">
								<SimplePredicate field="time" operator="greaterOrEqual" value="13.5"/>
							</Node>
							<Node score="59.184937">
								<SimplePredicate field="cpu02" operator="greaterOrEqual" value="60.16898"/>
							</Node>
						</Node>
						<Node score="13.54525">
							<SimplePredicate field="cpu01" operator="greaterOrEqual" value="12.750999"/>
							<Node score="29.49513">
								<SimplePredicate field="bw01" operator="greaterOrEqual" value="0.5124"/>
								<Node score="16.149742">
									<SimplePredicate field="time" operator="greaterOrEqual" value="22.5"/>
								</Node>
								<Node score="22.752914">
									<SimplePredicate field="bw01" operator="greaterOrEqual" value="10.263833"/>
								</Node>
							</Node>
						</Node>
						<Node score="7.1331935">
							<SimplePredicate field="cpu01" operator="greaterOrEqual" value="9.548666"/>
							<Node score="11.285003">
								<SimplePredicate field="time" operator="greaterOrEqual" value="4.5"/>
							</Node>
						</Node>
						<Node score="4.395696">
							<SimplePredicate field="cpu01" operator="greaterOrEqual" value="6.7650003"/>
							<Node score="5.407848">
								<SimplePredicate field="time" operator="greaterOrEqual" value="2.5"/>
							</Node>
						</Node>
					</Node>
				</TreeModel>
			</Segment>
			<Segment id="10">
				<True/>
				<TreeModel functionName="regression" noTrueChildStrategy="returnLastPrediction" x-mathContext="float">
					<MiningSchema>
						<MiningField name="bw01"/>
						<MiningField name="cpu01"/>
						<MiningField name="cpu02"/>
						<MiningField name="cur"/>
						<MiningField name="time"/>
					</MiningSchema>
					<Node score="3.146334">
						<True/>
						<Node score="52.243744">
							<SimplePredicate field="cpu02" operator="greaterOrEqual" value="53.00997"/>
							<Node score="29.586813">
								<SimplePredicate field="time" operator="greaterOrEqual" value="18.5"/>
								<Node score="41.312435">
									<SimplePredicate field="cur" operator="greaterOrEqual" value="1161.5"/>
								</Node>
							</Node>
							<Node score="59.97674">
								<SimplePredicate field="time" operator="greaterOrEqual" value="13.5"/>
							</Node>
						</Node>
						<Node score="12.2391">
							<SimplePredicate field="cpu01" operator="greaterOrEqual" value="12.750999"/>
							<Node score="26.615845">
								<SimplePredicate field="bw01" operator="greaterOrEqual" value="0.5124"/>
								<Node score="14.573221">
									<SimplePredicate field="time" operator="greaterOrEqual" value="22.5"/>
								</Node>
								<Node score="20.531797">
									<SimplePredicate field="bw01" operator="greaterOrEqual" value="10.263833"/>
								</Node>
							</Node>
						</Node>
						<Node score="6.4421654">
							<SimplePredicate field="cpu01" operator="greaterOrEqual" value="9.548666"/>
							<Node score="10.231735">
								<SimplePredicate field="time" operator="greaterOrEqual" value="4.5"/>
							</Node>
						</Node>
						<Node score="3.9515903">
							<SimplePredicate field="cpu01" operator="greaterOrEqual" value="6.601"/>
							<Node score="4.877667">
								<SimplePredicate field="time" operator="greaterOrEqual" value="2.5"/>
							</Node>
						</Node>
					</Node>
				</TreeModel>
			</Segment>
			<Segment id="11">
				<True/>
				<TreeModel functionName="regression" noTrueChildStrategy="returnLastPrediction" x-mathContext="float">
					<MiningSchema>
						<MiningField name="bw01"/>
						<MiningField name="cpu01"/>
						<MiningField name="cpu02"/>
						<MiningField name="pi"/>
						<MiningField name="time"/>
					</MiningSchema>
					<Node score="2.5494282">
						<True/>
						<Node score="36.710953">
							<SimplePredicate field="cpu02" operator="greaterOrEqual" value="53.00997"/>
							<Node score="48.490788">
								<SimplePredicate field="cpu01" operator="greaterOrEqual" value="69.46533"/>
								<Node score="40.11958">
									<SimplePredicate field="time" operator="greaterOrEqual" value="18.5"/>
								</Node>
								<Node score="57.075684">
									<SimplePredicate field="time" operator="greaterOrEqual" value="14.5"/>
									<Node score="46.81267">
										<SimplePredicate field="time" operator="greaterOrEqual" value="17.5"/>
									</Node>
								</Node>
							</Node>
							<Node score="26.292852">
								<SimplePredicate field="time" operator="greaterOrEqual" value="20.5"/>
							</Node>
						</Node>
						<Node score="11.067955">
							<SimplePredicate field="pi" operator="greaterOrEqual" value="122.5"/>
							<Node score="24.017632">
								<SimplePredicate field="bw01" operator="greaterOrEqual" value="0.5124"/>
								<Node score="13.150597">
									<SimplePredicate field="time" operator="greaterOrEqual" value="22.5"/>
								</Node>
								<Node score="18.527502">
									<SimplePredicate field="bw01" operator="greaterOrEqual" value="10.263833"/>
								</Node>
							</Node>
						</Node>
						<Node score="5.7030983">
							<SimplePredicate field="time" operator="greaterOrEqual" value="3.5"/>
							<Node score="9.2598715">
								<SimplePredicate field="time" operator="greaterOrEqual" value="4.5"/>
							</Node>
						</Node>
						<Node score="3.4254284">
							<SimplePredicate field="pi" operator="greaterOrEqual" value="56.5"/>
							<Node score="4.3243256">
								<SimplePredicate field="cpu01" operator="greaterOrEqual" value="8.405001"/>
							</Node>
						</Node>
					</Node>
				</TreeModel>
			</Segment>
			<Segment id="12">
				<True/>
				<TreeModel functionName="regression" noTrueChildStrategy="returnLastPrediction" x-mathContext="float">
					<MiningSchema>
						<MiningField name="bw01"/>
						<MiningField name="cpu01"/>
						<MiningField name="cpu02"/>
						<MiningField name="cur"/>
						<MiningField name="time"/>
					</MiningSchema>
					<Node score="2.2737794">
						<True/>
						<Node score="35.740395">
							<SimplePredicate field="cpu02" operator="greaterOrEqual" value="53.00997"/>
							<Node score="26.827494">
								<SimplePredicate field="time" operator="greaterOrEqual" value="19.5"/>
							</Node>
							<Node score="51.29426">
								<SimplePredicate field="cur" operator="greaterOrEqual" value="1447.5"/>
								<Node score="41.118923">
									<SimplePredicate field="time" operator="greaterOrEqual" value="17.5"/>
								</Node>
							</Node>
							<Node score="43.21179">
								<SimplePredicate field="cpu01" operator="greaterOrEqual" value="54.642"/>
							</Node>
						</Node>
						<Node score="10.004548">
							<SimplePredicate field="cpu01" operator="greaterOrEqual" value="12.750999"/>
							<Node score="21.673054">
								<SimplePredicate field="bw01" operator="greaterOrEqual" value="0.5124"/>
								<Node score="11.866848">
									<SimplePredicate field="time" operator="greaterOrEqual" value="22.5"/>
								</Node>
								<Node score="16.718864">
									<SimplePredicate field="bw01" operator="greaterOrEqual" value="10.263833"/>
								</Node>
							</Node>
						</Node>
						<Node score="5.363922">
							<SimplePredicate field="cpu01" operator="greaterOrEqual" value="9.717"/>
							<Node score="8.3884115">
								<SimplePredicate field="time" operator="greaterOrEqual" value="4.5"/>
							</Node>
						</Node>
						<Node score="3.9228075">
							<SimplePredicate field="cpu01" operator="greaterOrEqual" value="7.913"/>
						</Node>
						<Node score="3.037077">
							<SimplePredicate field="bw01" operator="greaterOrEqual" value="0.058"/>
						</Node>
					</Node>
				</TreeModel>
			</Segment>
			<Segment id="13">
				<True/>
				<TreeModel functionName="regression" noTrueChildStrategy="returnLastPrediction" x-mathContext="float">
					<MiningSchema>
						<MiningField name="cpu01"/>
						<MiningField name="cpu02"/>
						<MiningField name="cur"/>
						<MiningField name="time"/>
					</MiningSchema>
					<Node score="2.2487812">
						<True/>
						<Node score="37.69105">
							<SimplePredicate field="cpu02" operator="greaterOrEqual" value="54.975197"/>
							<Node score="21.617817">
								<SimplePredicate field="time" operator="greaterOrEqual" value="18.5"/>
								<Node score="29.976892">
									<SimplePredicate field="cur" operator="greaterOrEqual" value="1161.5"/>
								</Node>
							</Node>
							<Node score="43.537624">
								<SimplePredicate field="time" operator="greaterOrEqual" value="12.5"/>
							</Node>
						</Node>
						<Node score="19.904982">
							<SimplePredicate field="cpu02" operator="greaterOrEqual" value="33.747932"/>
							<Node score="10.708418">
								<SimplePredicate field="time" operator="greaterOrEqual" value="22.5"/>
							</Node>
							<Node score="15.086784">
								<SimplePredicate field="time" operator="greaterOrEqual" value="21.5"/>
							</Node>
						</Node>
						<Node score="8.71038">
							<SimplePredicate field="time" operator="greaterOrEqual" value="4.5"/>
						</Node>
						<Node score="4.6955886">
							<SimplePredicate field="time" operator="greaterOrEqual" value="3.5"/>
						</Node>
						<Node score="3.1109016">
							<SimplePredicate field="cpu01" operator="greaterOrEqual" value="6.4553337"/>
						</Node>
					</Node>
				</TreeModel>
			</Segment>
			<Segment id="14">
				<True/>
				<TreeModel functionName="regression" noTrueChildStrategy="returnLastPrediction" x-mathContext="float">
					<MiningSchema>
						<MiningField name="bw01"/>
						<MiningField name="cpu01"/>
						<MiningField name="cpu02"/>
						<MiningField name="pi"/>
						<MiningField name="time"/>
					</MiningSchema>
					<Node score="1.8322909">
						<True/>
						<Node score="26.704046">
							<SimplePredicate field="cpu02" operator="greaterOrEqual" value="53.00997"/>
							<Node score="35.407436">
								<SimplePredicate field="cpu01" operator="greaterOrEqual" value="69.46533"/>
								<Node score="29.141687">
									<SimplePredicate field="time" operator="greaterOrEqual" value="18.5"/>
								</Node>
								<Node score="42.08565">
									<SimplePredicate field="time" operator="greaterOrEqual" value="14.5"/>
									<Node score="33.978775">
										<SimplePredicate field="time" operator="greaterOrEqual" value="17.5"/>
									</Node>
								</Node>
							</Node>
							<Node score="19.021454">
								<SimplePredicate field="time" operator="greaterOrEqual" value="20.5"/>
							</Node>
						</Node>
						<Node score="8.207579">
							<SimplePredicate field="pi" operator="greaterOrEqual" value="122.5"/>
							<Node score="17.670752">
								<SimplePredicate field="bw01" operator="greaterOrEqual" value="0.5124"/>
								<Node score="7.772251">
									<SimplePredicate field="time" operator="greaterOrEqual" value="22.5"/>
									<Node score="10.757346">
										<SimplePredicate field="cpu01" operator="greaterOrEqual" value="33.360664"/>
									</Node>
								</Node>
								<Node score="13.653177">
									<SimplePredicate field="bw01" operator="greaterOrEqual" value="1.39355"/>
								</Node>
							</Node>
						</Node>
						<Node score="4.373918">
							<SimplePredicate field="cpu01" operator="greaterOrEqual" value="9.548666"/>
							<Node score="6.703552">
								<SimplePredicate field="time" operator="greaterOrEqual" value="4.5"/>
							</Node>
						</Node>
						<Node score="3.1373003">
							<SimplePredicate field="cpu01" operator="greaterOrEqual" value="7.913"/>
						</Node>
						<Node score="2.4556165">
							<SimplePredicate field="bw01" operator="greaterOrEqual" value="0.058"/>
						</Node>
					</Node>
				</TreeModel>
			</Segment>
			<Segment id="15">
				<True/>
				<TreeModel functionName="regression" noTrueChildStrategy="returnLastPrediction" x-mathContext="float">
					<MiningSchema>
						<MiningField name="bw01"/>
						<MiningField name="bw02"/>
						<MiningField name="cpu01"/>
						<MiningField name="cpu02"/>
						<MiningField name="cur"/>
						<MiningField name="pi"/>
						<MiningField name="time"/>
					</MiningSchema>
					<Node score="1.689782">
						<True/>
						<Node score="25.429373">
							<SimplePredicate field="cpu02" operator="greaterOrEqual" value="53.00997"/>
							<Node score="19.422346">
								<SimplePredicate field="time" operator="greaterOrEqual" value="19.5"/>
							</Node>
							<Node score="40.490612">
								<SimplePredicate field="cur" operator="greaterOrEqual" value="1483.5"/>
								<Node score="32.729733">
									<SimplePredicate field="time" operator="greaterOrEqual" value="16.5"/>
								</Node>
							</Node>
							<Node score="32.289265">
								<SimplePredicate field="cpu02" operator="greaterOrEqual" value="58.353897"/>
								<Node score="26.274313">
									<SimplePredicate field="time" operator="greaterOrEqual" value="17.0"/>
								</Node>
							</Node>
						</Node>
						<Node score="7.4161334">
							<SimplePredicate field="pi" operator="greaterOrEqual" value="122.5"/>
							<Node score="15.861974">
								<SimplePredicate field="bw01" operator="greaterOrEqual" value="0.5124"/>
								<Node score="6.797017">
									<SimplePredicate field="time" operator="greaterOrEqual" value="22.5"/>
									<Node score="9.569068">
										<SimplePredicate field="cpu01" operator="greaterOrEqual" value="33.052002"/>
									</Node>
								</Node>
								<Node score="12.231615">
									<SimplePredicate field="bw02" operator="greaterOrEqual" value="20.55777"/>
								</Node>
							</Node>
						</Node>
						<Node score="2.8315723">
							<SimplePredicate field="time" operator="greaterOrEqual" value="3.5"/>
							<Node score="6.077886">
								<SimplePredicate field="time" operator="greaterOrEqual" value="4.5"/>
							</Node>
							<Node score="4.1383705">
								<SimplePredicate field="pi" operator="greaterOrEqual" value="94.5"/>
							</Node>
						</Node>
						<Node score="2.2808805">
							<SimplePredicate field="cpu02" operator="greaterOrEqual" value="27.50364"/>
							<Node score="2.8854249">
								<SimplePredicate field="bw01" operator="greaterOrEqual" value="0.205"/>
							</Node>
						</Node>
						<Node score="2.2126837">
							<SimplePredicate field="pi" operator="greaterOrEqual" value="73.5"/>
						</Node>
					</Node>
				</TreeModel>
			</Segment>
			<Segment id="16">
				<True/>
				<TreeModel functionName="regression" noTrueChildStrategy="returnLastPrediction" x-mathContext="float">
					<MiningSchema>
						<MiningField name="bw01"/>
						<MiningField name="cpu01"/>
						<MiningField name="cpu02"/>
						<MiningField name="cur"/>
						<MiningField name="time"/>
					</MiningSchema>
					<Node score="1.4884696">
						<True/>
						<Node score="21.700834">
							<SimplePredicate field="cpu02" operator="greaterOrEqual" value="54.975197"/>
							<Node score="28.658415">
								<SimplePredicate field="cpu01" operator="greaterOrEqual" value="69.46533"/>
								<Node score="23.672272">
									<SimplePredicate field="time" operator="greaterOrEqual" value="18.5"/>
								</Node>
								<Node score="35.64794">
									<SimplePredicate field="time" operator="greaterOrEqual" value="14.5"/>
									<Node score="29.59177">
										<SimplePredicate field="time" operator="greaterOrEqual" value="16.5"/>
									</Node>
								</Node>
							</Node>
							<Node score="15.454429">
								<SimplePredicate field="time" operator="greaterOrEqual" value="20.5"/>
							</Node>
						</Node>
						<Node score="14.739448">
							<SimplePredicate field="bw01" operator="greaterOrEqual" value="0.51731664"/>
							<Node score="7.0447288">
								<SimplePredicate field="time" operator="greaterOrEqual" value="21.5"/>
								<Node score="10.782605">
									<SimplePredicate field="cur" operator="greaterOrEqual" value="548.0"/>
								</Node>
							</Node>
						</Node>
						<Node score="4.091972">
							<SimplePredicate field="cpu01" operator="greaterOrEqual" value="10.701"/>
							<Node score="6.5016303">
								<SimplePredicate field="time" operator="greaterOrEqual" value="4.5"/>
							</Node>
						</Node>
						<Node score="2.0057046">
							<SimplePredicate field="cpu01" operator="greaterOrEqual" value="8.405001"/>
							<Node score="3.1935549">
								<SimplePredicate field="time" operator="greaterOrEqual" value="2.5"/>
							</Node>
						</Node>
						<Node score="2.079611">
							<SimplePredicate field="bw01" operator="greaterOrEqual" value="0.058"/>
						</Node>
					</Node>
				</TreeModel>
			</Segment>
			<Segment id="17">
				<True/>
				<TreeModel functionName="regression" noTrueChildStrategy="returnLastPrediction" x-mathContext="float">
					<MiningSchema>
						<MiningField name="bw01"/>
						<MiningField name="cpu01"/>
						<MiningField name="cpu02"/>
						<MiningField name="cur"/>
						<MiningField name="pi"/>
						<MiningField name="time"/>
					</MiningSchema>
					<Node score="1.3628539">
						<True/>
						<Node score="20.772131">
							<SimplePredicate field="cpu02" operator="greaterOrEqual" value="53.00997"/>
							<Node score="13.780515">
								<SimplePredicate field="time" operator="greaterOrEqual" value="19.5"/>
								<Node score="17.276144">
									<SimplePredicate field="bw01" operator="greaterOrEqual" value="40.42582"/>
								</Node>
							</Node>
							<Node score="30.909994">
								<SimplePredicate field="cur" operator="greaterOrEqual" value="1447.5"/>
								<Node score="24.139198">
									<SimplePredicate field="time" operator="greaterOrEqual" value="17.5"/>
								</Node>
							</Node>
							<Node score="25.85939">
								<SimplePredicate field="cur" operator="greaterOrEqual" value="697.0"/>
								<Node score="20.559027">
									<SimplePredicate field="time" operator="greaterOrEqual" value="17.0"/>
								</Node>
							</Node>
						</Node>
						<Node score="6.074063">
							<SimplePredicate field="pi" operator="greaterOrEqual" value="122.5"/>
							<Node score="12.961268">
								<SimplePredicate field="bw01" operator="greaterOrEqual" value="0.5124"/>
								<Node score="5.3265004">
									<SimplePredicate field="time" operator="greaterOrEqual" value="22.5"/>
									<Node score="7.7147713">
										<SimplePredicate field="cpu01" operator="greaterOrEqual" value="32.82"/>
									</Node>
								</Node>
								<Node score="10.045624">
									<SimplePredicate field="bw01" operator="greaterOrEqual" value="1.39355"/>
								</Node>
							</Node>
						</Node>
						<Node score="2.9173722">
							<SimplePredicate field="time" operator="greaterOrEqual" value="3.5"/>
							<Node score="4.522149">
								<SimplePredicate field="cpu01" operator="greaterOrEqual" value="10.291"/>
							</Node>
						</Node>
						<Node score="1.852759">
							<SimplePredicate field="cpu02" operator="greaterOrEqual" value="27.50364"/>
							<Node score="2.3308408">
								<SimplePredicate field="bw01" operator="greaterOrEqual" value="0.205"/>
							</Node>
						</Node>
						<Node score="1.806434">
							<SimplePredicate field="pi" operator="greaterOrEqual" value="73.5"/>
						</Node>
					</Node>
				</TreeModel>
			</Segment>
			<Segment id="18">
				<True/>
				<TreeModel functionName="regression" noTrueChildStrategy="returnLastPrediction" x-mathContext="float">
					<MiningSchema>
						<MiningField name="bw01"/>
						<MiningField name="bw02"/>
						<MiningField name="cpu01"/>
						<MiningField name="cpu02"/>
						<MiningField name="cur"/>
						<MiningField name="pi"/>
						<MiningField name="time"/>
					</MiningSchema>
					<Node score="1.2290022">
						<True/>
						<Node score="22.146727">
							<SimplePredicate field="cpu02" operator="greaterOrEqual" value="53.00997"/>
							<Node score="10.654441">
								<SimplePredicate field="time" operator="greaterOrEqual" value="19.5"/>
								<Node score="14.756328">
									<SimplePredicate field="bw02" operator="greaterOrEqual" value="32.426582"/>
								</Node>
							</Node>
							<Node score="30.374582">
								<SimplePredicate field="cur" operator="greaterOrEqual" value="1487.5"/>
								<Node score="23.948198">
									<SimplePredicate field="time" operator="greaterOrEqual" value="16.5"/>
								</Node>
							</Node>
							<Node score="19.219378">
								<SimplePredicate field="time" operator="greaterOrEqual" value="17.0"/>
							</Node>
							<Node score="25.270376">
								<SimplePredicate field="time" operator="greaterOrEqual" value="12.5"/>
							</Node>
						</Node>
						<Node score="5.4883494">
							<SimplePredicate field="pi" operator="greaterOrEqual" value="122.5"/>
							<Node score="11.696757">
								<SimplePredicate field="bw01" operator="greaterOrEqual" value="0.5124"/>
								<Node score="5.113373">
									<SimplePredicate field="time" operator="greaterOrEqual" value="22.5"/>
									<Node score="7.1924767">
										<SimplePredicate field="cpu01" operator="greaterOrEqual" value="33.360664"/>
									</Node>
								</Node>
								<Node score="9.064424">
									<SimplePredicate field="bw01" operator="greaterOrEqual" value="1.39355"/>
								</Node>
							</Node>
						</Node>
						<Node score="2.1408088">
							<SimplePredicate field="time" operator="greaterOrEqual" value="3.5"/>
							<Node score="4.5258384">
								<SimplePredicate field="time" operator="greaterOrEqual" value="4.5"/>
							</Node>
							<Node score="3.1068275">
								<SimplePredicate field="pi" operator="greaterOrEqual" value="95.5"/>
							</Node>
						</Node>
						<Node score="1.7833941">
							<SimplePredicate field="cpu02" operator="greaterOrEqual" value="27.50364"/>
							<Node score="2.6389694">
								<SimplePredicate field="cpu02" operator="greaterOrEqual" value="30.45059"/>
							</Node>
						</Node>
						<Node score="1.6352981">
							<SimplePredicate field="pi" operator="greaterOrEqual" value="73.5"/>
						</Node>
					</Node>
				</TreeModel>
			</Segment>
			<Segment id="19">
				<True/>
				<TreeModel functionName="regression" noTrueChildStrategy="returnLastPrediction" x-mathContext="float">
					<MiningSchema>
						<MiningField name="bw01"/>
						<MiningField name="bw02"/>
						<MiningField name="cpu01"/>
						<MiningField name="cpu02"/>
						<MiningField name="cur"/>
						<MiningField name="pi"/>
						<MiningField name="time"/>
					</MiningSchema>
					<Node score="1.2811483">
						<True/>
						<Node score="20.015127">
							<SimplePredicate field="cpu02" operator="greaterOrEqual" value="55.174538"/>
							<Node score="12.023101">
								<SimplePredicate field="time" operator="greaterOrEqual" value="18.5"/>
								<Node score="16.620443">
									<SimplePredicate field="bw01" operator="greaterOrEqual" value="43.681015"/>
								</Node>
							</Node>
							<Node score="21.008883">
								<SimplePredicate field="time" operator="greaterOrEqual" value="12.5"/>
								<Node score="19.963675">
									<SimplePredicate field="time" operator="greaterOrEqual" value="17.5"/>
								</Node>
								<Node score="25.035944">
									<SimplePredicate field="bw02" operator="greaterOrEqual" value="53.37773"/>
								</Node>
							</Node>
						</Node>
						<Node score="4.8004475">
							<SimplePredicate field="pi" operator="greaterOrEqual" value="133.5"/>
							<Node score="3.6884048">
								<SimplePredicate field="time" operator="greaterOrEqual" value="22.5"/>
								<Node score="6.1291294">
									<SimplePredicate field="cur" operator="greaterOrEqual" value="518.0"/>
								</Node>
							</Node>
							<Node score="10.855856">
								<SimplePredicate field="bw01" operator="greaterOrEqual" value="0.5124"/>
								<Node score="8.160442">
									<SimplePredicate field="time" operator="greaterOrEqual" value="21.5"/>
								</Node>
							</Node>
						</Node>
						<Node score="3.0017304">
							<SimplePredicate field="cpu01" operator="greaterOrEqual" value="10.701"/>
							<Node score="4.7401376">
								<SimplePredicate field="cpu02" operator="greaterOrEqual" value="30.0781"/>
							</Node>
						</Node>
						<Node score="2.4818904">
							<SimplePredicate field="time" operator="greaterOrEqual" value="3.5"/>
						</Node>
						<Node score="1.7609068">
							<SimplePredicate field="bw01" operator="greaterOrEqual" value="0.185"/>
						</Node>
					</Node>
				</TreeModel>
			</Segment>
			<Segment id="20">
				<True/>
				<TreeModel functionName="regression" noTrueChildStrategy="returnLastPrediction" x-mathContext="float">
					<MiningSchema>
						<MiningField name="bw01"/>
						<MiningField name="cpu01"/>
						<MiningField name="cpu02"/>
						<MiningField name="cur"/>
						<MiningField name="pi"/>
						<MiningField name="time"/>
					</MiningSchema>
					<Node score="0.9650877">
						<True/>
						<Node score="14.221351">
							<SimplePredicate field="cpu02" operator="greaterOrEqual" value="53.00997"/>
							<Node score="19.271152">
								<SimplePredicate field="cpu01" operator="greaterOrEqual" value="69.46533"/>
								<Node score="25.591328">
									<SimplePredicate field="cur" operator="greaterOrEqual" value="1514.5"/>
									<Node score="19.706148">
										<SimplePredicate field="time" operator="greaterOrEqual" value="16.5"/>
									</Node>
								</Node>
								<Node score="15.694877">
									<SimplePredicate field="time" operator="greaterOrEqual" value="18.5"/>
								</Node>
							</Node>
							<Node score="9.973923">
								<SimplePredicate field="time" operator="greaterOrEqual" value="20.5"/>
							</Node>
						</Node>
						<Node score="4.5127254">
							<SimplePredicate field="pi" operator="greaterOrEqual" value="122.5"/>
							<Node score="9.496502">
								<SimplePredicate field="bw01" operator="greaterOrEqual" value="0.5124"/>
								<Node score="3.849606">
									<SimplePredicate field="time" operator="greaterOrEqual" value="22.5"/>
									<Node score="5.748668">
										<SimplePredicate field="cpu02" operator="greaterOrEqual" value="39.057396"/>
									</Node>
								</Node>
								<Node score="7.375727">
									<SimplePredicate field="bw01" operator="greaterOrEqual" value="1.39355"/>
								</Node>
							</Node>
						</Node>
						<Node score="2.3991125">
							<SimplePredicate field="cpu01" operator="greaterOrEqual" value="9.548666"/>
							<Node score="3.7258923">
								<SimplePredicate field="time" operator="greaterOrEqual" value="4.5"/>
							</Node>
						</Node>
						<Node score="1.3616363">
							<SimplePredicate field="cpu01" operator="greaterOrEqual" value="7.585"/>
							<Node score="1.8039833">
								<SimplePredicate field="time" operator="greaterOrEqual" value="2.5"/>
							</Node>
						</Node>
						<Node score="1.2965158">
							<SimplePredicate field="bw01" operator="greaterOrEqual" value="0.058"/>
						</Node>
					</Node>
				</TreeModel>
			</Segment>
			<Segment id="21">
				<True/>
				<TreeModel functionName="regression" noTrueChildStrategy="returnLastPrediction" x-mathContext="float">
					<MiningSchema>
						<MiningField name="bw01"/>
						<MiningField name="bw02"/>
						<MiningField name="cpu01"/>
						<MiningField name="cpu02"/>
						<MiningField name="cur"/>
						<MiningField name="pi"/>
						<MiningField name="time"/>
					</MiningSchema>
					<Node score="0.8708767">
						<True/>
						<Node score="16.609266">
							<SimplePredicate field="cpu02" operator="greaterOrEqual" value="55.576286"/>
							<Node score="10.51631">
								<SimplePredicate field="time" operator="greaterOrEqual" value="19.5"/>
							</Node>
							<Node score="20.585577">
								<SimplePredicate field="cur" operator="greaterOrEqual" value="1447.5"/>
								<Node score="15.8461075">
									<SimplePredicate field="time" operator="greaterOrEqual" value="17.5"/>
								</Node>
							</Node>
						</Node>
						<Node score="4.2810926">
							<SimplePredicate field="pi" operator="greaterOrEqual" value="133.5"/>
							<Node score="3.6935556">
								<SimplePredicate field="time" operator="greaterOrEqual" value="22.5"/>
								<Node score="5.3886495">
									<SimplePredicate field="cpu01" operator="greaterOrEqual" value="33.360664"/>
								</Node>
							</Node>
							<Node score="9.221675">
								<SimplePredicate field="pi" operator="greaterOrEqual" value="178.0"/>
								<Node score="6.815912">
									<SimplePredicate field="bw02" operator="greaterOrEqual" value="20.55777"/>
								</Node>
							</Node>
						</Node>
						<Node score="2.4304607">
							<SimplePredicate field="cpu01" operator="greaterOrEqual" value="10.701"/>
							<Node score="3.8948147">
								<SimplePredicate field="cpu02" operator="greaterOrEqual" value="30.0781"/>
							</Node>
						</Node>
						<Node score="1.649674">
							<SimplePredicate field="bw01" operator="greaterOrEqual" value="0.213"/>
							<Node score="2.322879">
								<SimplePredicate field="cpu02" operator="greaterOrEqual" value="30.284853"/>
							</Node>
						</Node>
						<Node score="1.2539798">
							<SimplePredicate field="bw01" operator="greaterOrEqual" value="0.058"/>
						</Node>
					</Node>
				</TreeModel>
			</Segment>
			<Segment id="22">
				<True/>
				<TreeModel functionName="regression" noTrueChildStrategy="returnLastPrediction" x-mathContext="float">
					<MiningSchema>
						<MiningField name="bw01"/>
						<MiningField name="cpu01"/>
						<MiningField name="cpu02"/>
						<MiningField name="cur"/>
						<MiningField name="pi"/>
						<MiningField name="time"/>
					</MiningSchema>
					<Node score="0.78760916">
						<True/>
						<Node score="11.5509815">
							<SimplePredicate field="cpu02" operator="greaterOrEqual" value="53.00997"/>
							<Node score="14.821513">
								<SimplePredicate field="cpu01" operator="greaterOrEqual" value="69.94833"/>
								<Node score="21.095158">
									<SimplePredicate field="cur" operator="greaterOrEqual" value="1514.5"/>
									<Node score="15.920825">
										<SimplePredicate field="time" operator="greaterOrEqual" value="16.5"/>
									</Node>
								</Node>
								<Node score="12.571181">
									<SimplePredicate field="time" operator="greaterOrEqual" value="18.5"/>
								</Node>
								<Node score="16.767242">
									<SimplePredicate field="time" operator="greaterOrEqual" value="12.5"/>
								</Node>
							</Node>
							<Node score="8.044169">
								<SimplePredicate field="time" operator="greaterOrEqual" value="20.5"/>
							</Node>
						</Node>
						<Node score="3.6717355">
							<SimplePredicate field="pi" operator="greaterOrEqual" value="117.0"/>
							<Node score="7.6944366">
								<SimplePredicate field="bw01" operator="greaterOrEqual" value="0.5124"/>
								<Node score="3.343641">
									<SimplePredicate field="time" operator="greaterOrEqual" value="22.5"/>
									<Node score="4.8722377">
										<SimplePredicate field="cpu01" operator="greaterOrEqual" value="33.360664"/>
									</Node>
								</Node>
								<Node score="5.9783764">
									<SimplePredicate field="bw01" operator="greaterOrEqual" value="1.39355"/>
								</Node>
							</Node>
						</Node>
						<Node score="1.1749412">
							<SimplePredicate field="time" operator="greaterOrEqual" value="3.5"/>
							<Node score="3.0923333">
								<SimplePredicate field="cpu02" operator="greaterOrEqual" value="31.012903"/>
							</Node>
							<Node score="2.001433">
								<SimplePredicate field="pi" operator="greaterOrEqual" value="94.5"/>
							</Node>
						</Node>
						<Node score="1.1680418">
							<SimplePredicate field="cpu02" operator="greaterOrEqual" value="27.50364"/>
							<Node score="1.8978704">
								<SimplePredicate field="cpu02" operator="greaterOrEqual" value="30.45059"/>
							</Node>
						</Node>
						<Node score="1.1063604">
							<SimplePredicate field="pi" operator="greaterOrEqual" value="74.5"/>
						</Node>
					</Node>
				</TreeModel>
			</Segment>
			<Segment id="23">
				<True/>
				<TreeModel functionName="regression" noTrueChildStrategy="returnLastPrediction" x-mathContext="float">
					<MiningSchema>
						<MiningField name="bw01"/>
						<MiningField name="bw02"/>
						<MiningField name="cpu01"/>
						<MiningField name="cpu02"/>
						<MiningField name="pi"/>
						<MiningField name="time"/>
					</MiningSchema>
					<Node score="0.7089762">
						<True/>
						<Node score="11.825648">
							<SimplePredicate field="cpu02" operator="greaterOrEqual" value="53.00997"/>
							<Node score="6.0285635">
								<SimplePredicate field="time" operator="greaterOrEqual" value="19.5"/>
								<Node score="8.702617">
									<SimplePredicate field="bw02" operator="greaterOrEqual" value="32.426582"/>
								</Node>
							</Node>
							<Node score="13.390056">
								<SimplePredicate field="cpu02" operator="greaterOrEqual" value="75.647995"/>
								<Node score="17.78922">
									<SimplePredicate field="time" operator="greaterOrEqual" value="12.0"/>
									<Node score="14.349421">
										<SimplePredicate field="time" operator="greaterOrEqual" value="16.5"/>
									</Node>
								</Node>
							</Node>
							<Node score="14.171535">
								<SimplePredicate field="cpu01" operator="greaterOrEqual" value="71.69566"/>
								<Node score="11.8004">
									<SimplePredicate field="time" operator="greaterOrEqual" value="17.0"/>
								</Node>
							</Node>
						</Node>
						<Node score="3.347363">
							<SimplePredicate field="pi" operator="greaterOrEqual" value="122.5"/>
							<Node score="6.9437585">
								<SimplePredicate field="bw01" operator="greaterOrEqual" value="0.5124"/>
								<Node score="2.7696116">
									<SimplePredicate field="time" operator="greaterOrEqual" value="22.5"/>
									<Node score="4.291851">
										<SimplePredicate field="cpu02" operator="greaterOrEqual" value="39.057396"/>
									</Node>
								</Node>
								<Node score="5.394443">
									<SimplePredicate field="bw01" operator="greaterOrEqual" value="1.39355"/>
								</Node>
							</Node>
						</Node>
						<Node score="1.2050194">
							<SimplePredicate field="time" operator="greaterOrEqual" value="3.5"/>
							<Node score="3.1358845">
								<SimplePredicate field="time" operator="greaterOrEqual" value="4.5"/>
								<Node score="1.7119004">
									<SimplePredicate field="bw01" operator="greaterOrEqual" value="0.302"/>
								</Node>
							</Node>
							<Node score="1.8810958">
								<SimplePredicate field="pi" operator="greaterOrEqual" value="94.5"/>
							</Node>
						</Node>
						<Node score="1.4473288">
							<SimplePredicate field="cpu01" operator="greaterOrEqual" value="8.405001"/>
							<Node score="0.94144326">
								<SimplePredicate field="bw01" operator="greaterOrEqual" value="0.221"/>
							</Node>
						</Node>
						<Node score="0.95138866">
							<SimplePredicate field="bw01" operator="greaterOrEqual" value="0.058"/>
						</Node>
					</Node>
				</TreeModel>
			</Segment>
			<Segment id="24">
				<True/>
				<TreeModel functionName="regression" noTrueChildStrategy="returnLastPrediction" x-mathContext="float">
					<MiningSchema>
						<MiningField name="bw01"/>
						<MiningField name="bw02"/>
						<MiningField name="cpu01"/>
						<MiningField name="cpu02"/>
						<MiningField name="pi"/>
						<MiningField name="time"/>
					</MiningSchema>
					<Node score="0.75947356">
						<True/>
						<Node score="11.753541">
							<SimplePredicate field="cpu01" operator="greaterOrEqual" value="48.72767"/>
							<Node score="6.9577346">
								<SimplePredicate field="time" operator="greaterOrEqual" value="18.5"/>
								<Node score="9.907832">
									<SimplePredicate field="cpu02" operator="greaterOrEqual" value="64.16211"/>
								</Node>
							</Node>
							<Node score="11.197122">
								<SimplePredicate field="time" operator="greaterOrEqual" value="12.5"/>
								<Node score="11.672715">
									<SimplePredicate field="time" operator="greaterOrEqual" value="17.5"/>
								</Node>
								<Node score="14.941478">
									<SimplePredicate field="bw02" operator="greaterOrEqual" value="51.99103"/>
								</Node>
							</Node>
						</Node>
						<Node score="3.0507686">
							<SimplePredicate field="pi" operator="greaterOrEqual" value="117.0"/>
							<Node score="4.0249434">
								<SimplePredicate field="pi" operator="greaterOrEqual" value="178.0"/>
								<Node score="3.562704">
									<SimplePredicate field="bw01" operator="greaterOrEqual" value="8.958183"/>
									<Node score="5.907169">
										<SimplePredicate field="cpu01" operator="greaterOrEqual" value="46.819"/>
									</Node>
								</Node>
								<Node score="6.910867">
									<SimplePredicate field="cpu01" operator="greaterOrEqual" value="23.949333"/>
								</Node>
							</Node>
						</Node>
						<Node score="0.95858115">
							<SimplePredicate field="time" operator="greaterOrEqual" value="3.5"/>
							<Node score="2.5809815">
								<SimplePredicate field="cpu02" operator="greaterOrEqual" value="31.012903"/>
							</Node>
							<Node score="1.6222028">
								<SimplePredicate field="pi" operator="greaterOrEqual" value="94.5"/>
							</Node>
						</Node>
						<Node score="1.5419178">
							<SimplePredicate field="cpu02" operator="greaterOrEqual" value="30.190533"/>
						</Node>
						<Node score="1.0834844">
							<SimplePredicate field="pi" operator="greaterOrEqual" value="88.5"/>
						</Node>
					</Node>
				</TreeModel>
			</Segment>
			<Segment id="25">
				<True/>
				<TreeModel functionName="regression" noTrueChildStrategy="returnLastPrediction" x-mathContext="float">
					<MiningSchema>
						<MiningField name="bw01"/>
						<MiningField name="cpu01"/>
						<MiningField name="cpu02"/>
						<MiningField name="pi"/>
						<MiningField name="time"/>
					</MiningSchema>
					<Node score="0.75803083">
						<True/>
						<Node score="7.8182335">
							<SimplePredicate field="cpu02" operator="greaterOrEqual" value="55.576286"/>
							<Node score="6.33077">
								<SimplePredicate field="time" operator="greaterOrEqual" value="18.5"/>
								<Node score="8.895366">
									<SimplePredicate field="bw01" operator="greaterOrEqual" value="43.681015"/>
								</Node>
							</Node>
							<Node score="10.726263">
								<SimplePredicate field="bw01" operator="greaterOrEqual" value="53.220516"/>
								<Node score="10.533235">
									<SimplePredicate field="time" operator="greaterOrEqual" value="17.5"/>
								</Node>
								<Node score="13.674553">
									<SimplePredicate field="time" operator="greaterOrEqual" value="12.5"/>
								</Node>
							</Node>
							<Node score="10.836909">
								<SimplePredicate field="pi" operator="greaterOrEqual" value="270.5"/>
							</Node>
						</Node>
						<Node score="3.141287">
							<SimplePredicate field="pi" operator="greaterOrEqual" value="133.5"/>
							<Node score="2.4787385">
								<SimplePredicate field="time" operator="greaterOrEqual" value="22.5"/>
								<Node score="3.8001232">
									<SimplePredicate field="cpu01" operator="greaterOrEqual" value="33.75567"/>
								</Node>
							</Node>
							<Node score="6.502688">
								<SimplePredicate field="cpu01" operator="greaterOrEqual" value="23.598667"/>
								<Node score="4.4915075">
									<SimplePredicate field="bw01" operator="greaterOrEqual" value="6.9879"/>
								</Node>
							</Node>
						</Node>
						<Node score="1.5632268">
							<SimplePredicate field="cpu01" operator="greaterOrEqual" value="10.701"/>
							<Node score="2.9805627">
								<SimplePredicate field="cpu02" operator="greaterOrEqual" value="30.0781"/>
								<Node score="1.7230959">
									<SimplePredicate field="cpu01" operator="greaterOrEqual" value="13.160999"/>
								</Node>
							</Node>
						</Node>
						<Node score="1.455263">
							<SimplePredicate field="time" operator="greaterOrEqual" value="3.5"/>
							<Node score="0.9096388">
								<SimplePredicate field="pi" operator="greaterOrEqual" value="102.5"/>
							</Node>
						</Node>
						<Node score="1.5006555">
							<SimplePredicate field="cpu02" operator="greaterOrEqual" value="30.45059"/>
						</Node>
					</Node>
				</TreeModel>
			</Segment>
			<Segment id="26">
				<True/>
				<TreeModel functionName="regression" noTrueChildStrategy="returnLastPrediction" x-mathContext="float">
					<MiningSchema>
						<MiningField name="bw01"/>
						<MiningField name="cpu01"/>
						<MiningField name="cpu02"/>
						<MiningField name="cur"/>
						<MiningField name="pi"/>
						<MiningField name="time"/>
					</MiningSchema>
					<Node score="0.5543464">
						<True/>
						<Node score="8.329642">
							<SimplePredicate field="cpu01" operator="greaterOrEqual" value="48.303"/>
							<Node score="10.062243">
								<SimplePredicate field="cpu01" operator="greaterOrEqual" value="71.04401"/>
								<Node score="14.522742">
									<SimplePredicate field="cur" operator="greaterOrEqual" value="1514.5"/>
									<Node score="10.3868475">
										<SimplePredicate field="time" operator="greaterOrEqual" value="16.5"/>
									</Node>
								</Node>
								<Node score="8.545878">
									<SimplePredicate field="time" operator="greaterOrEqual" value="17.0"/>
								</Node>
								<Node score="12.1341505">
									<SimplePredicate field="time" operator="greaterOrEqual" value="14.5"/>
								</Node>
							</Node>
							<Node score="5.3475146">
								<SimplePredicate field="time" operator="greaterOrEqual" value="20.5"/>
							</Node>
							<Node score="6.713094">
								<SimplePredicate field="time" operator="greaterOrEqual" value="19.5"/>
							</Node>
						</Node>
						<Node score="2.5205507">
							<SimplePredicate field="pi" operator="greaterOrEqual" value="117.0"/>
							<Node score="2.9405923">
								<SimplePredicate field="cpu02" operator="greaterOrEqual" value="36.001503"/>
								<Node score="2.842885">
									<SimplePredicate field="bw01" operator="greaterOrEqual" value="8.958183"/>
									<Node score="4.661487">
										<SimplePredicate field="cur" operator="greaterOrEqual" value="775.5"/>
									</Node>
								</Node>
								<Node score="5.6288853">
									<SimplePredicate field="pi" operator="greaterOrEqual" value="185.5"/>
								</Node>
							</Node>
						</Node>
						<Node score="1.1171478">
							<SimplePredicate field="cpu02" operator="greaterOrEqual" value="30.649965"/>
							<Node score="2.1200705">
								<SimplePredicate field="cpu01" operator="greaterOrEqual" value="9.799"/>
							</Node>
						</Node>
						<Node score="1.2796118">
							<SimplePredicate field="time" operator="greaterOrEqual" value="3.5"/>
							<Node score="0.65287095">
								<SimplePredicate field="bw01" operator="greaterOrEqual" value="0.265"/>
							</Node>
						</Node>
						<Node score="0.7959644">
							<SimplePredicate field="cpu02" operator="greaterOrEqual" value="27.50364"/>
						</Node>
					</Node>
				</TreeModel>
			</Segment>
			<Segment id="27">
				<True/>
				<TreeModel functionName="regression" noTrueChildStrategy="returnLastPrediction" x-mathContext="float">
					<MiningSchema>
						<MiningField name="bw01"/>
						<MiningField name="bw02"/>
						<MiningField name="cpu01"/>
						<MiningField name="cpu02"/>
						<MiningField name="pi"/>
						<MiningField name="time"/>
					</MiningSchema>
					<Node score="0.55178916">
						<True/>
						<Node score="8.519874">
							<SimplePredicate field="cpu02" operator="greaterOrEqual" value="55.576286"/>
							<Node score="5.1945624">
								<SimplePredicate field="time" operator="greaterOrEqual" value="18.5"/>
								<Node score="7.3266044">
									<SimplePredicate field="cpu02" operator="greaterOrEqual" value="64.28635"/>
								</Node>
							</Node>
							<Node score="8.598801">
								<SimplePredicate field="bw02" operator="greaterOrEqual" value="52.524727"/>
								<Node score="8.552405">
									<SimplePredicate field="time" operator="greaterOrEqual" value="17.5"/>
								</Node>
								<Node score="10.944909">
									<SimplePredicate field="time" operator="greaterOrEqual" value="11.5"/>
								</Node>
							</Node>
						</Node>
						<Node score="2.593582">
							<SimplePredicate field="pi" operator="greaterOrEqual" value="133.5"/>
							<Node score="1.440931">
								<SimplePredicate field="time" operator="greaterOrEqual" value="22.5"/>
								<Node score="3.1690378">
									<SimplePredicate field="cpu01" operator="greaterOrEqual" value="33.75567"/>
								</Node>
								<Node score="2.3343534">
									<SimplePredicate field="cpu02" operator="greaterOrEqual" value="39.057396"/>
								</Node>
							</Node>
							<Node score="5.293839">
								<SimplePredicate field="cpu01" operator="greaterOrEqual" value="23.598667"/>
								<Node score="3.6407917">
									<SimplePredicate field="bw01" operator="greaterOrEqual" value="6.9879"/>
								</Node>
							</Node>
						</Node>
						<Node score="1.3528607">
							<SimplePredicate field="cpu01" operator="greaterOrEqual" value="10.701"/>
							<Node score="0.870626">
								<SimplePredicate field="bw01" operator="greaterOrEqual" value="0.32099998"/>
								<Node score="1.6888077">
									<SimplePredicate field="pi" operator="greaterOrEqual" value="127.5"/>
								</Node>
							</Node>
							<Node score="2.530212">
								<SimplePredicate field="time" operator="greaterOrEqual" value="4.5"/>
							</Node>
						</Node>
						<Node score="0.88930935">
							<SimplePredicate field="pi" operator="greaterOrEqual" value="88.5"/>
							<Node score="1.4135492">
								<SimplePredicate field="cpu02" operator="greaterOrEqual" value="30.380852"/>
							</Node>
						</Node>
						<Node score="1.0205272">
							<SimplePredicate field="bw02" operator="greaterOrEqual" value="0.7345882"/>
						</Node>
					</Node>
				</TreeModel>
			</Segment>
			<Segment id="28">
				<True/>
				<TreeModel functionName="regression" noTrueChildStrategy="returnLastPrediction" x-mathContext="float">
					<MiningSchema>
						<MiningField name="bw01"/>
						<MiningField name="bw02"/>
						<MiningField name="cpu01"/>
						<MiningField name="cpu02"/>
						<MiningField name="cur"/>
						<MiningField name="pi"/>
						<MiningField name="time"/>
					</MiningSchema>
					<Node score="0.44277">
						<True/>
						<Node score="6.223659">
							<SimplePredicate field="cpu01" operator="greaterOrEqual" value="48.303"/>
							<Node score="7.9223914">
								<SimplePredicate field="cpu01" operator="greaterOrEqual" value="71.04401"/>
								<Node score="11.974389">
									<SimplePredicate field="cur" operator="greaterOrEqual" value="1504.5"/>
									<Node score="7.439167">
										<SimplePredicate field="time" operator="greaterOrEqual" value="16.5"/>
										<Node score="9.353751">
											<SimplePredicate field="cur" operator="greaterOrEqual" value="1577.0"/>
										</Node>
									</Node>
								</Node>
								<Node score="6.709381">
									<SimplePredicate field="time" operator="greaterOrEqual" value="17.0"/>
								</Node>
								<Node score="9.102378">
									<SimplePredicate field="time" operator="greaterOrEqual" value="12.5"/>
								</Node>
							</Node>
							<Node score="4.358711">
								<SimplePredicate field="time" operator="greaterOrEqual" value="20.5"/>
							</Node>
						</Node>
						<Node score="2.2386475">
							<SimplePredicate field="pi" operator="greaterOrEqual" value="117.0"/>
							<Node score="2.4225984">
								<SimplePredicate field="cpu02" operator="greaterOrEqual" value="36.001503"/>
								<Node score="2.3396795">
									<SimplePredicate field="cur" operator="greaterOrEqual" value="331.5"/>
									<Node score="3.954424">
										<SimplePredicate field="cpu01" operator="greaterOrEqual" value="46.819"/>
									</Node>
								</Node>
								<Node score="4.7827663">
									<SimplePredicate field="pi" operator="greaterOrEqual" value="185.5"/>
								</Node>
							</Node>
							<Node score="0.633165">
								<SimplePredicate field="cpu02" operator="greaterOrEqual" value="32.255745"/>
								<Node score="2.0425258">
									<SimplePredicate field="bw02" operator="greaterOrEqual" value="0.91707796"/>
								</Node>
							</Node>
						</Node>
						<Node score="0.9193573">
							<SimplePredicate field="cpu02" operator="greaterOrEqual" value="30.649965"/>
							<Node score="1.7428197">
								<SimplePredicate field="cpu01" operator="greaterOrEqual" value="9.799"/>
							</Node>
						</Node>
						<Node score="1.0590748">
							<SimplePredicate field="time" operator="greaterOrEqual" value="3.5"/>
							<Node score="0.5007799">
								<SimplePredicate field="bw01" operator="greaterOrEqual" value="0.265"/>
							</Node>
						</Node>
						<Node score="0.6485561">
							<SimplePredicate field="cpu02" operator="greaterOrEqual" value="27.50364"/>
						</Node>
					</Node>
				</TreeModel>
			</Segment>
			<Segment id="29">
				<True/>
				<TreeModel functionName="regression" noTrueChildStrategy="returnLastPrediction" x-mathContext="float">
					<MiningSchema>
						<MiningField name="bw02"/>
						<MiningField name="cpu01"/>
						<MiningField name="cpu02"/>
						<MiningField name="cur"/>
						<MiningField name="pi"/>
						<MiningField name="time"/>
					</MiningSchema>
					<Node score="0.5258131">
						<True/>
						<Node score="6.518094">
							<SimplePredicate field="cpu01" operator="greaterOrEqual" value="48.303"/>
							<Node score="4.7872944">
								<SimplePredicate field="time" operator="greaterOrEqual" value="19.5"/>
								<Node score="4.796663">
									<SimplePredicate field="cpu01" operator="greaterOrEqual" value="55.374332"/>
								</Node>
								<Node score="0.8137767">
									<SimplePredicate field="cpu02" operator="greaterOrEqual" value="54.48446"/>
									<Node score="3.4671485">
										<SimplePredicate field="bw02" operator="greaterOrEqual" value="31.937843"/>
									</Node>
								</Node>
							</Node>
							<Node score="10.8221035">
								<SimplePredicate field="bw02" operator="greaterOrEqual" value="59.790382"/>
								<Node score="6.635389">
									<SimplePredicate field="time" operator="greaterOrEqual" value="16.5"/>
									<Node score="8.445887">
										<SimplePredicate field="cur" operator="greaterOrEqual" value="1577.0"/>
									</Node>
								</Node>
							</Node>
							<Node score="7.5573273">
								<SimplePredicate field="cpu01" operator="greaterOrEqual" value="72.75633"/>
							</Node>
						</Node>
						<Node score="1.3401045">
							<SimplePredicate field="pi" operator="greaterOrEqual" value="117.0"/>
							<Node score="2.2106202">
								<SimplePredicate field="cpu02" operator="greaterOrEqual" value="36.001503"/>
								<Node score="2.0082319">
									<SimplePredicate field="cpu01" operator="greaterOrEqual" value="31.453"/>
									<Node score="3.5411298">
										<SimplePredicate field="cpu01" operator="greaterOrEqual" value="46.74533"/>
									</Node>
								</Node>
								<Node score="4.150793">
									<SimplePredicate field="pi" operator="greaterOrEqual" value="185.5"/>
								</Node>
							</Node>
							<Node score="0.5804001">
								<SimplePredicate field="cpu02" operator="greaterOrEqual" value="32.255745"/>
								<Node score="1.872315">
									<SimplePredicate field="bw02" operator="greaterOrEqual" value="0.91707796"/>
								</Node>
							</Node>
							<Node score="2.204599">
								<SimplePredicate field="bw02" operator="greaterOrEqual" value="0.75855696"/>
							</Node>
						</Node>
						<Node score="0.8427442">
							<SimplePredicate field="cpu02" operator="greaterOrEqual" value="30.649965"/>
							<Node score="1.5819436">
								<SimplePredicate field="cpu01" operator="greaterOrEqual" value="9.799"/>
							</Node>
						</Node>
						<Node score="0.9494263">
							<SimplePredicate field="time" operator="greaterOrEqual" value="3.5"/>
							<Node score="0.41883826">
								<SimplePredicate field="pi" operator="greaterOrEqual" value="109.0"/>
							</Node>
						</Node>
						<Node score="0.13705008">
							<SimplePredicate field="cpu01" operator="greaterOrEqual" value="9.097667"/>
						</Node>
					</Node>
				</TreeModel>
			</Segment>
			<Segment id="30">
				<True/>
				<TreeModel functionName="regression" noTrueChildStrategy="returnLastPrediction" x-mathContext="float">
					<MiningSchema>
						<MiningField name="bw01"/>
						<MiningField name="bw02"/>
						<MiningField name="cpu01"/>
						<MiningField name="cpu02"/>
						<MiningField name="pi"/>
						<MiningField name="time"/>
					</MiningSchema>
					<Node score="0.32744583">
						<True/>
						<Node score="5.4716673">
							<SimplePredicate field="cpu01" operator="greaterOrEqual" value="48.303"/>
							<Node score="6.337765">
								<SimplePredicate field="cpu01" operator="greaterOrEqual" value="71.04401"/>
								<Node score="9.763938">
									<SimplePredicate field="bw02" operator="greaterOrEqual" value="59.790382"/>
									<Node score="5.9412885">
										<SimplePredicate field="time" operator="greaterOrEqual" value="16.5"/>
										<Node score="7.6397424">
											<SimplePredicate field="cpu02" operator="greaterOrEqual" value="78.25813"/>
										</Node>
									</Node>
								</Node>
								<Node score="5.3532524">
									<SimplePredicate field="time" operator="greaterOrEqual" value="17.0"/>
								</Node>
								<Node score="7.313808">
									<SimplePredicate field="bw02" operator="greaterOrEqual" value="52.524727"/>
								</Node>
							</Node>
							<Node score="3.3251367">
								<SimplePredicate field="time" operator="greaterOrEqual" value="19.5"/>
								<Node score="2.4423187">
									<SimplePredicate field="pi" operator="greaterOrEqual" value="293.5"/>
									<Node score="4.5410085">
										<SimplePredicate field="cpu02" operator="greaterOrEqual" value="55.754097"/>
									</Node>
								</Node>
							</Node>
						</Node>
						<Node score="2.0211213">
							<SimplePredicate field="pi" operator="greaterOrEqual" value="117.0"/>
							<Node score="2.2739809">
								<SimplePredicate field="cpu02" operator="greaterOrEqual" value="36.001503"/>
								<Node score="1.9901991">
									<SimplePredicate field="bw02" operator="greaterOrEqual" value="1.4011073"/>
									<Node score="3.2489603">
										<SimplePredicate field="cpu01" operator="greaterOrEqual" value="46.819"/>
									</Node>
								</Node>
								<Node score="4.355651">
									<SimplePredicate field="cpu01" operator="greaterOrEqual" value="24.172667"/>
								</Node>
							</Node>
							<Node score="0.8809884">
								<SimplePredicate field="cpu01" operator="greaterOrEqual" value="13.160999"/>
								<Node score="1.7653421">
									<SimplePredicate field="pi" operator="greaterOrEqual" value="133.5"/>
								</Node>
							</Node>
						</Node>
						<Node score="0.7422647">
							<SimplePredicate field="cpu02" operator="greaterOrEqual" value="30.649965"/>
							<Node score="1.4498804">
								<SimplePredicate field="bw02" operator="greaterOrEqual" value="0.76192176"/>
							</Node>
						</Node>
						<Node score="0.749232">
							<SimplePredicate field="pi" operator="greaterOrEqual" value="88.5"/>
							<Node score="0.26844877">
								<SimplePredicate field="bw01" operator="greaterOrEqual" value="0.31059998"/>
							</Node>
						</Node>
						<Node score="0.5175323">
							<SimplePredicate field="cpu02" operator="greaterOrEqual" value="27.50364"/>
						</Node>
					</Node>
				</TreeModel>
			</Segment>
			<Segment id="31">
				<True/>
				<TreeModel functionName="regression" noTrueChildStrategy="returnLastPrediction" x-mathContext="float">
					<MiningSchema>
						<MiningField name="bw01"/>
						<MiningField name="bw02"/>
						<MiningField name="cpu01"/>
						<MiningField name="cpu02"/>
						<MiningField name="cur"/>
						<MiningField name="pi"/>
						<MiningField name="time"/>
					</MiningSchema>
					<Node score="0.39992732">
						<True/>
						<Node score="4.9749064">
							<SimplePredicate field="cpu01" operator="greaterOrEqual" value="48.303"/>
							<Node score="5.6761937">
								<SimplePredicate field="cpu01" operator="greaterOrEqual" value="71.69566"/>
								<Node score="8.881397">
									<SimplePredicate field="cur" operator="greaterOrEqual" value="1505.5"/>
									<Node score="5.45143">
										<SimplePredicate field="time" operator="greaterOrEqual" value="16.5"/>
										<Node score="6.919596">
											<SimplePredicate field="cur" operator="greaterOrEqual" value="1577.0"/>
										</Node>
									</Node>
								</Node>
								<Node score="4.8857126">
									<SimplePredicate field="time" operator="greaterOrEqual" value="17.0"/>
								</Node>
								<Node score="6.677713">
									<SimplePredicate field="time" operator="greaterOrEqual" value="11.5"/>
								</Node>
							</Node>
							<Node score="3.201556">
								<SimplePredicate field="time" operator="greaterOrEqual" value="16.5"/>
								<Node score="4.2207127">
									<SimplePredicate field="cpu01" operator="greaterOrEqual" value="62.41233"/>
								</Node>
							</Node>
							<Node score="6.987386">
								<SimplePredicate field="pi" operator="greaterOrEqual" value="299.5"/>
							</Node>
							<Node score="2.5797944">
								<SimplePredicate field="cpu01" operator="greaterOrEqual" value="71.47467"/>
							</Node>
						</Node>
						<Node score="2.165115">
							<SimplePredicate field="cpu01" operator="greaterOrEqual" value="12.750999"/>
							<Node score="1.8217636">
								<SimplePredicate field="cpu02" operator="greaterOrEqual" value="36.001503"/>
								<Node score="1.6926478">
									<SimplePredicate field="cur" operator="greaterOrEqual" value="331.5"/>
									<Node score="2.946608">
										<SimplePredicate field="cur" operator="greaterOrEqual" value="775.5"/>
									</Node>
								</Node>
								<Node score="3.5827444">
									<SimplePredicate field="pi" operator="greaterOrEqual" value="185.5"/>
								</Node>
							</Node>
							<Node score="0.84298277">
								<SimplePredicate field="pi" operator="greaterOrEqual" value="126.5"/>
								<Node score="1.6035193">
									<SimplePredicate field="pi" operator="greaterOrEqual" value="133.5"/>
								</Node>
							</Node>
						</Node>
						<Node score="0.7330139">
							<SimplePredicate field="bw01" operator="greaterOrEqual" value="0.251"/>
							<Node score="0.18677534">
								<SimplePredicate field="bw01" operator="greaterOrEqual" value="0.30699998"/>
								<Node score="0.5995271">
									<SimplePredicate field="cpu02" operator="greaterOrEqual" value="29.327152"/>
								</Node>
							</Node>
							<Node score="1.4483281">
								<SimplePredicate field="bw02" operator="greaterOrEqual" value="0.7390584"/>
							</Node>
						</Node>
						<Node score="0.6844729">
							<SimplePredicate field="pi" operator="greaterOrEqual" value="83.5"/>
							<Node score="0.3896224">
								<SimplePredicate field="cpu02" operator="greaterOrEqual" value="29.213097"/>
							</Node>
						</Node>
						<Node score="0.17748997">
							<SimplePredicate field="bw01" operator="greaterOrEqual" value="0.175"/>
						</Node>
					</Node>
				</TreeModel>
			</Segment>
			<Segment id="32">
				<True/>
				<TreeModel functionName="regression" noTrueChildStrategy="returnLastPrediction" x-mathContext="float">
					<MiningSchema>
						<MiningField name="bw01"/>
						<MiningField name="bw02"/>
						<MiningField name="cpu01"/>
						<MiningField name="cpu02"/>
						<MiningField name="cur"/>
						<MiningField name="pi"/>
						<MiningField name="time"/>
					</MiningSchema>
					<Node score="0.3517517">
						<True/>
						<Node score="4.3269944">
							<SimplePredicate field="cpu02" operator="greaterOrEqual" value="55.576286"/>
							<Node score="1.8566529">
								<SimplePredicate field="time" operator="greaterOrEqual" value="18.5"/>
								<Node score="4.33901">
									<SimplePredicate field="bw01" operator="greaterOrEqual" value="43.681015"/>
								</Node>
								<Node score="1.2675018">
									<SimplePredicate field="bw01" operator="greaterOrEqual" value="43.353184"/>
								</Node>
								<Node score="3.3636243">
									<SimplePredicate field="bw02" operator="greaterOrEqual" value="32.426582"/>
								</Node>
							</Node>
							<Node score="6.072108">
								<SimplePredicate field="bw01" operator="greaterOrEqual" value="53.220516"/>
								<Node score="4.7271185">
									<SimplePredicate field="time" operator="greaterOrEqual" value="16.5"/>
									<Node score="6.2589655">
										<SimplePredicate field="cpu02" operator="greaterOrEqual" value="78.25813"/>
									</Node>
								</Node>
								<Node score="8.203659">
									<SimplePredicate field="time" operator="greaterOrEqual" value="15.5"/>
								</Node>
							</Node>
							<Node score="5.9421163">
								<SimplePredicate field="pi" operator="greaterOrEqual" value="270.5"/>
								<Node score="4.891271">
									<SimplePredicate field="cur" operator="greaterOrEqual" value="1316.0"/>
								</Node>
							</Node>
							<Node score="1.9959646">
								<SimplePredicate field="bw02" operator="greaterOrEqual" value="8.057198"/>
							</Node>
						</Node>
						<Node score="1.571578">
							<SimplePredicate field="cpu01" operator="greaterOrEqual" value="12.750999"/>
							<Node score="2.6983078">
								<SimplePredicate field="cpu01" operator="greaterOrEqual" value="47.028667"/>
								<Node score="1.4059912">
									<SimplePredicate field="cpu02" operator="greaterOrEqual" value="54.624565"/>
								</Node>
								<Node score="4.152943">
									<SimplePredicate field="cpu01" operator="greaterOrEqual" value="48.303"/>
								</Node>
							</Node>
							<Node score="-0.027362933">
								<SimplePredicate field="cpu01" operator="greaterOrEqual" value="31.453"/>
								<Node score="1.6261187">
									<SimplePredicate field="cur" operator="greaterOrEqual" value="518.0"/>
								</Node>
							</Node>
							<Node score="3.1393156">
								<SimplePredicate field="cpu01" operator="greaterOrEqual" value="24.072334"/>
							</Node>
						</Node>
						<Node score="0.6880495">
							<SimplePredicate field="bw01" operator="greaterOrEqual" value="0.251"/>
							<Node score="0.5637816">
								<SimplePredicate field="bw01" operator="greaterOrEqual" value="0.30699998"/>
								<Node score="0.1569959">
									<SimplePredicate field="cpu01" operator="greaterOrEqual" value="9.5946665"/>
								</Node>
							</Node>
							<Node score="1.3372105">
								<SimplePredicate field="bw01" operator="greaterOrEqual" value="0.26099998"/>
							</Node>
						</Node>
						<Node score="0.97576994">
							<SimplePredicate field="pi" operator="greaterOrEqual" value="83.5"/>
							<Node score="0.4843997">
								<SimplePredicate field="bw02" operator="greaterOrEqual" value="0.6667642"/>
							</Node>
						</Node>
						<Node score="0.115620375">
							<SimplePredicate field="pi" operator="greaterOrEqual" value="79.5"/>
						</Node>
					</Node>
				</TreeModel>
			</Segment>
			<Segment id="33">
				<True/>
				<TreeModel functionName="regression" noTrueChildStrategy="returnLastPrediction" x-mathContext="float">
					<MiningSchema>
						<MiningField name="bw01"/>
						<MiningField name="bw02"/>
						<MiningField name="cpu01"/>
						<MiningField name="cpu02"/>
						<MiningField name="cur"/>
						<MiningField name="pi"/>
						<MiningField name="time"/>
					</MiningSchema>
					<Node score="0.2742856">
						<True/>
						<Node score="4.0592275">
							<SimplePredicate field="cpu01" operator="greaterOrEqual" value="48.303"/>
							<Node score="3.2500103">
								<SimplePredicate field="cpu01" operator="greaterOrEqual" value="71.69566"/>
								<Node score="3.8012066">
									<SimplePredicate field="time" operator="greaterOrEqual" value="11.5"/>
									<Node score="4.259002">
										<SimplePredicate field="time" operator="greaterOrEqual" value="16.5"/>
										<Node score="5.6720457">
											<SimplePredicate field="cur" operator="greaterOrEqual" value="1577.0"/>
										</Node>
									</Node>
									<Node score="6.184152">
										<SimplePredicate field="bw01" operator="greaterOrEqual" value="51.500664"/>
									</Node>
								</Node>
								<Node score="2.8734138">
									<SimplePredicate field="bw01" operator="greaterOrEqual" value="35.75878"/>
									<Node score="4.308503">
										<SimplePredicate field="bw02" operator="greaterOrEqual" value="48.66657"/>
									</Node>
								</Node>
								<Node score="6.302276">
									<SimplePredicate field="pi" operator="greaterOrEqual" value="294.5"/>
								</Node>
							</Node>
							<Node score="5.7236743">
								<SimplePredicate field="pi" operator="greaterOrEqual" value="299.5"/>
							</Node>
							<Node score="3.063985">
								<SimplePredicate field="time" operator="greaterOrEqual" value="9.5"/>
								<Node score="1.4626758">
									<SimplePredicate field="cpu02" operator="greaterOrEqual" value="71.82979"/>
								</Node>
							</Node>
						</Node>
						<Node score="1.54833">
							<SimplePredicate field="time" operator="greaterOrEqual" value="4.5"/>
							<Node score="1.8802315">
								<SimplePredicate field="cpu02" operator="greaterOrEqual" value="33.747932"/>
								<Node score="1.4335216">
									<SimplePredicate field="bw02" operator="greaterOrEqual" value="1.4011073"/>
									<Node score="2.4342444">
										<SimplePredicate field="cur" operator="greaterOrEqual" value="775.5"/>
									</Node>
								</Node>
								<Node score="3.621325">
									<SimplePredicate field="cpu02" operator="greaterOrEqual" value="38.483376"/>
								</Node>
							</Node>
							<Node score="0.5731134">
								<SimplePredicate field="bw02" operator="greaterOrEqual" value="0.81828403"/>
							</Node>
							<Node score="0.9592275">
								<SimplePredicate field="pi" operator="greaterOrEqual" value="126.5"/>
							</Node>
						</Node>
						<Node score="0.13381247">
							<SimplePredicate field="bw02" operator="greaterOrEqual" value="0.7289011"/>
							<Node score="0.5700423">
								<SimplePredicate field="cpu02" operator="greaterOrEqual" value="28.854324"/>
								<Node score="1.1199077">
									<SimplePredicate field="bw02" operator="greaterOrEqual" value="0.75912684"/>
								</Node>
							</Node>
						</Node>
						<Node score="-0.12706947">
							<SimplePredicate field="cpu02" operator="greaterOrEqual" value="29.60355"/>
						</Node>
						<Node score="0.5560681">
							<SimplePredicate field="pi" operator="greaterOrEqual" value="87.0"/>
						</Node>
					</Node>
				</TreeModel>
			</Segment>
			<Segment id="34">
				<True/>
				<TreeModel functionName="regression" noTrueChildStrategy="returnLastPrediction" x-mathContext="float">
					<MiningSchema>
						<MiningField name="bw01"/>
						<MiningField name="bw02"/>
						<MiningField name="cpu01"/>
						<MiningField name="cpu02"/>
						<MiningField name="cur"/>
						<MiningField name="pi"/>
						<MiningField name="time"/>
					</MiningSchema>
					<Node score="0.31350932">
						<True/>
						<Node score="3.0838103">
							<SimplePredicate field="cpu02" operator="greaterOrEqual" value="55.576286"/>
							<Node score="5.6381135">
								<SimplePredicate field="cpu01" operator="greaterOrEqual" value="72.75633"/>
								<Node score="5.051498">
									<SimplePredicate field="bw02" operator="greaterOrEqual" value="52.524727"/>
									<Node score="3.8766427">
										<SimplePredicate field="time" operator="greaterOrEqual" value="16.5"/>
										<Node score="5.132259">
											<SimplePredicate field="cpu02" operator="greaterOrEqual" value="78.25813"/>
										</Node>
									</Node>
									<Node score="6.9197893">
										<SimplePredicate field="bw01" operator="greaterOrEqual" value="60.338898"/>
									</Node>
								</Node>
								<Node score="4.39067">
									<SimplePredicate field="cur" operator="greaterOrEqual" value="1209.0"/>
									<Node score="3.2523644">
										<SimplePredicate field="cpu02" operator="greaterOrEqual" value="74.315"/>
									</Node>
								</Node>
							</Node>
							<Node score="1.4137995">
								<SimplePredicate field="time" operator="greaterOrEqual" value="16.5"/>
								<Node score="2.0246637">
									<SimplePredicate field="bw02" operator="greaterOrEqual" value="32.426582"/>
									<Node score="3.0436919">
										<SimplePredicate field="pi" operator="greaterOrEqual" value="292.5"/>
									</Node>
								</Node>
							</Node>
							<Node score="1.4401158">
								<SimplePredicate field="cpu02" operator="greaterOrEqual" value="73.10808"/>
								<Node score="3.203247">
									<SimplePredicate field="cpu01" operator="greaterOrEqual" value="72.51199"/>
								</Node>
							</Node>
							<Node score="4.2819047">
								<SimplePredicate field="cpu02" operator="greaterOrEqual" value="57.893158"/>
							</Node>
						</Node>
						<Node score="1.2472011">
							<SimplePredicate field="pi" operator="greaterOrEqual" value="117.0"/>
							<Node score="3.3703048">
								<SimplePredicate field="cpu01" operator="greaterOrEqual" value="46.819"/>
								<Node score="0.9539319">
									<SimplePredicate field="cpu02" operator="greaterOrEqual" value="54.624565"/>
								</Node>
								<Node score="2.0480196">
									<SimplePredicate field="bw02" operator="greaterOrEqual" value="24.111984"/>
								</Node>
							</Node>
							<Node score="-0.14789079">
								<SimplePredicate field="cpu01" operator="greaterOrEqual" value="31.453"/>
								<Node score="1.306472">
									<SimplePredicate field="cur" operator="greaterOrEqual" value="518.0"/>
								</Node>
							</Node>
							<Node score="2.58086">
								<SimplePredicate field="cpu01" operator="greaterOrEqual" value="23.949333"/>
							</Node>
						</Node>
						<Node score="0.4980085">
							<SimplePredicate field="cpu02" operator="greaterOrEqual" value="30.649965"/>
							<Node score="1.0014927">
								<SimplePredicate field="bw02" operator="greaterOrEqual" value="0.76192176"/>
							</Node>
						</Node>
						<Node score="0.6195769">
							<SimplePredicate field="time" operator="greaterOrEqual" value="3.5"/>
							<Node score="0.12715434">
								<SimplePredicate field="pi" operator="greaterOrEqual" value="109.0"/>
							</Node>
						</Node>
						<Node score="-0.062491473">
							<SimplePredicate field="cpu01" operator="greaterOrEqual" value="9.097667"/>
						</Node>
					</Node>
				</TreeModel>
			</Segment>
			<Segment id="35">
				<True/>
				<TreeModel functionName="regression" noTrueChildStrategy="returnLastPrediction" x-mathContext="float">
					<MiningSchema>
						<MiningField name="bw01"/>
						<MiningField name="bw02"/>
						<MiningField name="cpu01"/>
						<MiningField name="cpu02"/>
						<MiningField name="cur"/>
						<MiningField name="pi"/>
						<MiningField name="time"/>
					</MiningSchema>
					<Node score="0.12637435">
						<True/>
						<Node score="2.8608034">
							<SimplePredicate field="cpu01" operator="greaterOrEqual" value="48.303"/>
							<Node score="5.098821">
								<SimplePredicate field="cpu01" operator="greaterOrEqual" value="72.75633"/>
								<Node score="4.5093293">
									<SimplePredicate field="bw02" operator="greaterOrEqual" value="52.524727"/>
									<Node score="3.4939542">
										<SimplePredicate field="time" operator="greaterOrEqual" value="16.5"/>
										<Node score="4.6337023">
											<SimplePredicate field="cpu02" operator="greaterOrEqual" value="78.25813"/>
										</Node>
									</Node>
									<Node score="6.1636643">
										<SimplePredicate field="time" operator="greaterOrEqual" value="15.5"/>
									</Node>
								</Node>
								<Node score="3.9623163">
									<SimplePredicate field="cur" operator="greaterOrEqual" value="1209.0"/>
									<Node score="2.9322948">
										<SimplePredicate field="cpu02" operator="greaterOrEqual" value="74.315"/>
									</Node>
								</Node>
							</Node>
							<Node score="2.5706866">
								<SimplePredicate field="time" operator="greaterOrEqual" value="16.5"/>
								<Node score="2.834219">
									<SimplePredicate field="pi" operator="greaterOrEqual" value="293.5"/>
									<Node score="1.5090374">
										<SimplePredicate field="cpu02" operator="greaterOrEqual" value="71.81238"/>
									</Node>
								</Node>
								<Node score="1.6576109">
									<SimplePredicate field="cpu02" operator="greaterOrEqual" value="54.48446"/>
								</Node>
							</Node>
							<Node score="1.3166817">
								<SimplePredicate field="cpu02" operator="greaterOrEqual" value="73.10808"/>
								<Node score="2.922963">
									<SimplePredicate field="cpu01" operator="greaterOrEqual" value="72.51199"/>
								</Node>
							</Node>
							<Node score="3.8588777">
								<SimplePredicate field="cpu02" operator="greaterOrEqual" value="57.893158"/>
							</Node>
						</Node>
						<Node score="1.0341915">
							<SimplePredicate field="pi" operator="greaterOrEqual" value="117.0"/>
							<Node score="1.9815797">
								<SimplePredicate field="cpu02" operator="greaterOrEqual" value="38.917564"/>
								<Node score="1.2171166">
									<SimplePredicate field="bw02" operator="greaterOrEqual" value="1.4011073"/>
									<Node score="1.9787992">
										<SimplePredicate field="cur" operator="greaterOrEqual" value="775.5"/>
									</Node>
								</Node>
								<Node score="3.6956718">
									<SimplePredicate field="bw02" operator="greaterOrEqual" value="1.2497549"/>
								</Node>
							</Node>
							<Node score="-0.82668155">
								<SimplePredicate field="cpu02" operator="greaterOrEqual" value="38.323982"/>
								<Node score="0.96553344">
									<SimplePredicate field="cpu01" operator="greaterOrEqual" value="32.125664"/>
								</Node>
							</Node>
							<Node score="1.9730781">
								<SimplePredicate field="cpu02" operator="greaterOrEqual" value="36.001503"/>
							</Node>
						</Node>
						<Node score="0.5610974">
							<SimplePredicate field="bw01" operator="greaterOrEqual" value="0.237"/>
							<Node score="0.97462714">
								<SimplePredicate field="cpu02" operator="greaterOrEqual" value="30.380852"/>
							</Node>
							<Node score="0.22348164">
								<SimplePredicate field="bw02" operator="greaterOrEqual" value="0.7421833"/>
							</Node>
						</Node>
						<Node score="0.84717715">
							<SimplePredicate field="bw01" operator="greaterOrEqual" value="0.058"/>
							<Node score="0.28461227">
								<SimplePredicate field="cpu02" operator="greaterOrEqual" value="26.365276"/>
							</Node>
						</Node>
					</Node>
				</TreeModel>
			</Segment>
			<Segment id="36">
				<True/>
				<TreeModel functionName="regression" noTrueChildStrategy="returnLastPrediction" x-mathContext="float">
					<MiningSchema>
						<MiningField name="bw01"/>
						<MiningField name="bw02"/>
						<MiningField name="cpu01"/>
						<MiningField name="cpu02"/>
						<MiningField name="cur"/>
						<MiningField name="pi"/>
						<MiningField name="time"/>
					</MiningSchema>
					<Node score="0.2077833">
						<True/>
						<Node score="2.1917892">
							<SimplePredicate field="cpu02" operator="greaterOrEqual" value="55.576286"/>
							<Node score="2.461809">
								<SimplePredicate field="cpu01" operator="greaterOrEqual" value="72.75633"/>
								<Node score="2.5301847">
									<SimplePredicate field="time" operator="greaterOrEqual" value="11.5"/>
									<Node score="3.1451793">
										<SimplePredicate field="time" operator="greaterOrEqual" value="16.5"/>
										<Node score="4.2229815">
											<SimplePredicate field="cur" operator="greaterOrEqual" value="1577.0"/>
										</Node>
									</Node>
									<Node score="4.7240934">
										<SimplePredicate field="bw01" operator="greaterOrEqual" value="51.513134"/>
									</Node>
								</Node>
								<Node score="2.5636685">
									<SimplePredicate field="bw01" operator="greaterOrEqual" value="35.75878"/>
									<Node score="3.6423185">
										<SimplePredicate field="cpu02" operator="greaterOrEqual" value="76.24515"/>
									</Node>
								</Node>
								<Node score="5.1514354">
									<SimplePredicate field="bw02" operator="greaterOrEqual" value="31.231108"/>
								</Node>
							</Node>
							<Node score="1.1020734">
								<SimplePredicate field="time" operator="greaterOrEqual" value="16.5"/>
								<Node score="2.4510384">
									<SimplePredicate field="bw02" operator="greaterOrEqual" value="32.426582"/>
									<Node score="1.374901">
										<SimplePredicate field="cpu02" operator="greaterOrEqual" value="71.81238"/>
									</Node>
								</Node>
							</Node>
							<Node score="1.5447772">
								<SimplePredicate field="cur" operator="greaterOrEqual" value="1387.0"/>
							</Node>
							<Node score="3.3830662">
								<SimplePredicate field="pi" operator="greaterOrEqual" value="270.5"/>
							</Node>
						</Node>
						<Node score="0.70461476">
							<SimplePredicate field="cpu02" operator="greaterOrEqual" value="31.693123"/>
							<Node score="-0.45568338">
								<SimplePredicate field="bw01" operator="greaterOrEqual" value="6.664183"/>
								<Node score="1.3945692">
									<SimplePredicate field="bw01" operator="greaterOrEqual" value="12.772667"/>
									<Node score="-0.12679647">
										<SimplePredicate field="cpu02" operator="greaterOrEqual" value="54.48446"/>
									</Node>
								</Node>
							</Node>
							<Node score="1.9491571">
								<SimplePredicate field="pi" operator="greaterOrEqual" value="195.5"/>
								<Node score="3.4161255">
									<SimplePredicate field="bw01" operator="greaterOrEqual" value="0.8639167"/>
								</Node>
							</Node>
							<Node score="1.8523668">
								<SimplePredicate field="bw02" operator="greaterOrEqual" value="1.1260898"/>
							</Node>
						</Node>
						<Node score="0.4907756">
							<SimplePredicate field="cpu01" operator="greaterOrEqual" value="9.717"/>
							<Node score="0.03819057">
								<SimplePredicate field="cpu02" operator="greaterOrEqual" value="31.16539"/>
							</Node>
							<Node score="1.3377283">
								<SimplePredicate field="bw02" operator="greaterOrEqual" value="0.75855696"/>
							</Node>
						</Node>
						<Node score="0.37964898">
							<SimplePredicate field="cpu02" operator="greaterOrEqual" value="27.50364"/>
							<Node score="-0.05909195">
								<SimplePredicate field="cpu01" operator="greaterOrEqual" value="9.097667"/>
							</Node>
						</Node>
						<Node score="-0.41307235">
							<SimplePredicate field="bw02" operator="greaterOrEqual" value="0.6697217"/>
						</Node>
					</Node>
				</TreeModel>
			</Segment>
			<Segment id="37">
				<True/>
				<TreeModel functionName="regression" noTrueChildStrategy="returnLastPrediction" x-mathContext="float">
					<MiningSchema>
						<MiningField name="bw01"/>
						<MiningField name="bw02"/>
						<MiningField name="cpu01"/>
						<MiningField name="cpu02"/>
						<MiningField name="cur"/>
						<MiningField name="pi"/>
						<MiningField name="time"/>
					</MiningSchema>
					<Node score="0.16311257">
						<True/>
						<Node score="2.0131783">
							<SimplePredicate field="cpu01" operator="greaterOrEqual" value="48.303"/>
							<Node score="3.444575">
								<SimplePredicate field="cpu01" operator="greaterOrEqual" value="71.04401"/>
								<Node score="2.517631">
									<SimplePredicate field="cur" operator="greaterOrEqual" value="1505.5"/>
									<Node score="4.3748407">
										<SimplePredicate field="time" operator="greaterOrEqual" value="16.5"/>
										<Node score="3.1112852">
											<SimplePredicate field="cur" operator="greaterOrEqual" value="1519.0"/>
										</Node>
									</Node>
									<Node score="5.2112637">
										<SimplePredicate field="pi" operator="greaterOrEqual" value="298.5"/>
									</Node>
								</Node>
								<Node score="0.71404725">
									<SimplePredicate field="cur" operator="greaterOrEqual" value="1319.0"/>
									<Node score="3.156604">
										<SimplePredicate field="cur" operator="greaterOrEqual" value="1343.0"/>
									</Node>
								</Node>
								<Node score="5.455283">
									<SimplePredicate field="bw01" operator="greaterOrEqual" value="32.8245"/>
								</Node>
							</Node>
							<Node score="0.18357632">
								<SimplePredicate field="bw02" operator="greaterOrEqual" value="8.37467"/>
								<Node score="3.2611978">
									<SimplePredicate field="bw01" operator="greaterOrEqual" value="8.192966"/>
									<Node score="1.953019">
										<SimplePredicate field="time" operator="greaterOrEqual" value="9.5"/>
									</Node>
								</Node>
							</Node>
							<Node score="3.2462213">
								<SimplePredicate field="bw02" operator="greaterOrEqual" value="6.593121"/>
							</Node>
						</Node>
						<Node score="0.8401103">
							<SimplePredicate field="pi" operator="greaterOrEqual" value="117.0"/>
							<Node score="1.6488088">
								<SimplePredicate field="cpu02" operator="greaterOrEqual" value="38.917564"/>
								<Node score="0.94989365">
									<SimplePredicate field="bw02" operator="greaterOrEqual" value="1.4011073"/>
									<Node score="1.6613016">
										<SimplePredicate field="cur" operator="greaterOrEqual" value="775.5"/>
									</Node>
								</Node>
								<Node score="3.1754465">
									<SimplePredicate field="bw02" operator="greaterOrEqual" value="1.2497549"/>
								</Node>
							</Node>
							<Node score="-0.82779896">
								<SimplePredicate field="cpu02" operator="greaterOrEqual" value="38.323982"/>
								<Node score="0.76885784">
									<SimplePredicate field="cpu01" operator="greaterOrEqual" value="32.125664"/>
								</Node>
							</Node>
							<Node score="1.6169242">
								<SimplePredicate field="pi" operator="greaterOrEqual" value="180.0"/>
							</Node>
						</Node>
						<Node score="0.44371158">
							<SimplePredicate field="bw02" operator="greaterOrEqual" value="0.7289011"/>
							<Node score="0.010565949">
								<SimplePredicate field="pi" operator="greaterOrEqual" value="109.5"/>
							</Node>
							<Node score="1.3796445">
								<SimplePredicate field="cpu01" operator="greaterOrEqual" value="10.701"/>
							</Node>
						</Node>
						<Node score="-0.18980828">
							<SimplePredicate field="cpu02" operator="greaterOrEqual" value="29.60355"/>
						</Node>
						<Node score="0.4058868">
							<SimplePredicate field="pi" operator="greaterOrEqual" value="87.0"/>
						</Node>
					</Node>
				</TreeModel>
			</Segment>
			<Segment id="38">
				<True/>
				<TreeModel functionName="regression" noTrueChildStrategy="returnLastPrediction" x-mathContext="float">
					<MiningSchema>
						<MiningField name="bw01"/>
						<MiningField name="bw02"/>
						<MiningField name="cpu01"/>
						<MiningField name="cpu02"/>
						<MiningField name="cur"/>
						<MiningField name="pi"/>
