<?xml version="1.0" encoding="UTF-8" standalone="yes"?>
<PMML xmlns="http://www.dmg.org/PMML-4_4" xmlns:data="http://jpmml.org/jpmml-model/InlineTable" version="4.4">
	<Header>
		<Application name="JPMML-SkLearn" version="1.6.8"/>
		<Timestamp>2020-12-15T14:08:54Z</Timestamp>
	</Header>
	<DataDictionary>
		<DataField name="next" optype="continuous" dataType="double"/>
		<DataField name="bw" optype="continuous" dataType="float"/>
		<DataField name="cpu" optype="continuous" dataType="float"/>
		<DataField name="current" optype="continuous" dataType="float"/>
		<DataField name="join" optype="continuous" dataType="float"/>
		<DataField name="time" optype="continuous" dataType="float"/>
	</DataDictionary>
	<TransformationDictionary/>
	<MiningModel functionName="regression">
		<MiningSchema>
			<MiningField name="next" usageType="target"/>
			<MiningField name="join"/>
			<MiningField name="time"/>
			<MiningField name="current"/>
			<MiningField name="bw"/>
			<MiningField name="cpu"/>
		</MiningSchema>
		<LocalTransformations>
			<DerivedField name="double(join)" optype="continuous" dataType="double">
				<FieldRef field="join"/>
			</DerivedField>
			<DerivedField name="double(time)" optype="continuous" dataType="double">
				<FieldRef field="time"/>
			</DerivedField>
			<DerivedField name="double(current)" optype="continuous" dataType="double">
				<FieldRef field="current"/>
			</DerivedField>
			<DerivedField name="double(bw)" optype="continuous" dataType="double">
				<FieldRef field="bw"/>
			</DerivedField>
			<DerivedField name="double(cpu)" optype="continuous" dataType="double">
				<FieldRef field="cpu"/>
			</DerivedField>
		</LocalTransformations>
		<Segmentation multipleModelMethod="average">
			<Segment id="1">
				<True/>
				<TreeModel functionName="regression" missingValueStrategy="nullPrediction" noTrueChildStrategy="returnLastPrediction">
					<MiningSchema>
						<MiningField name="double(join)"/>
						<MiningField name="double(time)"/>
						<MiningField name="double(current)"/>
						<MiningField name="double(bw)"/>
						<MiningField name="double(cpu)"/>
					</MiningSchema>
					<Node score="1614.0">
						<True/>
						<Node score="626.0">
							<SimplePredicate field="double(join)" operator="lessOrEqual" value="532.0"/>
							<Node score="346.0">
								<SimplePredicate field="double(time)" operator="lessOrEqual" value="2.5"/>
								<Node score="158.0">
									<SimplePredicate field="double(time)" operator="lessOrEqual" value="1.5"/>
									<Node score="62.0">
										<SimplePredicate field="double(time)" operator="lessOrEqual" value="0.5"/>
										<Node score="49.0">
											<SimplePredicate field="double(join)" operator="lessOrEqual" value="51.5"/>
											<Node score="44.0">
												<SimplePredicate field="double(join)" operator="lessOrEqual" value="45.5"/>
											</Node>
											<Node score="47.0">
												<SimplePredicate field="double(join)" operator="lessOrEqual" value="47.5"/>
											</Node>
											<Node score="48.0">
												<SimplePredicate field="double(join)" operator="lessOrEqual" value="48.5"/>
											</Node>
										</Node>
										<Node score="54.0">
											<SimplePredicate field="double(join)" operator="lessOrEqual" value="58.0"/>
										</Node>
									</Node>
									<Node score="132.0">
										<SimplePredicate field="double(join)" operator="lessOrEqual" value="98.0"/>
										<Node score="117.0">
											<SimplePredicate field="double(join)" operator="lessOrEqual" value="91.0"/>
										</Node>
										<Node score="127.0">
											<SimplePredicate field="double(current)" operator="lessOrEqual" value="51.5"/>
										</Node>
									</Node>
									<Node score="147.0">
										<SimplePredicate field="double(join)" operator="lessOrEqual" value="113.0"/>
										<Node score="143.0">
											<SimplePredicate field="double(join)" operator="lessOrEqual" value="109.0"/>
											<Node score="140.0">
												<SimplePredicate field="double(join)" operator="lessOrEqual" value="102.5"/>
											</Node>
											<Node score="141.0">
												<SimplePredicate field="double(current)" operator="lessOrEqual" value="53.0"/>
											</Node>
										</Node>
										<Node score="145.0">
											<SimplePredicate field="double(current)" operator="lessOrEqual" value="56.5"/>
											<Node score="147.0">
												<SimplePredicate field="double(current)" operator="lessOrEqual" value="54.5"/>
											</Node>
										</Node>
									</Node>
									<Node score="166.0">
										<SimplePredicate field="double(current)" operator="lessOrEqual" value="52.5"/>
									</Node>
								</Node>
								<Node score="311.0">
									<SimplePredicate field="double(join)" operator="lessOrEqual" value="206.0"/>
									<Node score="270.0">
										<SimplePredicate field="double(join)" operator="lessOrEqual" value="184.5"/>
									</Node>
									<Node score="300.0">
										<SimplePredicate field="double(current)" operator="lessOrEqual" value="141.5"/>
										<Node score="287.0">
											<SimplePredicate field="double(current)" operator="lessOrEqual" value="129.5"/>
										</Node>
										<Node score="294.0">
											<SimplePredicate field="double(join)" operator="lessOrEqual" value="196.0"/>
										</Node>
									</Node>
									<Node score="301.0">
										<SimplePredicate field="double(current)" operator="lessOrEqual" value="151.0"/>
										<Node score="304.0">
											<SimplePredicate field="double(current)" operator="lessOrEqual" value="144.0"/>
										</Node>
									</Node>
								</Node>
								<Node score="323.0">
									<SimplePredicate field="double(join)" operator="lessOrEqual" value="236.0"/>
									<Node score="299.0">
										<SimplePredicate field="double(current)" operator="lessOrEqual" value="125.0"/>
									</Node>
									<Node score="326.0">
										<SimplePredicate field="double(current)" operator="lessOrEqual" value="144.0"/>
									</Node>
									<Node score="313.0">
										<SimplePredicate field="double(current)" operator="lessOrEqual" value="156.5"/>
										<Node score="319.0">
											<SimplePredicate field="double(current)" operator="lessOrEqual" value="148.0"/>
										</Node>
										<Node score="312.0">
											<SimplePredicate field="double(join)" operator="lessOrEqual" value="208.5"/>
										</Node>
									</Node>
								</Node>
							</Node>
							<Node score="618.0">
								<SimplePredicate field="double(join)" operator="lessOrEqual" value="418.5"/>
								<Node score="608.0">
									<SimplePredicate field="double(bw)" operator="lessOrEqual" value="0.7051505148410797"/>
								</Node>
							</Node>
							<Node score="695.0">
								<SimplePredicate field="double(cpu)" operator="lessOrEqual" value="24.55828285217285"/>
								<Node score="692.0">
									<SimplePredicate field="double(current)" operator="lessOrEqual" value="336.0"/>
									<Node score="661.0">
										<SimplePredicate field="double(join)" operator="lessOrEqual" value="457.5"/>
										<Node score="668.0">
											<SimplePredicate field="double(cpu)" operator="lessOrEqual" value="24.42696475982666"/>
										</Node>
										<Node score="659.0">
											<SimplePredicate field="double(current)" operator="lessOrEqual" value="309.0"/>
										</Node>
									</Node>
								</Node>
							</Node>
							<Node score="647.0">
								<SimplePredicate field="double(join)" operator="lessOrEqual" value="434.5"/>
								<Node score="659.0">
									<SimplePredicate field="double(current)" operator="lessOrEqual" value="311.5"/>
								</Node>
							</Node>
						</Node>
						<Node score="1519.0">
							<SimplePredicate field="double(bw)" operator="lessOrEqual" value="7.284339427947998"/>
							<Node score="1141.0">
								<SimplePredicate field="double(current)" operator="lessOrEqual" value="874.0"/>
								<Node score="1067.0">
									<SimplePredicate field="double(current)" operator="lessOrEqual" value="653.0"/>
									<Node score="1081.0">
										<SimplePredicate field="double(bw)" operator="lessOrEqual" value="1.9008813500404358"/>
										<Node score="1080.0">
											<SimplePredicate field="double(bw)" operator="lessOrEqual" value="1.8189358711242676"/>
										</Node>
									</Node>
									<Node score="1061.0">
										<SimplePredicate field="double(bw)" operator="lessOrEqual" value="2.0502291321754456"/>
									</Node>
									<Node score="1066.0">
										<SimplePredicate field="double(current)" operator="lessOrEqual" value="632.5"/>
									</Node>
								</Node>
								<Node score="1129.0">
									<SimplePredicate field="double(join)" operator="lessOrEqual" value="656.5"/>
									<Node score="1081.0">
										<SimplePredicate field="double(current)" operator="lessOrEqual" value="676.5"/>
										<Node score="1107.0">
											<SimplePredicate field="double(current)" operator="lessOrEqual" value="656.5"/>
										</Node>
										<Node score="1088.0">
											<SimplePredicate field="double(current)" operator="lessOrEqual" value="660.0"/>
										</Node>
									</Node>
									<Node score="1128.0">
										<SimplePredicate field="double(join)" operator="lessOrEqual" value="638.5"/>
									</Node>
								</Node>
								<Node score="1157.0">
									<SimplePredicate field="double(cpu)" operator="lessOrEqual" value="23.46836757659912"/>
								</Node>
							</Node>
							<Node score="1445.0">
								<SimplePredicate field="double(join)" operator="lessOrEqual" value="856.5"/>
								<Node score="1447.0">
									<SimplePredicate field="double(current)" operator="lessOrEqual" value="1065.5"/>
									<Node score="1419.0">
										<SimplePredicate field="double(current)" operator="lessOrEqual" value="1063.0"/>
									</Node>
								</Node>
								<Node score="1487.0">
									<SimplePredicate field="double(current)" operator="lessOrEqual" value="1105.0"/>
									<Node score="1462.0">
										<SimplePredicate field="double(current)" operator="lessOrEqual" value="1073.5"/>
										<Node score="1468.0">
											<SimplePredicate field="double(cpu)" operator="lessOrEqual" value="20.612977981567383"/>
										</Node>
									</Node>
									<Node score="1477.0">
										<SimplePredicate field="double(join)" operator="lessOrEqual" value="840.0"/>
									</Node>
								</Node>
								<Node score="1436.0">
									<SimplePredicate field="double(bw)" operator="lessOrEqual" value="6.091611862182617"/>
								</Node>
								<Node score="1454.0">
									<SimplePredicate field="double(cpu)" operator="lessOrEqual" value="20.23974895477295"/>
								</Node>
							</Node>
							<Node score="1495.0">
								<SimplePredicate field="double(join)" operator="lessOrEqual" value="866.5"/>
								<Node score="1487.0">
									<SimplePredicate field="double(join)" operator="lessOrEqual" value="862.0"/>
								</Node>
							</Node>
							<Node score="1542.0">
								<SimplePredicate field="double(cpu)" operator="lessOrEqual" value="20.360953330993652"/>
							</Node>
						</Node>
						<Node score="1987.0">
							<SimplePredicate field="double(cpu)" operator="lessOrEqual" value="15.827530860900879"/>
							<Node score="2162.0">
								<SimplePredicate field="double(cpu)" operator="lessOrEqual" value="13.379145622253418"/>
								<Node score="2134.0">
									<SimplePredicate field="double(current)" operator="lessOrEqual" value="2147.0"/>
									<Node score="2094.0">
										<SimplePredicate field="double(bw)" operator="lessOrEqual" value="13.780967712402344"/>
										<Node score="2115.0">
											<SimplePredicate field="double(bw)" operator="lessOrEqual" value="13.657637119293213"/>
										</Node>
										<Node score="2102.0">
											<SimplePredicate field="double(cpu)" operator="lessOrEqual" value="13.274630069732666"/>
										</Node>
									</Node>
									<Node score="2143.0">
										<SimplePredicate field="double(current)" operator="lessOrEqual" value="2112.0"/>
										<Node score="2151.0">
											<SimplePredicate field="double(cpu)" operator="lessOrEqual" value="13.192793369293213"/>
										</Node>
									</Node>
									<Node score="2115.0">
										<SimplePredicate field="double(cpu)" operator="lessOrEqual" value="13.19510555267334"/>
									</Node>
								</Node>
								<Node score="2194.0">
									<SimplePredicate field="double(join)" operator="lessOrEqual" value="2052.5"/>
								</Node>
							</Node>
							<Node score="1969.0">
								<SimplePredicate field="double(cpu)" operator="lessOrEqual" value="13.805457592010498"/>
								<Node score="2106.0">
									<SimplePredicate field="double(time)" operator="lessOrEqual" value="9.5"/>
									<Node score="2039.0">
										<SimplePredicate field="double(bw)" operator="lessOrEqual" value="13.318013191223145"/>
									</Node>
									<Node score="2058.0">
										<SimplePredicate field="double(bw)" operator="lessOrEqual" value="13.653858184814453"/>
										<Node score="2076.0">
											<SimplePredicate field="double(current)" operator="lessOrEqual" value="2023.0"/>
										</Node>
									</Node>
								</Node>
								<Node score="1918.0">
									<SimplePredicate field="double(cpu)" operator="lessOrEqual" value="13.594939708709717"/>
									<Node score="1936.0">
										<SimplePredicate field="double(current)" operator="lessOrEqual" value="2034.0"/>
										<Node score="1963.0">
											<SimplePredicate field="double(join)" operator="lessOrEqual" value="2097.5"/>
										</Node>
										<Node score="1923.0">
											<SimplePredicate field="double(bw)" operator="lessOrEqual" value="13.425359725952148"/>
										</Node>
									</Node>
								</Node>
								<Node score="1970.0">
									<SimplePredicate field="double(cpu)" operator="lessOrEqual" value="13.732808113098145"/>
								</Node>
							</Node>
							<Node score="1960.0">
								<SimplePredicate field="double(bw)" operator="lessOrEqual" value="12.123152732849121"/>
								<Node score="1912.0">
									<SimplePredicate field="double(cpu)" operator="lessOrEqual" value="14.983330726623535"/>
									<Node score="1677.0">
										<SimplePredicate field="double(time)" operator="lessOrEqual" value="8.5"/>
									</Node>
									<Node score="1869.0">
										<SimplePredicate field="double(bw)" operator="lessOrEqual" value="11.976926803588867"/>
									</Node>
									<Node score="1928.0">
										<SimplePredicate field="double(bw)" operator="lessOrEqual" value="12.112605571746826"/>
									</Node>
								</Node>
								<Node score="1897.0">
									<SimplePredicate field="double(bw)" operator="lessOrEqual" value="11.580015659332275"/>
									<Node score="1905.0">
										<SimplePredicate field="double(bw)" operator="lessOrEqual" value="11.312987327575684"/>
										<Node score="1916.0">
											<SimplePredicate field="double(time)" operator="lessOrEqual" value="7.5"/>
										</Node>
									</Node>
									<Node score="1888.0">
										<SimplePredicate field="double(bw)" operator="lessOrEqual" value="11.460209369659424"/>
										<Node score="1890.0">
											<SimplePredicate field="double(join)" operator="lessOrEqual" value="1437.0"/>
										</Node>
									</Node>
								</Node>
								<Node score="1974.0">
									<SimplePredicate field="double(join)" operator="lessOrEqual" value="1330.5"/>
								</Node>
							</Node>
							<Node score="1886.0">
								<SimplePredicate field="double(join)" operator="lessOrEqual" value="2112.5"/>
								<Node score="1965.0">
									<SimplePredicate field="double(join)" operator="lessOrEqual" value="2064.0"/>
									<Node score="1986.0">
										<SimplePredicate field="double(current)" operator="lessOrEqual" value="1872.5"/>
										<Node score="2008.0">
											<SimplePredicate field="double(bw)" operator="lessOrEqual" value="12.327119827270508"/>
										</Node>
									</Node>
									<Node score="1941.0">
										<SimplePredicate field="double(join)" operator="lessOrEqual" value="1920.5"/>
										<Node score="1955.0">
											<SimplePredicate field="double(join)" operator="lessOrEqual" value="1443.0"/>
										</Node>
										<Node score="1903.0">
											<SimplePredicate field="double(cpu)" operator="lessOrEqual" value="13.832388877868652"/>
										</Node>
										<Node score="1938.0">
											<SimplePredicate field="double(join)" operator="lessOrEqual" value="1847.0"/>
											<Node score="1904.0">
												<SimplePredicate field="double(current)" operator="lessOrEqual" value="1952.0"/>
												<Node score="1929.0">
													<SimplePredicate field="double(bw)" operator="lessOrEqual" value="12.592910289764404"/>
													<Node score="1931.0">
														<SimplePredicate field="double(cpu)" operator="lessOrEqual" value="14.360358238220215"/>
													</Node>
												</Node>
												<Node score="1917.0">
													<SimplePredicate field="double(current)" operator="lessOrEqual" value="1929.5"/>
												</Node>
											</Node>
										</Node>
									</Node>
									<Node score="2020.0">
										<SimplePredicate field="double(join)" operator="lessOrEqual" value="1950.5"/>
									</Node>
									<Node score="1958.0">
										<SimplePredicate field="double(bw)" operator="lessOrEqual" value="12.929434776306152"/>
									</Node>
								</Node>
								<Node score="1872.0">
									<SimplePredicate field="double(current)" operator="lessOrEqual" value="1944.5"/>
								</Node>
							</Node>
							<Node score="2022.0">
								<SimplePredicate field="double(cpu)" operator="lessOrEqual" value="14.048030853271484"/>
							</Node>
						</Node>
						<Node score="1691.0">
							<SimplePredicate field="double(cpu)" operator="lessOrEqual" value="16.39765453338623"/>
							<Node score="1815.0">
								<SimplePredicate field="double(join)" operator="lessOrEqual" value="1677.0"/>
								<Node score="1869.0">
									<SimplePredicate field="double(bw)" operator="lessOrEqual" value="10.584404945373535"/>
									<Node score="1876.0">
										<SimplePredicate field="double(time)" operator="lessOrEqual" value="8.5"/>
										<Node score="1875.0">
											<SimplePredicate field="double(cpu)" operator="lessOrEqual" value="16.23264503479004"/>
										</Node>
									</Node>
								</Node>
								<Node score="1878.0">
									<SimplePredicate field="double(join)" operator="lessOrEqual" value="1270.0"/>
								</Node>
								<Node score="1843.0">
									<SimplePredicate field="double(cpu)" operator="lessOrEqual" value="16.050447463989258"/>
								</Node>
							</Node>
							<Node score="1730.0">
								<SimplePredicate field="double(current)" operator="lessOrEqual" value="1729.0"/>
								<Node score="1718.0">
									<SimplePredicate field="double(time)" operator="lessOrEqual" value="9.5"/>
								</Node>
							</Node>
						</Node>
						<Node score="1710.0">
							<SimplePredicate field="double(current)" operator="lessOrEqual" value="1640.5"/>
							<Node score="1731.0">
								<SimplePredicate field="double(join)" operator="lessOrEqual" value="1071.5"/>
								<Node score="1644.0">
									<SimplePredicate field="double(current)" operator="lessOrEqual" value="1430.0"/>
								</Node>
								<Node score="1694.0">
									<SimplePredicate field="double(current)" operator="lessOrEqual" value="1474.0"/>
									<Node score="1710.0">
										<SimplePredicate field="double(join)" operator="lessOrEqual" value="1044.0"/>
									</Node>
									<Node score="1701.0">
										<SimplePredicate field="double(current)" operator="lessOrEqual" value="1466.0"/>
										<Node score="1700.0">
											<SimplePredicate field="double(join)" operator="lessOrEqual" value="1055.0"/>
										</Node>
									</Node>
								</Node>
								<Node score="1705.0">
									<SimplePredicate field="double(join)" operator="lessOrEqual" value="1035.5"/>
									<Node score="1699.0">
										<SimplePredicate field="double(cpu)" operator="lessOrEqual" value="17.40089702606201"/>
									</Node>
								</Node>
								<Node score="1761.0">
									<SimplePredicate field="double(cpu)" operator="lessOrEqual" value="17.65377426147461"/>
								</Node>
							</Node>
							<Node score="1753.0">
								<SimplePredicate field="double(bw)" operator="lessOrEqual" value="10.073413848876953"/>
								<Node score="1778.0">
									<SimplePredicate field="double(cpu)" operator="lessOrEqual" value="17.37440776824951"/>
									<Node score="1836.0">
										<SimplePredicate field="double(bw)" operator="lessOrEqual" value="9.761007308959961"/>
									</Node>
								</Node>
							</Node>
						</Node>
						<Node score="1664.0">
							<SimplePredicate field="double(current)" operator="lessOrEqual" value="1642.5"/>
						</Node>
						<Node score="1586.0">
							<SimplePredicate field="double(bw)" operator="lessOrEqual" value="10.059557437896729"/>
						</Node>
					</Node>
				</TreeModel>
			</Segment>
			<Segment id="2">
				<True/>
				<TreeModel functionName="regression" missingValueStrategy="nullPrediction" noTrueChildStrategy="returnLastPrediction">
					<MiningSchema>
						<MiningField name="double(join)"/>
						<MiningField name="double(time)"/>
						<MiningField name="double(current)"/>
						<MiningField name="double(bw)"/>
						<MiningField name="double(cpu)"/>
					</MiningSchema>
					<Node score="2194.0">
						<True/>
						<Node score="684.0">
							<SimplePredicate field="double(time)" operator="lessOrEqual" value="3.5"/>
							<Node score="312.0">
								<SimplePredicate field="double(join)" operator="lessOrEqual" value="304.0"/>
								<Node score="158.0">
									<SimplePredicate field="double(time)" operator="lessOrEqual" value="1.5"/>
									<Node score="62.0">
										<SimplePredicate field="double(join)" operator="lessOrEqual" value="75.5"/>
										<Node score="49.0">
											<SimplePredicate field="double(join)" operator="lessOrEqual" value="50.5"/>
											<Node score="44.0">
												<SimplePredicate field="double(join)" operator="lessOrEqual" value="45.5"/>
											</Node>
											<Node score="47.0">
												<SimplePredicate field="double(join)" operator="lessOrEqual" value="47.5"/>
											</Node>
											<Node score="48.0">
												<SimplePredicate field="double(join)" operator="lessOrEqual" value="48.5"/>
											</Node>
										</Node>
										<Node score="55.0">
											<SimplePredicate field="double(join)" operator="lessOrEqual" value="58.5"/>
											<Node score="53.0">
												<SimplePredicate field="double(join)" operator="lessOrEqual" value="53.5"/>
												<Node score="52.0">
													<SimplePredicate field="double(join)" operator="lessOrEqual" value="52.5"/>
												</Node>
											</Node>
											<Node score="54.0">
												<SimplePredicate field="double(join)" operator="lessOrEqual" value="54.5"/>
											</Node>
										</Node>
									</Node>
									<Node score="127.0">
										<SimplePredicate field="double(join)" operator="lessOrEqual" value="98.0"/>
										<Node score="117.0">
											<SimplePredicate field="double(join)" operator="lessOrEqual" value="93.0"/>
										</Node>
									</Node>
									<Node score="140.0">
										<SimplePredicate field="double(join)" operator="lessOrEqual" value="109.0"/>
										<Node score="141.0">
											<SimplePredicate field="double(current)" operator="lessOrEqual" value="53.0"/>
											<Node score="140.0">
												<SimplePredicate field="double(current)" operator="lessOrEqual" value="50.0"/>
											</Node>
										</Node>
										<Node score="138.0">
											<SimplePredicate field="double(current)" operator="lessOrEqual" value="58.0"/>
											<Node score="133.0">
												<SimplePredicate field="double(join)" operator="lessOrEqual" value="102.5"/>
											</Node>
										</Node>
									</Node>
									<Node score="145.0">
										<SimplePredicate field="double(current)" operator="lessOrEqual" value="55.5"/>
										<Node score="147.0">
											<SimplePredicate field="double(join)" operator="lessOrEqual" value="114.0"/>
										</Node>
									</Node>
									<Node score="147.0">
										<SimplePredicate field="double(join)" operator="lessOrEqual" value="111.5"/>
									</Node>
									<Node score="157.0">
										<SimplePredicate field="double(current)" operator="lessOrEqual" value="57.5"/>
									</Node>
								</Node>
								<Node score="301.0">
									<SimplePredicate field="double(current)" operator="lessOrEqual" value="146.0"/>
									<Node score="299.0">
										<SimplePredicate field="double(current)" operator="lessOrEqual" value="129.5"/>
										<Node score="287.0">
											<SimplePredicate field="double(join)" operator="lessOrEqual" value="206.5"/>
										</Node>
									</Node>
									<Node score="294.0">
										<SimplePredicate field="double(join)" operator="lessOrEqual" value="190.0"/>
									</Node>
									<Node score="300.0">
										<SimplePredicate field="double(current)" operator="lessOrEqual" value="137.5"/>
									</Node>
									<Node score="304.0">
										<SimplePredicate field="double(current)" operator="lessOrEqual" value="144.0"/>
									</Node>
								</Node>
								<Node score="319.0">
									<SimplePredicate field="double(current)" operator="lessOrEqual" value="148.0"/>
								</Node>
								<Node score="313.0">
									<SimplePredicate field="double(current)" operator="lessOrEqual" value="152.0"/>
								</Node>
								<Node score="311.0">
									<SimplePredicate field="double(join)" operator="lessOrEqual" value="204.0"/>
								</Node>
							</Node>
							<Node score="670.0">
								<SimplePredicate field="double(current)" operator="lessOrEqual" value="302.5"/>
								<Node score="635.0">
									<SimplePredicate field="double(join)" operator="lessOrEqual" value="445.0"/>
									<Node score="616.0">
										<SimplePredicate field="double(join)" operator="lessOrEqual" value="414.5"/>
										<Node score="605.0">
											<SimplePredicate field="double(join)" operator="lessOrEqual" value="401.5"/>
										</Node>
									</Node>
									<Node score="626.0">
										<SimplePredicate field="double(current)" operator="lessOrEqual" value="278.5"/>
									</Node>
									<Node score="633.0">
										<SimplePredicate field="double(current)" operator="lessOrEqual" value="293.5"/>
									</Node>
								</Node>
								<Node score="652.0">
									<SimplePredicate field="double(current)" operator="lessOrEqual" value="299.0"/>
									<Node score="659.0">
										<SimplePredicate field="double(cpu)" operator="lessOrEqual" value="24.516438484191895"/>
									</Node>
								</Node>
							</Node>
							<Node score="659.0">
								<SimplePredicate field="double(join)" operator="lessOrEqual" value="439.0"/>
								<Node score="661.0">
									<SimplePredicate field="double(cpu)" operator="lessOrEqual" value="24.55828285217285"/>
								</Node>
							</Node>
							<Node score="668.0">
								<SimplePredicate field="double(cpu)" operator="lessOrEqual" value="24.421927452087402"/>
							</Node>
							<Node score="695.0">
								<SimplePredicate field="double(cpu)" operator="lessOrEqual" value="24.52947998046875"/>
								<Node score="692.0">
									<SimplePredicate field="double(current)" operator="lessOrEqual" value="326.5"/>
								</Node>
							</Node>
						</Node>
						<Node score="1542.0">
							<SimplePredicate field="double(time)" operator="lessOrEqual" value="5.5"/>
							<Node score="1157.0">
								<SimplePredicate field="double(bw)" operator="lessOrEqual" value="4.030853271484375"/>
								<Node score="1081.0">
									<SimplePredicate field="double(join)" operator="lessOrEqual" value="673.5"/>
									<Node score="1088.0">
										<SimplePredicate field="double(join)" operator="lessOrEqual" value="633.0"/>
										<Node score="1048.0">
											<SimplePredicate field="double(bw)" operator="lessOrEqual" value="2.2666988372802734"/>
											<Node score="1067.0">
												<SimplePredicate field="double(join)" operator="lessOrEqual" value="620.5"/>
												<Node score="1058.0">
													<SimplePredicate field="double(bw)" operator="lessOrEqual" value="2.100340723991394"/>
												</Node>
											</Node>
										</Node>
									</Node>
									<Node score="1129.0">
										<SimplePredicate field="double(join)" operator="lessOrEqual" value="645.0"/>
										<Node score="1107.0">
											<SimplePredicate field="double(current)" operator="lessOrEqual" value="682.5"/>
											<Node score="1103.0">
												<SimplePredicate field="double(cpu)" operator="lessOrEqual" value="23.09773540496826"/>
											</Node>
										</Node>
									</Node>
									<Node score="1100.0">
										<SimplePredicate field="double(bw)" operator="lessOrEqual" value="1.502448320388794"/>
									</Node>
									<Node score="1087.0">
										<SimplePredicate field="double(join)" operator="lessOrEqual" value="646.5"/>
									</Node>
									<Node score="1080.0">
										<SimplePredicate field="double(current)" operator="lessOrEqual" value="634.5"/>
									</Node>
								</Node>
							</Node>
							<Node score="1495.0">
								<SimplePredicate field="double(join)" operator="lessOrEqual" value="870.0"/>
								<Node score="1424.0">
									<SimplePredicate field="double(join)" operator="lessOrEqual" value="856.5"/>
									<Node score="1462.0">
										<SimplePredicate field="double(bw)" operator="lessOrEqual" value="5.530594825744629"/>
										<Node score="1477.0">
											<SimplePredicate field="double(join)" operator="lessOrEqual" value="831.5"/>
										</Node>
										<Node score="1463.0">
											<SimplePredicate field="double(current)" operator="lessOrEqual" value="1062.5"/>
										</Node>
									</Node>
									<Node score="1436.0">
										<SimplePredicate field="double(bw)" operator="lessOrEqual" value="6.087349891662598"/>
										<Node score="1419.0">
											<SimplePredicate field="double(current)" operator="lessOrEqual" value="1063.0"/>
										</Node>
										<Node score="1447.0">
											<SimplePredicate field="double(current)" operator="lessOrEqual" value="1073.0"/>
										</Node>
									</Node>
									<Node score="1454.0">
										<SimplePredicate field="double(join)" operator="lessOrEqual" value="842.0"/>
										<Node score="1470.0">
											<SimplePredicate field="double(bw)" operator="lessOrEqual" value="6.2990782260894775"/>
											<Node score="1468.0">
												<SimplePredicate field="double(cpu)" operator="lessOrEqual" value="20.315114974975586"/>
											</Node>
										</Node>
									</Node>
								</Node>
								<Node score="1487.0">
									<SimplePredicate field="double(current)" operator="lessOrEqual" value="1067.0"/>
									<Node score="1485.0">
										<SimplePredicate field="double(current)" operator="lessOrEqual" value="1050.5"/>
									</Node>
								</Node>
							</Node>
						</Node>
						<Node score="1586.0">
							<SimplePredicate field="double(bw)" operator="lessOrEqual" value="10.8258056640625"/>
							<Node score="1718.0">
								<SimplePredicate field="double(cpu)" operator="lessOrEqual" value="16.316654205322266"/>
								<Node score="1869.0">
									<SimplePredicate field="double(join)" operator="lessOrEqual" value="1677.0"/>
									<Node score="1843.0">
										<SimplePredicate field="double(cpu)" operator="lessOrEqual" value="16.055747032165527"/>
									</Node>
									<Node score="1875.0">
										<SimplePredicate field="double(join)" operator="lessOrEqual" value="1569.0"/>
										<Node score="1876.0">
											<SimplePredicate field="double(join)" operator="lessOrEqual" value="1364.0"/>
										</Node>
									</Node>
								</Node>
								<Node score="1730.0">
									<SimplePredicate field="double(cpu)" operator="lessOrEqual" value="15.89364767074585"/>
								</Node>
							</Node>
							<Node score="1658.0">
								<SimplePredicate field="double(current)" operator="lessOrEqual" value="1642.5"/>
								<Node score="1652.0">
									<SimplePredicate field="double(current)" operator="lessOrEqual" value="1450.5"/>
									<Node score="1596.0">
										<SimplePredicate field="double(join)" operator="lessOrEqual" value="1065.0"/>
										<Node score="1640.0">
											<SimplePredicate field="double(current)" operator="lessOrEqual" value="1427.5"/>
										</Node>
									</Node>
									<Node score="1658.0">
										<SimplePredicate field="double(bw)" operator="lessOrEqual" value="8.306954383850098"/>
									</Node>
								</Node>
								<Node score="1836.0">
									<SimplePredicate field="double(bw)" operator="lessOrEqual" value="9.652370929718018"/>
									<Node score="1681.0">
										<SimplePredicate field="double(bw)" operator="lessOrEqual" value="9.292804718017578"/>
										<Node score="1731.0">
											<SimplePredicate field="double(bw)" operator="lessOrEqual" value="8.72441291809082"/>
										</Node>
										<Node score="1708.0">
											<SimplePredicate field="double(current)" operator="lessOrEqual" value="1475.0"/>
											<Node score="1700.0">
												<SimplePredicate field="double(join)" operator="lessOrEqual" value="1107.0"/>
											</Node>
										</Node>
									</Node>
									<Node score="1761.0">
										<SimplePredicate field="double(current)" operator="lessOrEqual" value="1507.5"/>
										<Node score="1795.0">
											<SimplePredicate field="double(current)" operator="lessOrEqual" value="1490.0"/>
											<Node score="1778.0">
												<SimplePredicate field="double(join)" operator="lessOrEqual" value="1042.5"/>
											</Node>
										</Node>
										<Node score="1753.0">
											<SimplePredicate field="double(bw)" operator="lessOrEqual" value="9.451858043670654"/>
										</Node>
									</Node>
								</Node>
								<Node score="1778.0">
									<SimplePredicate field="double(time)" operator="lessOrEqual" value="7.5"/>
									<Node score="1664.0">
										<SimplePredicate field="double(join)" operator="lessOrEqual" value="1265.5"/>
										<Node score="1710.0">
											<SimplePredicate field="double(current)" operator="lessOrEqual" value="1640.5"/>
											<Node score="1694.0">
												<SimplePredicate field="double(time)" operator="lessOrEqual" value="6.5"/>
												<Node score="1699.0">
													<SimplePredicate field="double(cpu)" operator="lessOrEqual" value="17.223861694335938"/>
												</Node>
											</Node>
										</Node>
									</Node>
								</Node>
							</Node>
							<Node score="1614.0">
								<SimplePredicate field="double(cpu)" operator="lessOrEqual" value="16.54765224456787"/>
							</Node>
						</Node>
						<Node score="1958.0">
							<SimplePredicate field="double(current)" operator="lessOrEqual" value="1919.0"/>
							<Node score="1890.0">
								<SimplePredicate field="double(bw)" operator="lessOrEqual" value="11.943106174468994"/>
								<Node score="1677.0">
									<SimplePredicate field="double(cpu)" operator="lessOrEqual" value="14.880313873291016"/>
								</Node>
								<Node score="1854.0">
									<SimplePredicate field="double(cpu)" operator="lessOrEqual" value="14.983330726623535"/>
									<Node score="1869.0">
										<SimplePredicate field="double(current)" operator="lessOrEqual" value="1762.5"/>
									</Node>
								</Node>
								<Node score="1960.0">
									<SimplePredicate field="double(cpu)" operator="lessOrEqual" value="15.395682334899902"/>
									<Node score="1974.0">
										<SimplePredicate field="double(current)" operator="lessOrEqual" value="1830.0"/>
									</Node>
								</Node>
								<Node score="1878.0">
									<SimplePredicate field="double(current)" operator="lessOrEqual" value="1696.5"/>
								</Node>
								<Node score="1905.0">
									<SimplePredicate field="double(bw)" operator="lessOrEqual" value="11.391418933868408"/>
									<Node score="1916.0">
										<SimplePredicate field="double(join)" operator="lessOrEqual" value="1400.0"/>
										<Node score="1911.0">
											<SimplePredicate field="double(cpu)" operator="lessOrEqual" value="15.681551456451416"/>
										</Node>
									</Node>
								</Node>
								<Node score="1897.0">
									<SimplePredicate field="double(join)" operator="lessOrEqual" value="1266.0"/>
								</Node>
							</Node>
							<Node score="1978.0">
								<SimplePredicate field="double(join)" operator="lessOrEqual" value="1597.0"/>
								<Node score="1930.0">
									<SimplePredicate field="double(bw)" operator="lessOrEqual" value="12.035609245300293"/>
								</Node>
								<Node score="2021.0">
									<SimplePredicate field="double(bw)" operator="lessOrEqual" value="12.515820026397705"/>
									<Node score="2008.0">
										<SimplePredicate field="double(current)" operator="lessOrEqual" value="1857.0"/>
									</Node>
								</Node>
								<Node score="1929.0">
									<SimplePredicate field="double(bw)" operator="lessOrEqual" value="12.598638534545898"/>
								</Node>
							</Node>
							<Node score="1872.0">
								<SimplePredicate field="double(cpu)" operator="lessOrEqual" value="13.928702354431152"/>
								<Node score="1903.0">
									<SimplePredicate field="double(cpu)" operator="lessOrEqual" value="13.860907077789307"/>
								</Node>
							</Node>
							<Node score="1986.0">
								<SimplePredicate field="double(current)" operator="lessOrEqual" value="1869.5"/>
							</Node>
							<Node score="1899.0">
								<SimplePredicate field="double(join)" operator="lessOrEqual" value="1968.5"/>
								<Node score="1928.0">
									<SimplePredicate field="double(join)" operator="lessOrEqual" value="1938.5"/>
									<Node score="1917.0">
										<SimplePredicate field="double(time)" operator="lessOrEqual" value="9.5"/>
										<Node score="1908.0">
											<SimplePredicate field="double(bw)" operator="lessOrEqual" value="12.5980806350708"/>
										</Node>
									</Node>
									<Node score="1941.0">
										<SimplePredicate field="double(cpu)" operator="lessOrEqual" value="14.417006969451904"/>
									</Node>
								</Node>
							</Node>
						</Node>
						<Node score="1970.0">
							<SimplePredicate field="double(current)" operator="lessOrEqual" value="2039.5"/>
							<Node score="2035.0">
								<SimplePredicate field="double(join)" operator="lessOrEqual" value="1545.5"/>
								<Node score="2076.0">
									<SimplePredicate field="double(cpu)" operator="lessOrEqual" value="14.094879150390625"/>
									<Node score="2068.0">
										<SimplePredicate field="double(bw)" operator="lessOrEqual" value="13.31000280380249"/>
									</Node>
								</Node>
							</Node>
							<Node score="1918.0">
								<SimplePredicate field="double(cpu)" operator="lessOrEqual" value="13.385276317596436"/>
							</Node>
							<Node score="1904.0">
								<SimplePredicate field="double(bw)" operator="lessOrEqual" value="12.85452651977539"/>
							</Node>
							<Node score="2058.0">
								<SimplePredicate field="double(time)" operator="lessOrEqual" value="9.5"/>
								<Node score="2039.0">
									<SimplePredicate field="double(current)" operator="lessOrEqual" value="2008.0"/>
								</Node>
							</Node>
							<Node score="2026.0">
								<SimplePredicate field="double(bw)" operator="lessOrEqual" value="13.161027431488037"/>
								<Node score="2022.0">
									<SimplePredicate field="double(current)" operator="lessOrEqual" value="1964.0"/>
									<Node score="2020.0">
										<SimplePredicate field="double(time)" operator="lessOrEqual" value="10.5"/>
									</Node>
								</Node>
							</Node>
							<Node score="1923.0">
								<SimplePredicate field="double(cpu)" operator="lessOrEqual" value="13.594939708709717"/>
							</Node>
						</Node>
						<Node score="2142.0">
							<SimplePredicate field="double(current)" operator="lessOrEqual" value="2154.5"/>
							<Node score="2102.0">
								<SimplePredicate field="double(cpu)" operator="lessOrEqual" value="13.256271839141846"/>
								<Node score="2142.0">
									<SimplePredicate field="double(time)" operator="lessOrEqual" value="10.5"/>
									<Node score="2115.0">
										<SimplePredicate field="double(join)" operator="lessOrEqual" value="1860.5"/>
									</Node>
								</Node>
							</Node>
							<Node score="2116.0">
								<SimplePredicate field="double(current)" operator="lessOrEqual" value="2054.0"/>
							</Node>
							<Node score="2130.0">
								<SimplePredicate field="double(cpu)" operator="lessOrEqual" value="13.260840892791748"/>
							</Node>
							<Node score="2143.0">
								<SimplePredicate field="double(cpu)" operator="lessOrEqual" value="13.331286430358887"/>
							</Node>
							<Node score="2135.0">
								<SimplePredicate field="double(cpu)" operator="lessOrEqual" value="13.59975528717041"/>
							</Node>
						</Node>
					</Node>
				</TreeModel>
			</Segment>
			<Segment id="3">
				<True/>
				<TreeModel functionName="regression" missingValueStrategy="nullPrediction" noTrueChildStrategy="returnLastPrediction">
					<MiningSchema>
						<MiningField name="double(join)"/>
						<MiningField name="double(time)"/>
						<MiningField name="double(current)"/>
						<MiningField name="double(bw)"/>
						<MiningField name="double(cpu)"/>
					</MiningSchema>
					<Node score="2151.0">
						<True/>
						<Node score="695.0">
							<SimplePredicate field="double(current)" operator="lessOrEqual" value="477.0"/>
							<Node score="346.0">
								<SimplePredicate field="double(current)" operator="lessOrEqual" value="218.0"/>
								<Node score="166.0">
									<SimplePredicate field="double(time)" operator="lessOrEqual" value="1.5"/>
									<Node score="58.0">
										<SimplePredicate field="double(cpu)" operator="lessOrEqual" value="12.300000190734863"/>
										<Node score="49.0">
											<SimplePredicate field="double(join)" operator="lessOrEqual" value="50.5"/>
											<Node score="44.0">
												<SimplePredicate field="double(join)" operator="lessOrEqual" value="46.0"/>
											</Node>
											<Node score="48.0">
												<SimplePredicate field="double(join)" operator="lessOrEqual" value="48.5"/>
											</Node>
										</Node>
										<Node score="54.0">
											<SimplePredicate field="double(join)" operator="lessOrEqual" value="56.0"/>
											<Node score="52.0">
												<SimplePredicate field="double(join)" operator="lessOrEqual" value="53.0"/>
											</Node>
										</Node>
									</Node>
									<Node score="138.0">
										<SimplePredicate field="double(join)" operator="lessOrEqual" value="108.0"/>
										<Node score="117.0">
											<SimplePredicate field="double(join)" operator="lessOrEqual" value="91.0"/>
										</Node>
										<Node score="133.0">
											<SimplePredicate field="double(join)" operator="lessOrEqual" value="101.0"/>
											<Node score="132.0">
												<SimplePredicate field="double(join)" operator="lessOrEqual" value="96.5"/>
											</Node>
										</Node>
										<Node score="143.0">
											<SimplePredicate field="double(join)" operator="lessOrEqual" value="104.0"/>
											<Node score="140.0">
												<SimplePredicate field="double(current)" operator="lessOrEqual" value="51.0"/>
											</Node>
										</Node>
									</Node>
									<Node score="158.0">
										<SimplePredicate field="double(join)" operator="lessOrEqual" value="127.0"/>
										<Node score="147.0">
											<SimplePredicate field="double(join)" operator="lessOrEqual" value="113.0"/>
											<Node score="147.0">
												<SimplePredicate field="double(current)" operator="lessOrEqual" value="54.5"/>
											</Node>
											<Node score="145.0">
												<SimplePredicate field="double(current)" operator="lessOrEqual" value="56.5"/>
											</Node>
										</Node>
										<Node score="149.0">
											<SimplePredicate field="double(current)" operator="lessOrEqual" value="51.0"/>
										</Node>
									</Node>
								</Node>
								<Node score="301.0">
									<SimplePredicate field="double(join)" operator="lessOrEqual" value="206.0"/>
									<Node score="270.0">
										<SimplePredicate field="double(join)" operator="lessOrEqual" value="184.5"/>
									</Node>
									<Node score="294.0">
										<SimplePredicate field="double(join)" operator="lessOrEqual" value="193.5"/>
									</Node>
									<Node score="300.0">
										<SimplePredicate field="double(current)" operator="lessOrEqual" value="135.0"/>
									</Node>
								</Node>
								<Node score="324.0">
									<SimplePredicate field="double(join)" operator="lessOrEqual" value="225.5"/>
									<Node score="299.0">
										<SimplePredicate field="double(current)" operator="lessOrEqual" value="132.0"/>
									</Node>
									<Node score="313.0">
										<SimplePredicate field="double(current)" operator="lessOrEqual" value="153.5"/>
										<Node score="319.0">
											<SimplePredicate field="double(current)" operator="lessOrEqual" value="148.0"/>
										</Node>
									</Node>
									<Node score="323.0">
										<SimplePredicate field="double(bw)" operator="lessOrEqual" value="0.9302108287811279"/>
									</Node>
								</Node>
							</Node>
							<Node score="635.0">
								<SimplePredicate field="double(join)" operator="lessOrEqual" value="442.0"/>
								<Node score="618.0">
									<SimplePredicate field="double(join)" operator="lessOrEqual" value="418.0"/>
									<Node score="608.0">
										<SimplePredicate field="double(bw)" operator="lessOrEqual" value="0.7051505148410797"/>
										<Node score="605.0">
											<SimplePredicate field="double(current)" operator="lessOrEqual" value="310.0"/>
										</Node>
									</Node>
								</Node>
								<Node score="659.0">
									<SimplePredicate field="double(join)" operator="lessOrEqual" value="434.5"/>
									<Node score="661.0">
										<SimplePredicate field="double(join)" operator="lessOrEqual" value="428.5"/>
									</Node>
									<Node score="647.0">
										<SimplePredicate field="double(join)" operator="lessOrEqual" value="430.5"/>
									</Node>
									<Node score="654.0">
										<SimplePredicate field="double(cpu)" operator="lessOrEqual" value="24.513099670410156"/>
									</Node>
								</Node>
								<Node score="626.0">
									<SimplePredicate field="double(join)" operator="lessOrEqual" value="437.5"/>
								</Node>
							</Node>
							<Node score="652.0">
								<SimplePredicate field="double(current)" operator="lessOrEqual" value="302.0"/>
							</Node>
							<Node score="692.0">
								<SimplePredicate field="double(current)" operator="lessOrEqual" value="326.5"/>
							</Node>
						</Node>
						<Node score="1081.0">
							<SimplePredicate field="double(time)" operator="lessOrEqual" value="5.5"/>
							<Node score="1542.0">
								<SimplePredicate field="double(cpu)" operator="lessOrEqual" value="21.85708236694336"/>
								<Node score="1436.0">
									<SimplePredicate field="double(join)" operator="lessOrEqual" value="856.5"/>
									<Node score="1436.0">
										<SimplePredicate field="double(join)" operator="lessOrEqual" value="854.5"/>
										<Node score="1445.0">
											<SimplePredicate field="double(cpu)" operator="lessOrEqual" value="20.735486030578613"/>
											<Node score="1470.0">
												<SimplePredicate field="double(bw)" operator="lessOrEqual" value="6.250973463058472"/>
												<Node score="1487.0">
													<SimplePredicate field="double(bw)" operator="lessOrEqual" value="6.120740652084351"/>
													<Node score="1477.0">
														<SimplePredicate field="double(join)" operator="lessOrEqual" value="840.0"/>
														<Node score="1478.0">
															<SimplePredicate field="double(join)" operator="lessOrEqual" value="811.5"/>
														</Node>
													</Node>
												</Node>
												<Node score="1468.0">
													<SimplePredicate field="double(bw)" operator="lessOrEqual" value="6.192088603973389"/>
												</Node>
											</Node>
										</Node>
									</Node>
								</Node>
								<Node score="1487.0">
									<SimplePredicate field="double(current)" operator="lessOrEqual" value="1093.5"/>
									<Node score="1495.0">
										<SimplePredicate field="double(cpu)" operator="lessOrEqual" value="20.68484115600586"/>
										<Node score="1496.0">
											<SimplePredicate field="double(bw)" operator="lessOrEqual" value="5.919320821762085"/>
										</Node>
									</Node>
								</Node>
								<Node score="1519.0">
									<SimplePredicate field="double(bw)" operator="lessOrEqual" value="6.085526943206787"/>
								</Node>
							</Node>
							<Node score="1088.0">
								<SimplePredicate field="double(current)" operator="lessOrEqual" value="660.0"/>
								<Node score="1058.0">
									<SimplePredicate field="double(join)" operator="lessOrEqual" value="623.5"/>
									<Node score="1065.0">
										<SimplePredicate field="double(cpu)" operator="lessOrEqual" value="23.382442474365234"/>
									</Node>
									<Node score="1061.0">
										<SimplePredicate field="double(bw)" operator="lessOrEqual" value="2.000647246837616"/>
									</Node>
								</Node>
								<Node score="1080.0">
									<SimplePredicate field="double(current)" operator="lessOrEqual" value="634.0"/>
									<Node score="1087.0">
										<SimplePredicate field="double(join)" operator="lessOrEqual" value="648.0"/>
									</Node>
								</Node>
								<Node score="1100.0">
									<SimplePredicate field="double(current)" operator="lessOrEqual" value="656.5"/>
									<Node score="1107.0">
										<SimplePredicate field="double(cpu)" operator="lessOrEqual" value="23.807340621948242"/>
									</Node>
								</Node>
							</Node>
							<Node score="1141.0">
								<SimplePredicate field="double(bw)" operator="lessOrEqual" value="2.717715620994568"/>
								<Node score="1129.0">
									<SimplePredicate field="double(cpu)" operator="lessOrEqual" value="23.429710388183594"/>
									<Node score="1107.0">
										<SimplePredicate field="double(current)" operator="lessOrEqual" value="680.0"/>
									</Node>
									<Node score="1128.0">
										<SimplePredicate field="double(join)" operator="lessOrEqual" value="638.5"/>
									</Node>
								</Node>
								<Node score="1157.0">
									<SimplePredicate field="double(current)" operator="lessOrEqual" value="672.5"/>
								</Node>
							</Node>
							<Node score="1103.0">
								<SimplePredicate field="double(cpu)" operator="lessOrEqual" value="22.946735382080078"/>
							</Node>
						</Node>
						<Node score="1875.0">
							<SimplePredicate field="double(bw)" operator="lessOrEqual" value="10.854297161102295"/>
							<Node score="1614.0">
								<SimplePredicate field="double(current)" operator="lessOrEqual" value="1655.0"/>
								<Node score="1778.0">
									<SimplePredicate field="double(current)" operator="lessOrEqual" value="1642.5"/>
									<Node score="1652.0">
										<SimplePredicate field="double(bw)" operator="lessOrEqual" value="9.344234943389893"/>
										<Node score="1705.0">
											<SimplePredicate field="double(cpu)" operator="lessOrEqual" value="18.08519458770752"/>
											<Node score="1710.0">
												<SimplePredicate field="double(current)" operator="lessOrEqual" value="1477.5"/>
												<Node score="1641.0">
													<SimplePredicate field="double(bw)" operator="lessOrEqual" value="8.8602933883667"/>
													<Node score="1640.0">
														<SimplePredicate field="double(bw)" operator="lessOrEqual" value="8.744307518005371"/>
													</Node>
												</Node>
												<Node score="1701.0">
													<SimplePredicate field="double(bw)" operator="lessOrEqual" value="9.147276401519775"/>
													<Node score="1700.0">
														<SimplePredicate field="double(join)" operator="lessOrEqual" value="1055.0"/>
													</Node>
												</Node>
											</Node>
											<Node score="1731.0">
												<SimplePredicate field="double(current)" operator="lessOrEqual" value="1482.5"/>
											</Node>
										</Node>
										<Node score="1644.0">
											<SimplePredicate field="double(current)" operator="lessOrEqual" value="1430.0"/>
										</Node>
										<Node score="1596.0">
											<SimplePredicate field="double(current)" operator="lessOrEqual" value="1441.5"/>
										</Node>
									</Node>
									<Node score="1664.0">
										<SimplePredicate field="double(cpu)" operator="lessOrEqual" value="16.666189193725586"/>
										<Node score="1728.0">
											<SimplePredicate field="double(current)" operator="lessOrEqual" value="1627.5"/>
										</Node>
									</Node>
									<Node score="1836.0">
										<SimplePredicate field="double(bw)" operator="lessOrEqual" value="9.532897472381592"/>
										<Node score="1795.0">
											<SimplePredicate field="double(current)" operator="lessOrEqual" value="1486.5"/>
										</Node>
									</Node>
									<Node score="1778.0">
										<SimplePredicate field="double(current)" operator="lessOrEqual" value="1546.0"/>
										<Node score="1761.0">
											<SimplePredicate field="double(cpu)" operator="lessOrEqual" value="17.37108325958252"/>
										</Node>
									</Node>
								</Node>
								<Node score="1586.0">
									<SimplePredicate field="double(bw)" operator="lessOrEqual" value="10.059557437896729"/>
								</Node>
							</Node>
							<Node score="1691.0">
								<SimplePredicate field="double(cpu)" operator="lessOrEqual" value="15.979296684265137"/>
								<Node score="1730.0">
									<SimplePredicate field="double(join)" operator="lessOrEqual" value="2061.5"/>
									<Node score="1718.0">
										<SimplePredicate field="double(time)" operator="lessOrEqual" value="9.5"/>
									</Node>
								</Node>
							</Node>
							<Node score="1815.0">
								<SimplePredicate field="double(join)" operator="lessOrEqual" value="1509.0"/>
								<Node score="1835.0">
									<SimplePredicate field="double(join)" operator="lessOrEqual" value="1269.5"/>
									<Node score="1876.0">
										<SimplePredicate field="double(join)" operator="lessOrEqual" value="1237.0"/>
									</Node>
									<Node score="1848.0">
										<SimplePredicate field="double(bw)" operator="lessOrEqual" value="10.777807235717773"/>
									</Node>
								</Node>
								<Node score="1812.0">
									<SimplePredicate field="double(time)" operator="lessOrEqual" value="7.5"/>
								</Node>
							</Node>
							<Node score="1869.0">
								<SimplePredicate field="double(cpu)" operator="lessOrEqual" value="16.110812187194824"/>
							</Node>
						</Node>
						<Node score="1909.0">
							<SimplePredicate field="double(current)" operator="lessOrEqual" value="1930.0"/>
							<Node score="1848.0">
								<SimplePredicate field="double(bw)" operator="lessOrEqual" value="12.123152732849121"/>
								<Node score="1946.0">
									<SimplePredicate field="double(bw)" operator="lessOrEqual" value="11.89989185333252"/>
									<Node score="1843.0">
										<SimplePredicate field="double(bw)" operator="lessOrEqual" value="11.527842998504639"/>
										<Node score="1921.0">
											<SimplePredicate field="double(join)" operator="lessOrEqual" value="1228.0"/>
										</Node>
										<Node score="1897.0">
											<SimplePredicate field="double(cpu)" operator="lessOrEqual" value="15.63706111907959"/>
											<Node score="1888.0">
												<SimplePredicate field="double(bw)" operator="lessOrEqual" value="11.460209369659424"/>
												<Node score="1890.0">
													<SimplePredicate field="double(time)" operator="lessOrEqual" value="8.0"/>
												</Node>
											</Node>
										</Node>
									</Node>
									<Node score="1869.0">
										<SimplePredicate field="double(current)" operator="lessOrEqual" value="1736.0"/>
									</Node>
									<Node score="1960.0">
										<SimplePredicate field="double(current)" operator="lessOrEqual" value="1853.5"/>
										<Node score="1974.0">
											<SimplePredicate field="double(bw)" operator="lessOrEqual" value="11.623281478881836"/>
										</Node>
									</Node>
								</Node>
								<Node score="1677.0">
									<SimplePredicate field="double(join)" operator="lessOrEqual" value="1441.5"/>
								</Node>
								<Node score="1928.0">
									<SimplePredicate field="double(cpu)" operator="lessOrEqual" value="14.735854625701904"/>
									<Node score="1912.0">
										<SimplePredicate field="double(join)" operator="lessOrEqual" value="1745.0"/>
									</Node>
								</Node>
								<Node score="1870.0">
									<SimplePredicate field="double(time)" operator="lessOrEqual" value="9.0"/>
								</Node>
							</Node>
							<Node score="2021.0">
								<SimplePredicate field="double(time)" operator="lessOrEqual" value="8.5"/>
								<Node score="1915.0">
									<SimplePredicate field="double(join)" operator="lessOrEqual" value="1468.5"/>
									<Node score="1978.0">
										<SimplePredicate field="double(join)" operator="lessOrEqual" value="1432.5"/>
										<Node score="2008.0">
											<SimplePredicate field="double(current)" operator="lessOrEqual" value="1873.5"/>
										</Node>
									</Node>
									<Node score="1955.0">
										<SimplePredicate field="double(bw)" operator="lessOrEqual" value="12.347666263580322"/>
									</Node>
								</Node>
								<Node score="2035.0">
									<SimplePredicate field="double(join)" operator="lessOrEqual" value="1515.0"/>
									<Node score="2038.0">
										<SimplePredicate field="double(current)" operator="lessOrEqual" value="1918.5"/>
									</Node>
								</Node>
							</Node>
							<Node score="1917.0">
								<SimplePredicate field="double(join)" operator="lessOrEqual" value="1968.5"/>
								<Node score="1931.0">
									<SimplePredicate field="double(join)" operator="lessOrEqual" value="1683.0"/>
								</Node>
								<Node score="1899.0">
									<SimplePredicate field="double(current)" operator="lessOrEqual" value="1923.0"/>
									<Node score="1908.0">
										<SimplePredicate field="double(join)" operator="lessOrEqual" value="1769.5"/>
									</Node>
									<Node score="1903.0">
										<SimplePredicate field="double(join)" operator="lessOrEqual" value="1904.0"/>
									</Node>
								</Node>
							</Node>
							<Node score="1936.0">
								<SimplePredicate field="double(cpu)" operator="lessOrEqual" value="14.003315448760986"/>
								<Node score="1958.0">
									<SimplePredicate field="double(time)" operator="lessOrEqual" value="10.5"/>
								</Node>
							</Node>
						</Node>
						<Node score="1923.0">
							<SimplePredicate field="double(current)" operator="lessOrEqual" value="2039.5"/>
							<Node score="2106.0">
								<SimplePredicate field="double(join)" operator="lessOrEqual" value="1728.0"/>
								<Node score="1981.0">
									<SimplePredicate field="double(bw)" operator="lessOrEqual" value="12.992828845977783"/>
								</Node>
								<Node score="2039.0">
									<SimplePredicate field="double(bw)" operator="lessOrEqual" value="13.653858184814453"/>
									<Node score="2076.0">
										<SimplePredicate field="double(join)" operator="lessOrEqual" value="1419.5"/>
										<Node score="2068.0">
											<SimplePredicate field="double(join)" operator="lessOrEqual" value="1393.5"/>
										</Node>
									</Node>
									<Node score="2058.0">
										<SimplePredicate field="double(cpu)" operator="lessOrEqual" value="13.589090824127197"/>
									</Node>
									<Node score="2040.0">
										<SimplePredicate field="double(time)" operator="lessOrEqual" value="8.5"/>
									</Node>
								</Node>
							</Node>
							<Node score="2015.0">
								<SimplePredicate field="double(bw)" operator="lessOrEqual" value="13.071549892425537"/>
								<Node score="2029.0">
									<SimplePredicate field="double(join)" operator="lessOrEqual" value="1915.0"/>
								</Node>
								<Node score="2022.0">
									<SimplePredicate field="double(cpu)" operator="lessOrEqual" value="14.057461738586426"/>
									<Node score="2020.0">
										<SimplePredicate field="double(join)" operator="lessOrEqual" value="2044.5"/>
									</Node>
								</Node>
							</Node>
							<Node score="1963.0">
								<SimplePredicate field="double(join)" operator="lessOrEqual" value="2102.5"/>
								<Node score="1918.0">
									<SimplePredicate field="double(join)" operator="lessOrEqual" value="1903.0"/>
									<Node score="1938.0">
										<SimplePredicate field="double(join)" operator="lessOrEqual" value="1793.5"/>
									</Node>
								</Node>
								<Node score="1970.0">
									<SimplePredicate field="double(bw)" operator="lessOrEqual" value="13.379925727844238"/>
									<Node score="1969.0">
										<SimplePredicate field="double(current)" operator="lessOrEqual" value="1971.5"/>
									</Node>
								</Node>
							</Node>
							<Node score="1886.0">
								<SimplePredicate field="double(bw)" operator="lessOrEqual" value="13.241972923278809"/>
							</Node>
						</Node>
						<Node score="2102.0">
							<SimplePredicate field="double(bw)" operator="lessOrEqual" value="13.755153179168701"/>
							<Node score="2116.0">
								<SimplePredicate field="double(join)" operator="lessOrEqual" value="2020.5"/>
								<Node score="2115.0">
									<SimplePredicate field="double(cpu)" operator="lessOrEqual" value="13.402821063995361"/>
								</Node>
							</Node>
						</Node>
						<Node score="2134.0">
							<SimplePredicate field="double(bw)" operator="lessOrEqual" value="13.829140663146973"/>
							<Node score="2130.0">
								<SimplePredicate field="double(join)" operator="lessOrEqual" value="1922.5"/>
							</Node>
						</Node>
						<Node score="2142.0">
							<SimplePredicate field="double(bw)" operator="lessOrEqual" value="13.892705917358398"/>
						</Node>
					</Node>
				</TreeModel>
			</Segment>
			<Segment id="4">
				<True/>
				<TreeModel functionName="regression" missingValueStrategy="nullPrediction" noTrueChildStrategy="returnLastPrediction">
					<MiningSchema>
						<MiningField name="double(join)"/>
						<MiningField name="double(time)"/>
						<MiningField name="double(current)"/>
						<MiningField name="double(bw)"/>
						<MiningField name="double(cpu)"/>
					</MiningSchema>
					<Node score="2162.0">
						<True/>
						<Node score="695.0">
							<SimplePredicate field="double(current)" operator="lessOrEqual" value="475.5"/>
							<Node score="346.0">
								<SimplePredicate field="double(current)" operator="lessOrEqual" value="229.0"/>
								<Node score="166.0">
									<SimplePredicate field="double(join)" operator="lessOrEqual" value="160.0"/>
									<Node score="66.0">
										<SimplePredicate field="double(cpu)" operator="lessOrEqual" value="12.300000190734863"/>
										<Node score="52.0">
											<SimplePredicate field="double(join)" operator="lessOrEqual" value="53.0"/>
											<Node score="44.0">
												<SimplePredicate field="double(join)" operator="lessOrEqual" value="46.0"/>
											</Node>
											<Node score="49.0">
												<SimplePredicate field="double(join)" operator="lessOrEqual" value="50.5"/>
												<Node score="48.0">
													<SimplePredicate field="double(join)" operator="lessOrEqual" value="48.5"/>
												</Node>
											</Node>
										</Node>
										<Node score="58.0">
											<SimplePredicate field="double(join)" operator="lessOrEqual" value="60.0"/>
											<Node score="55.0">
												<SimplePredicate field="double(join)" operator="lessOrEqual" value="56.0"/>
												<Node score="54.0">
													<SimplePredicate field="double(join)" operator="lessOrEqual" value="54.5"/>
												</Node>
											</Node>
											<Node score="57.0">
												<SimplePredicate field="double(join)" operator="lessOrEqual" value="57.5"/>
											</Node>
										</Node>
										<Node score="62.0">
											<SimplePredicate field="double(join)" operator="lessOrEqual" value="64.0"/>
										</Node>
									</Node>
									<Node score="133.0">
										<SimplePredicate field="double(join)" operator="lessOrEqual" value="102.5"/>
										<Node score="117.0">
											<SimplePredicate field="double(join)" operator="lessOrEqual" value="92.5"/>
										</Node>
										<Node score="140.0">
											<SimplePredicate field="double(current)" operator="lessOrEqual" value="50.5"/>
										</Node>
										<Node score="139.0">
											<SimplePredicate field="double(join)" operator="lessOrEqual" value="98.5"/>
											<Node score="135.0">
												<SimplePredicate field="double(join)" operator="lessOrEqual" value="96.5"/>
											</Node>
										</Node>
									</Node>
									<Node score="155.0">
										<SimplePredicate field="double(join)" operator="lessOrEqual" value="127.0"/>
										<Node score="149.0">
											<SimplePredicate field="double(current)" operator="lessOrEqual" value="62.0"/>
											<Node score="143.0">
												<SimplePredicate field="double(join)" operator="lessOrEqual" value="107.0"/>
											</Node>
											<Node score="147.0">
												<SimplePredicate field="double(join)" operator="lessOrEqual" value="116.5"/>
											</Node>
										</Node>
									</Node>
								</Node>
								<Node score="307.0">
									<SimplePredicate field="double(join)" operator="lessOrEqual" value="206.0"/>
									<Node score="287.0">
										<SimplePredicate field="double(join)" operator="lessOrEqual" value="202.5"/>
										<Node score="301.0">
											<SimplePredicate field="double(join)" operator="lessOrEqual" value="200.5"/>
											<Node score="292.0">
												<SimplePredicate field="double(join)" operator="lessOrEqual" value="197.5"/>
												<Node score="297.0">
													<SimplePredicate field="double(join)" operator="lessOrEqual" value="194.5"/>
													<Node score="294.0">
														<SimplePredicate field="double(current)" operator="lessOrEqual" value="142.5"/>
													</Node>
													<Node score="301.0">
														<SimplePredicate field="double(current)" operator="lessOrEqual" value="146.0"/>
													</Node>
												</Node>
											</Node>
										</Node>
									</Node>
									<Node score="300.0">
										<SimplePredicate field="double(current)" operator="lessOrEqual" value="135.5"/>
									</Node>
								</Node>
								<Node score="324.0">
									<SimplePredicate field="double(join)" operator="lessOrEqual" value="236.0"/>
									<Node score="299.0">
										<SimplePredicate field="double(current)" operator="lessOrEqual" value="125.0"/>
									</Node>
									<Node score="313.0">
										<SimplePredicate field="double(join)" operator="lessOrEqual" value="209.5"/>
										<Node score="319.0">
											<SimplePredicate field="double(current)" operator="lessOrEqual" value="148.0"/>
										</Node>
									</Node>
									<Node score="326.0">
										<SimplePredicate field="double(bw)" operator="lessOrEqual" value="0.9302108287811279"/>
									</Node>
								</Node>
							</Node>
							<Node score="618.0">
								<SimplePredicate field="double(join)" operator="lessOrEqual" value="418.0"/>
								<Node score="608.0">
									<SimplePredicate field="double(bw)" operator="lessOrEqual" value="0.7051505148410797"/>
									<Node score="605.0">
										<SimplePredicate field="double(current)" operator="lessOrEqual" value="310.0"/>
									</Node>
								</Node>
							</Node>
							<Node score="684.0">
								<SimplePredicate field="double(current)" operator="lessOrEqual" value="336.0"/>
								<Node score="652.0">
									<SimplePredicate field="double(join)" operator="lessOrEqual" value="457.5"/>
									<Node score="659.0">
										<SimplePredicate field="double(join)" operator="lessOrEqual" value="454.0"/>
										<Node score="661.0">
											<SimplePredicate field="double(join)" operator="lessOrEqual" value="429.5"/>
										</Node>
									</Node>
								</Node>
							</Node>
						</Node>
						<Node score="1496.0">
							<SimplePredicate field="double(join)" operator="lessOrEqual" value="930.0"/>
							<Node score="1157.0">
								<SimplePredicate field="double(bw)" operator="lessOrEqual" value="4.009695768356323"/>
								<Node score="1100.0">
									<SimplePredicate field="double(join)" operator="lessOrEqual" value="673.5"/>
									<Node score="1088.0">
										<SimplePredicate field="double(join)" operator="lessOrEqual" value="632.0"/>
										<Node score="1048.0">
											<SimplePredicate field="double(bw)" operator="lessOrEqual" value="2.3796149492263794"/>
											<Node score="1065.0">
												<SimplePredicate field="double(cpu)" operator="lessOrEqual" value="23.56476593017578"/>
												<Node score="1058.0">
													<SimplePredicate field="double(join)" operator="lessOrEqual" value="614.0"/>
												</Node>
											</Node>
											<Node score="1053.0">
												<SimplePredicate field="double(join)" operator="lessOrEqual" value="625.0"/>
											</Node>
										</Node>
									</Node>
									<Node score="1107.0">
										<SimplePredicate field="double(join)" operator="lessOrEqual" value="645.0"/>
										<Node score="1128.0">
											<SimplePredicate field="double(join)" operator="lessOrEqual" value="637.5"/>
										</Node>
									</Node>
									<Node score="1081.0">
										<SimplePredicate field="double(join)" operator="lessOrEqual" value="659.5"/>
										<Node score="1080.0">
											<SimplePredicate field="double(current)" operator="lessOrEqual" value="634.5"/>
										</Node>
									</Node>
								</Node>
							</Node>
							<Node score="1436.0">
								<SimplePredicate field="double(join)" operator="lessOrEqual" value="864.5"/>
								<Node score="1487.0">
									<SimplePredicate field="double(join)" operator="lessOrEqual" value="854.5"/>
									<Node score="1454.0">
										<SimplePredicate field="double(join)" operator="lessOrEqual" value="851.5"/>
										<Node score="1470.0">
											<SimplePredicate field="double(bw)" operator="lessOrEqual" value="6.250973463058472"/>
											<Node score="1462.0">
												<SimplePredicate field="double(bw)" operator="lessOrEqual" value="5.841975688934326"/>
												<Node score="1436.0">
													<SimplePredicate field="double(cpu)" operator="lessOrEqual" value="20.840073585510254"/>
												</Node>
												<Node score="1463.0">
													<SimplePredicate field="double(current)" operator="lessOrEqual" value="1062.5"/>
												</Node>
											</Node>
											<Node score="1468.0">
												<SimplePredicate field="double(cpu)" operator="lessOrEqual" value="20.315114974975586"/>
											</Node>
										</Node>
										<Node score="1445.0">
											<SimplePredicate field="double(current)" operator="lessOrEqual" value="1132.0"/>
										</Node>
									</Node>
								</Node>
							</Node>
						</Node>
						<Node score="1730.0">
							<SimplePredicate field="double(bw)" operator="lessOrEqual" value="12.096235275268555"/>
							<Node score="1705.0">
								<SimplePredicate field="double(current)" operator="lessOrEqual" value="1649.0"/>
								<Node score="1701.0">
									<SimplePredicate field="double(current)" operator="lessOrEqual" value="1445.0"/>
									<Node score="1596.0">
										<SimplePredicate field="double(join)" operator="lessOrEqual" value="1061.0"/>
										<Node score="1644.0">
											<SimplePredicate field="double(join)" operator="lessOrEqual" value="1055.0"/>
											<Node score="1640.0">
												<SimplePredicate field="double(cpu)" operator="lessOrEqual" value="18.104598999023438"/>
											</Node>
										</Node>
									</Node>
								</Node>
								<Node score="1795.0">
									<SimplePredicate field="double(current)" operator="lessOrEqual" value="1458.0"/>
								</Node>
								<Node score="1694.0">
									<SimplePredicate field="double(current)" operator="lessOrEqual" value="1474.0"/>
									<Node score="1708.0">
										<SimplePredicate field="double(bw)" operator="lessOrEqual" value="9.53036117553711"/>
										<Node score="1700.0">
											<SimplePredicate field="double(bw)" operator="lessOrEqual" value="8.892302989959717"/>
										</Node>
										<Node score="1710.0">
											<SimplePredicate field="double(join)" operator="lessOrEqual" value="1105.0"/>
										</Node>
									</Node>
								</Node>
								<Node score="1699.0">
									<SimplePredicate field="double(join)" operator="lessOrEqual" value="1000.0"/>
								</Node>
								<Node score="1710.0">
									<SimplePredicate field="double(cpu)" operator="lessOrEqual" value="16.57986354827881"/>
									<Node score="1728.0">
										<SimplePredicate field="double(cpu)" operator="lessOrEqual" value="16.28350257873535"/>
									</Node>
								</Node>
								<Node score="1778.0">
									<SimplePredicate field="double(cpu)" operator="lessOrEqual" value="17.55794334411621"/>
									<Node score="1753.0">
										<SimplePredicate field="double(bw)" operator="lessOrEqual" value="9.451445579528809"/>
									</Node>
									<Node score="1778.0">
										<SimplePredicate field="double(bw)" operator="lessOrEqual" value="9.584587574005127"/>
									</Node>
									<Node score="1761.0">
										<SimplePredicate field="double(current)" operator="lessOrEqual" value="1546.0"/>
									</Node>
								</Node>
								<Node score="1731.0">
									<SimplePredicate field="double(current)" operator="lessOrEqual" value="1482.5"/>
								</Node>
							</Node>
							<Node score="1870.0">
								<SimplePredicate field="double(join)" operator="lessOrEqual" value="1904.5"/>
								<Node score="1718.0">
									<SimplePredicate field="double(bw)" operator="lessOrEqual" value="10.816413402557373"/>
									<Node score="1815.0">
										<SimplePredicate field="double(join)" operator="lessOrEqual" value="1677.0"/>
										<Node score="1876.0">
											<SimplePredicate field="double(current)" operator="lessOrEqual" value="1661.0"/>
											<Node score="1869.0">
												<SimplePredicate field="double(bw)" operator="lessOrEqual" value="10.49975872039795"/>
											</Node>
										</Node>
										<Node score="1843.0">
											<SimplePredicate field="double(cpu)" operator="lessOrEqual" value="16.050447463989258"/>
											<Node score="1848.0">
												<SimplePredicate field="double(join)" operator="lessOrEqual" value="1280.0"/>
											</Node>
										</Node>
										<Node score="1812.0">
											<SimplePredicate field="double(time)" operator="lessOrEqual" value="7.5"/>
										</Node>
									</Node>
								</Node>
								<Node score="1946.0">
									<SimplePredicate field="double(bw)" operator="lessOrEqual" value="11.915049076080322"/>
									<Node score="1878.0">
										<SimplePredicate field="double(bw)" operator="lessOrEqual" value="11.118542194366455"/>
										<Node score="1843.0">
											<SimplePredicate field="double(cpu)" operator="lessOrEqual" value="15.870176315307617"/>
										</Node>
										<Node score="1921.0">
											<SimplePredicate field="double(join)" operator="lessOrEqual" value="1231.0"/>
										</Node>
									</Node>
									<Node score="1854.0">
										<SimplePredicate field="double(cpu)" operator="lessOrEqual" value="14.924216747283936"/>
									</Node>
									<Node score="1888.0">
										<SimplePredicate field="double(bw)" operator="lessOrEqual" value="11.527842998504639"/>
										<Node score="1905.0">
											<SimplePredicate field="double(bw)" operator="lessOrEqual" value="11.373729705810547"/>
											<Node score="1911.0">
												<SimplePredicate field="double(join)" operator="lessOrEqual" value="1400.0"/>
											</Node>
										</Node>
										<Node score="1897.0">
											<SimplePredicate field="double(join)" operator="lessOrEqual" value="1425.0"/>
										</Node>
									</Node>
									<Node score="1974.0">
										<SimplePredicate field="double(time)" operator="lessOrEqual" value="9.0"/>
										<Node score="1960.0">
											<SimplePredicate field="double(time)" operator="lessOrEqual" value="7.5"/>
										</Node>
									</Node>
								</Node>
								<Node score="1677.0">
									<SimplePredicate field="double(bw)" operator="lessOrEqual" value="12.01427936553955"/>
								</Node>
							</Node>
						</Node>
						<Node score="1886.0">
							<SimplePredicate field="double(current)" operator="lessOrEqual" value="2039.5"/>
							<Node score="1909.0">
								<SimplePredicate field="double(current)" operator="lessOrEqual" value="1934.0"/>
								<Node score="2035.0">
									<SimplePredicate field="double(join)" operator="lessOrEqual" value="1570.5"/>
									<Node score="1955.0">
										<SimplePredicate field="double(join)" operator="lessOrEqual" value="1472.0"/>
										<Node score="1978.0">
											<SimplePredicate field="double(join)" operator="lessOrEqual" value="1432.5"/>
											<Node score="2008.0">
												<SimplePredicate field="double(join)" operator="lessOrEqual" value="1353.0"/>
											</Node>
										</Node>
										<Node score="1915.0">
											<SimplePredicate field="double(cpu)" operator="lessOrEqual" value="14.491485118865967"/>
										</Node>
									</Node>
									<Node score="2021.0">
										<SimplePredicate field="double(bw)" operator="lessOrEqual" value="12.700000762939453"/>
									</Node>
								</Node>
								<Node score="1986.0">
									<SimplePredicate field="double(current)" operator="lessOrEqual" value="1872.0"/>
								</Node>
								<Node score="1912.0">
									<SimplePredicate field="double(bw)" operator="lessOrEqual" value="12.65297269821167"/>
									<Node score="1931.0">
										<SimplePredicate field="double(cpu)" operator="lessOrEqual" value="14.670137882232666"/>
										<Node score="1941.0">
											<SimplePredicate field="double(cpu)" operator="lessOrEqual" value="14.263478755950928"/>
										</Node>
										<Node score="1928.0">
											<SimplePredicate field="double(bw)" operator="lessOrEqual" value="12.284367084503174"/>
										</Node>
									</Node>
								</Node>
								<Node score="1917.0">
									<SimplePredicate field="double(bw)" operator="lessOrEqual" value="12.789926052093506"/>
								</Node>
								<Node score="1903.0">
									<SimplePredicate field="double(join)" operator="lessOrEqual" value="2003.0"/>
									<Node score="1904.0">
										<SimplePredicate field="double(bw)" operator="lessOrEqual" value="12.94424057006836"/>
									</Node>
								</Node>
							</Node>
							<Node score="2106.0">
								<SimplePredicate field="double(join)" operator="lessOrEqual" value="1782.5"/>
								<Node score="1981.0">
									<SimplePredicate field="double(current)" operator="lessOrEqual" value="1957.5"/>
								</Node>
								<Node score="2039.0">
									<SimplePredicate field="double(bw)" operator="lessOrEqual" value="13.653858184814453"/>
									<Node score="2058.0">
										<SimplePredicate field="double(join)" operator="lessOrEqual" value="1699.5"/>
										<Node score="2068.0">
											<SimplePredicate field="double(bw)" operator="lessOrEqual" value="13.557546138763428"/>
											<Node score="2076.0">
												<SimplePredicate field="double(cpu)" operator="lessOrEqual" value="13.799354076385498"/>
											</Node>
										</Node>
									</Node>
								</Node>
							</Node>
							<Node score="1969.0">
								<SimplePredicate field="double(current)" operator="lessOrEqual" value="1983.5"/>
								<Node score="1965.0">
									<SimplePredicate field="double(bw)" operator="lessOrEqual" value="13.079638957977295"/>
									<Node score="2022.0">
										<SimplePredicate field="double(cpu)" operator="lessOrEqual" value="13.927725791931152"/>
										<Node score="2026.0">
											<SimplePredicate field="double(bw)" operator="lessOrEqual" value="13.008492469787598"/>
										</Node>
									</Node>
									<Node score="2015.0">
										<SimplePredicate field="double(bw)" operator="lessOrEqual" value="12.84185266494751"/>
										<Node score="2029.0">
											<SimplePredicate field="double(join)" operator="lessOrEqual" value="2005.0"/>
										</Node>
									</Node>
								</Node>
								<Node score="1970.0">
									<SimplePredicate field="double(join)" operator="lessOrEqual" value="2013.0"/>
								</Node>
							</Node>
							<Node score="1923.0">
								<SimplePredicate field="double(cpu)" operator="lessOrEqual" value="13.66758918762207"/>
								<Node score="1918.0">
									<SimplePredicate field="double(cpu)" operator="lessOrEqual" value="13.456300735473633"/>
								</Node>
							</Node>
						</Node>
						<Node score="2142.0">
							<SimplePredicate field="double(bw)" operator="lessOrEqual" value="13.873559951782227"/>
							<Node score="2116.0">
								<SimplePredicate field="double(current)" operator="lessOrEqual" value="2054.0"/>
							</Node>
							<Node score="2134.0">
								<SimplePredicate field="double(cpu)" operator="lessOrEqual" value="13.260840892791748"/>
								<Node score="2130.0">
									<SimplePredicate field="double(current)" operator="lessOrEqual" value="2109.0"/>
								</Node>
							</Node>
							<Node score="2143.0">
								<SimplePredicate field="double(join)" operator="lessOrEqual" value="1905.0"/>
							</Node>
							<Node score="2135.0">
								<SimplePredicate field="double(cpu)" operator="lessOrEqual" value="13.59975528717041"/>
							</Node>
						</Node>
						<Node score="2166.0">
							<SimplePredicate field="double(join)" operator="lessOrEqual" value="1979.0"/>
						</Node>
					</Node>
				</TreeModel>
			</Segment>
			<Segment id="5">
				<True/>
				<TreeModel functionName="regression" missingValueStrategy="nullPrediction" noTrueChildStrategy="returnLastPrediction">
					<MiningSchema>
						<MiningField name="double(join)"/>
						<MiningField name="double(time)"/>
						<MiningField name="double(current)"/>
						<MiningField name="double(bw)"/>
						<MiningField name="double(cpu)"/>
					</MiningSchema>
					<Node score="1519.0">
						<True/>
						<Node score="695.0">
							<SimplePredicate field="double(join)" operator="lessOrEqual" value="532.0"/>
							<Node score="326.0">
								<SimplePredicate field="double(time)" operator="lessOrEqual" value="2.5"/>
								<Node score="158.0">
									<SimplePredicate field="double(current)" operator="lessOrEqual" value="91.5"/>
									<Node score="62.0">
										<SimplePredicate field="double(join)" operator="lessOrEqual" value="75.5"/>
										<Node score="48.0">
											<SimplePredicate field="double(join)" operator="lessOrEqual" value="50.5"/>
											<Node score="47.0">
												<SimplePredicate field="double(join)" operator="lessOrEqual" value="47.5"/>
											</Node>
										</Node>
										<Node score="58.0">
											<SimplePredicate field="double(join)" operator="lessOrEqual" value="60.0"/>
											<Node score="55.0">
												<SimplePredicate field="double(join)" operator="lessOrEqual" value="56.0"/>
												<Node score="54.0">
													<SimplePredicate field="double(join)" operator="lessOrEqual" value="54.5"/>
													<Node score="53.0">
														<SimplePredicate field="double(join)" operator="lessOrEqual" value="53.5"/>
													</Node>
												</Node>
											</Node>
											<Node score="57.0">
												<SimplePredicate field="double(join)" operator="lessOrEqual" value="57.5"/>
											</Node>
										</Node>
									</Node>
									<Node score="138.0">
										<SimplePredicate field="double(join)" operator="lessOrEqual" value="107.0"/>
										<Node score="140.0">
											<SimplePredicate field="double(current)" operator="lessOrEqual" value="51.5"/>
											<Node score="117.0">
												<SimplePredicate field="double(join)" operator="lessOrEqual" value="99.5"/>
												<Node score="127.0">
													<SimplePredicate field="double(current)" operator="lessOrEqual" value="48.5"/>
												</Node>
											</Node>
										</Node>
										<Node score="139.0">
											<SimplePredicate field="double(join)" operator="lessOrEqual" value="98.0"/>
										</Node>
										<Node score="140.0">
											<SimplePredicate field="double(join)" operator="lessOrEqual" value="104.0"/>
											<Node score="143.0">
												<SimplePredicate field="double(current)" operator="lessOrEqual" value="58.0"/>
											</Node>
										</Node>
									</Node>
									<Node score="149.0">
										<SimplePredicate field="double(current)" operator="lessOrEqual" value="55.5"/>
										<Node score="145.0">
											<SimplePredicate field="double(join)" operator="lessOrEqual" value="119.5"/>
											<Node score="147.0">
												<SimplePredicate field="double(join)" operator="lessOrEqual" value="114.0"/>
											</Node>
										</Node>
									</Node>
									<Node score="155.0">
										<SimplePredicate field="double(join)" operator="lessOrEqual" value="110.5"/>
									</Node>
									<Node score="157.0">
										<SimplePredicate field="double(join)" operator="lessOrEqual" value="113.5"/>
									</Node>
								</Node>
								<Node score="323.0">
									<SimplePredicate field="double(join)" operator="lessOrEqual" value="216.5"/>
									<Node score="300.0">
										<SimplePredicate field="double(current)" operator="lessOrEqual" value="146.0"/>
										<Node score="287.0">
											<SimplePredicate field="double(join)" operator="lessOrEqual" value="203.0"/>
											<Node score="292.0">
												<SimplePredicate field="double(join)" operator="lessOrEqual" value="200.5"/>
												<Node score="301.0">
													<SimplePredicate field="double(current)" operator="lessOrEqual" value="139.0"/>
												</Node>
												<Node score="294.0">
													<SimplePredicate field="double(join)" operator="lessOrEqual" value="192.0"/>
												</Node>
											</Node>
										</Node>
										<Node score="299.0">
											<SimplePredicate field="double(current)" operator="lessOrEqual" value="124.5"/>
										</Node>
									</Node>
									<Node score="297.0">
										<SimplePredicate field="double(join)" operator="lessOrEqual" value="196.5"/>
									</Node>
									<Node score="312.0">
										<SimplePredicate field="double(current)" operator="lessOrEqual" value="157.5"/>
										<Node score="319.0">
											<SimplePredicate field="double(current)" operator="lessOrEqual" value="148.0"/>
										</Node>
										<Node score="311.0">
											<SimplePredicate field="double(join)" operator="lessOrEqual" value="204.0"/>
										</Node>
										<Node score="313.0">
											<SimplePredicate field="double(current)" operator="lessOrEqual" value="152.0"/>
										</Node>
									</Node>
								</Node>
								<Node score="346.0">
									<SimplePredicate field="double(current)" operator="lessOrEqual" value="140.5"/>
								</Node>
							</Node>
							<Node score="636.0">
								<SimplePredicate field="double(join)" operator="lessOrEqual" value="418.0"/>
								<Node score="605.0">
									<SimplePredicate field="double(current)" operator="lessOrEqual" value="312.5"/>
									<Node score="616.0">
										<SimplePredicate field="double(current)" operator="lessOrEqual" value="300.0"/>
										<Node score="618.0">
											<SimplePredicate field="double(cpu)" operator="lessOrEqual" value="24.50903034210205"/>
										</Node>
									</Node>
								</Node>
							</Node>
							<Node score="652.0">
								<SimplePredicate field="double(bw)" operator="lessOrEqual" value="0.8028576970100403"/>
								<Node score="654.0">
									<SimplePredicate field="double(cpu)" operator="lessOrEqual" value="24.55828285217285"/>
									<Node score="670.0">
										<SimplePredicate field="double(current)" operator="lessOrEqual" value="307.0"/>
									</Node>
									<Node score="661.0">
										<SimplePredicate field="double(join)" operator="lessOrEqual" value="428.5"/>
									</Node>
								</Node>
								<Node score="635.0">
									<SimplePredicate field="double(join)" operator="lessOrEqual" value="447.0"/>
									<Node score="647.0">
										<SimplePredicate field="double(join)" operator="lessOrEqual" value="434.0"/>
									</Node>
								</Node>
							</Node>
							<Node score="692.0">
								<SimplePredicate field="double(cpu)" operator="lessOrEqual" value="24.44088077545166"/>
							</Node>
						</Node>
						<Node score="2194.0">
							<SimplePredicate field="double(cpu)" operator="lessOrEqual" value="19.216941833496094"/>
							<Node score="1691.0">
								<SimplePredicate field="double(bw)" operator="lessOrEqual" value="10.854297161102295"/>
								<Node score="1586.0">
									<SimplePredicate field="double(bw)" operator="lessOrEqual" value="10.028132438659668"/>
									<Node score="1664.0">
										<SimplePredicate field="double(bw)" operator="lessOrEqual" value="9.981244087219238"/>
										<Node score="1596.0">
											<SimplePredicate field="double(bw)" operator="lessOrEqual" value="8.752420425415039"/>
											<Node score="1658.0">
												<SimplePredicate field="double(bw)" operator="lessOrEqual" value="8.202375411987305"/>
											</Node>
											<Node score="1640.0">
												<SimplePredicate field="double(cpu)" operator="lessOrEqual" value="18.054725646972656"/>
											</Node>
										</Node>
										<Node score="1795.0">
											<SimplePredicate field="double(current)" operator="lessOrEqual" value="1458.0"/>
											<Node score="1701.0">
												<SimplePredicate field="double(join)" operator="lessOrEqual" value="1067.5"/>
											</Node>
										</Node>
										<Node score="1681.0">
											<SimplePredicate field="double(current)" operator="lessOrEqual" value="1491.0"/>
											<Node score="1694.0">
												<SimplePredicate field="double(join)" operator="lessOrEqual" value="1064.5"/>
												<Node score="1705.0">
													<SimplePredicate field="double(join)" operator="lessOrEqual" value="1053.0"/>
													<Node score="1700.0">
														<SimplePredicate field="double(bw)" operator="lessOrEqual" value="8.953705310821533"/>
													</Node>
												</Node>
											</Node>
										</Node>
										<Node score="1753.0">
											<SimplePredicate field="double(current)" operator="lessOrEqual" value="1568.5"/>
											<Node score="1761.0">
												<SimplePredicate field="double(cpu)" operator="lessOrEqual" value="17.370341300964355"/>
											</Node>
										</Node>
									</Node>
								</Node>
								<Node score="1835.0">
									<SimplePredicate field="double(current)" operator="lessOrEqual" value="1714.0"/>
									<Node score="1728.0">
										<SimplePredicate field="double(current)" operator="lessOrEqual" value="1649.0"/>
										<Node score="1778.0">
											<SimplePredicate field="double(current)" operator="lessOrEqual" value="1605.0"/>
										</Node>
										<Node score="1710.0">
											<SimplePredicate field="double(join)" operator="lessOrEqual" value="1360.0"/>
										</Node>
									</Node>
									<Node score="1869.0">
										<SimplePredicate field="double(current)" operator="lessOrEqual" value="1661.0"/>
										<Node score="1876.0">
											<SimplePredicate field="double(join)" operator="lessOrEqual" value="1419.0"/>
										</Node>
									</Node>
									<Node score="1812.0">
										<SimplePredicate field="double(current)" operator="lessOrEqual" value="1690.5"/>
										<Node score="1815.0">
											<SimplePredicate field="double(current)" operator="lessOrEqual" value="1672.5"/>
										</Node>
									</Node>
									<Node score="1875.0">
										<SimplePredicate field="double(bw)" operator="lessOrEqual" value="10.560508728027344"/>
									</Node>
									<Node score="1848.0">
										<SimplePredicate field="double(cpu)" operator="lessOrEqual" value="16.016407012939453"/>
									</Node>
								</Node>
								<Node score="1730.0">
									<SimplePredicate field="double(join)" operator="lessOrEqual" value="2061.5"/>
									<Node score="1718.0">
										<SimplePredicate field="double(join)" operator="lessOrEqual" value="1858.0"/>
									</Node>
								</Node>
							</Node>
							<Node score="2038.0">
								<SimplePredicate field="double(current)" operator="lessOrEqual" value="1930.0"/>
								<Node score="1859.0">
									<SimplePredicate field="double(current)" operator="lessOrEqual" value="1856.5"/>
									<Node score="1870.0">
										<SimplePredicate field="double(cpu)" operator="lessOrEqual" value="14.855409622192383"/>
										<Node score="1677.0">
											<SimplePredicate field="double(bw)" operator="lessOrEqual" value="12.01427936553955"/>
										</Node>
									</Node>
									<Node score="2008.0">
										<SimplePredicate field="double(cpu)" operator="lessOrEqual" value="14.878945350646973"/>
									</Node>
									<Node score="1974.0">
										<SimplePredicate field="double(bw)" operator="lessOrEqual" value="11.8053617477417"/>
										<Node score="1843.0">
											<SimplePredicate field="double(bw)" operator="lessOrEqual" value="11.503475189208984"/>
											<Node score="1921.0">
												<SimplePredicate field="double(current)" operator="lessOrEqual" value="1707.5"/>
												<Node score="1916.0">
													<SimplePredicate field="double(cpu)" operator="lessOrEqual" value="15.885414123535156"/>
												</Node>
											</Node>
											<Node score="1890.0">
												<SimplePredicate field="double(cpu)" operator="lessOrEqual" value="15.666313648223877"/>
												<Node score="1905.0">
													<SimplePredicate field="double(bw)" operator="lessOrEqual" value="11.373729705810547"/>
													<Node score="1911.0">
														<SimplePredicate field="double(join)" operator="lessOrEqual" value="1400.0"/>
													</Node>
												</Node>
												<Node score="1888.0">
													<SimplePredicate field="double(cpu)" operator="lessOrEqual" value="15.375163555145264"/>
												</Node>
											</Node>
										</Node>
										<Node score="1960.0">
											<SimplePredicate field="double(cpu)" operator="lessOrEqual" value="15.141320705413818"/>
										</Node>
									</Node>
									<Node score="1854.0">
										<SimplePredicate field="double(join)" operator="lessOrEqual" value="1598.5"/>
									</Node>
								</Node>
								<Node score="1917.0">
									<SimplePredicate field="double(cpu)" operator="lessOrEqual" value="14.1823148727417"/>
									<Node score="1909.0">
										<SimplePredicate field="double(current)" operator="lessOrEqual" value="1910.5"/>
										<Node score="1872.0">
											<SimplePredicate field="double(join)" operator="lessOrEqual" value="2117.5"/>
											<Node score="1903.0">
												<SimplePredicate field="double(cpu)" operator="lessOrEqual" value="13.860907077789307"/>
											</Node>
										</Node>
									</Node>
									<Node score="1958.0">
										<SimplePredicate field="double(current)" operator="lessOrEqual" value="1917.5"/>
									</Node>
									<Node score="1936.0">
										<SimplePredicate field="double(current)" operator="lessOrEqual" value="1923.5"/>
									</Node>
								</Node>
								<Node score="2021.0">
									<SimplePredicate field="double(current)" operator="lessOrEqual" value="1912.0"/>
									<Node score="1915.0">
										<SimplePredicate field="double(cpu)" operator="lessOrEqual" value="14.472977638244629"/>
										<Node score="1929.0">
											<SimplePredicate field="double(cpu)" operator="lessOrEqual" value="14.404448986053467"/>
											<Node score="1941.0">
												<SimplePredicate field="double(cpu)" operator="lessOrEqual" value="14.285977840423584"/>
											</Node>
										</Node>
									</Node>
									<Node score="1955.0">
										<SimplePredicate field="double(bw)" operator="lessOrEqual" value="12.380812168121338"/>
										<Node score="1946.0">
											<SimplePredicate field="double(current)" operator="lessOrEqual" value="1867.5"/>
										</Node>
									</Node>
								</Node>
								<Node score="1987.0">
									<SimplePredicate field="double(cpu)" operator="lessOrEqual" value="14.300992965698242"/>
								</Node>
							</Node>
							<Node score="1969.0">
								<SimplePredicate field="double(current)" operator="lessOrEqual" value="2048.5"/>
								<Node score="2106.0">
									<SimplePredicate field="double(join)" operator="lessOrEqual" value="1728.0"/>
									<Node score="2039.0">
										<SimplePredicate field="double(bw)" operator="lessOrEqual" value="13.653858184814453"/>
										<Node score="2068.0">
											<SimplePredicate field="double(join)" operator="lessOrEqual" value="1419.5"/>
											<Node score="2076.0">
												<SimplePredicate field="double(cpu)" operator="lessOrEqual" value="13.799354076385498"/>
											</Node>
										</Node>
										<Node score="2058.0">
											<SimplePredicate field="double(cpu)" operator="lessOrEqual" value="13.589090824127197"/>
										</Node>
										<Node score="2040.0">
											<SimplePredicate field="double(join)" operator="lessOrEqual" value="1577.0"/>
										</Node>
									</Node>
								</Node>
								<Node score="2015.0">
									<SimplePredicate field="double(current)" operator="lessOrEqual" value="1960.0"/>
									<Node score="2029.0">
										<SimplePredicate field="double(join)" operator="lessOrEqual" value="1915.0"/>
									</Node>
									<Node score="2022.0">
										<SimplePredicate field="double(cpu)" operator="lessOrEqual" value="14.057461738586426"/>
										<Node score="2020.0">
											<SimplePredicate field="double(current)" operator="lessOrEqual" value="1944.5"/>
										</Node>
									</Node>
								</Node>
								<Node score="1918.0">
									<SimplePredicate field="double(join)" operator="lessOrEqual" value="1903.0"/>
									<Node score="1938.0">
										<SimplePredicate field="double(current)" operator="lessOrEqual" value="2006.5"/>
									</Node>
								</Node>
								<Node score="1970.0">
									<SimplePredicate field="double(time)" operator="lessOrEqual" value="10.5"/>
								</Node>
							</Node>
							<Node score="2142.0">
								<SimplePredicate field="double(bw)" operator="lessOrEqual" value="14.00082015991211"/>
								<Node score="2115.0">
									<SimplePredicate field="double(cpu)" operator="lessOrEqual" value="13.19510555267334"/>
								</Node>
								<Node score="2115.0">
									<SimplePredicate field="double(current)" operator="lessOrEqual" value="2067.0"/>
								</Node>
								<Node score="2134.0">
