<?xml version="1.0" encoding="UTF-8" standalone="yes"?>
<PMML xmlns="http://www.dmg.org/PMML-4_4" xmlns:data="http://jpmml.org/jpmml-model/InlineTable" version="4.4">
	<Header>
		<Application name="JPMML-SkLearn" version="1.6.35"/>
		<Timestamp>2022-04-04T16:10:04Z</Timestamp>
	</Header>
	<DataDictionary>
		<DataField name="# VNF Density future" optype="continuous" dataType="double"/>
		<DataField name="Time " optype="continuous" dataType="float"/>
		<DataField name="CPU edge average (1)" optype="continuous" dataType="float"/>
		<DataField name="CPU edge average (2)" optype="continuous" dataType="float"/>
		<DataField name="CPU server average" optype="continuous" dataType="float"/>
		<DataField name="BW edge (1)" optype="continuous" dataType="float"/>
		<DataField name="BW edge (1).1" optype="continuous" dataType="float"/>
		<DataField name="BW server (1)" optype="continuous" dataType="float"/>
		<DataField name="BW server (2)" optype="continuous" dataType="float"/>
		<DataField name="# edge device" optype="continuous" dataType="float"/>
		<DataField name="# links (1)" optype="continuous" dataType="float"/>
		<DataField name="# links (2)" optype="continuous" dataType="float"/>
		<DataField name="# VNF Density current" optype="continuous" dataType="float"/>
	</DataDictionary>
	<MiningModel functionName="regression" algorithmName="sklearn.ensemble._gb.GradientBoostingRegressor">
		<MiningSchema>
			<MiningField name="# VNF Density future" usageType="target"/>
			<MiningField name="CPU server average"/>
			<MiningField name="# VNF Density current"/>
			<MiningField name="BW server (2)"/>
			<MiningField name="CPU edge average (2)"/>
			<MiningField name="Time "/>
			<MiningField name="CPU edge average (1)"/>
			<MiningField name="BW edge (1)"/>
			<MiningField name="BW server (1)"/>
			<MiningField name="BW edge (1).1"/>
			<MiningField name="# edge device"/>
			<MiningField name="# links (1)"/>
			<MiningField name="# links (2)"/>
		</MiningSchema>
		<Targets>
			<Target field="# VNF Density future" rescaleConstant="77.0" rescaleFactor="0.1"/>
		</Targets>
		<LocalTransformations>
			<DerivedField name="double(CPU server average)" optype="continuous" dataType="double">
				<FieldRef field="CPU server average"/>
			</DerivedField>
			<DerivedField name="double(# VNF Density current)" optype="continuous" dataType="double">
				<FieldRef field="# VNF Density current"/>
			</DerivedField>
			<DerivedField name="double(BW server (2))" optype="continuous" dataType="double">
				<FieldRef field="BW server (2)"/>
			</DerivedField>
			<DerivedField name="double(CPU edge average (2))" optype="continuous" dataType="double">
				<FieldRef field="CPU edge average (2)"/>
			</DerivedField>
			<DerivedField name="double(Time )" optype="continuous" dataType="double">
				<FieldRef field="Time "/>
			</DerivedField>
			<DerivedField name="double(CPU edge average (1))" optype="continuous" dataType="double">
				<FieldRef field="CPU edge average (1)"/>
			</DerivedField>
			<DerivedField name="double(BW edge (1))" optype="continuous" dataType="double">
				<FieldRef field="BW edge (1)"/>
			</DerivedField>
			<DerivedField name="double(BW server (1))" optype="continuous" dataType="double">
				<FieldRef field="BW server (1)"/>
			</DerivedField>
			<DerivedField name="double(BW edge (1).1)" optype="continuous" dataType="double">
				<FieldRef field="BW edge (1).1"/>
			</DerivedField>
			<DerivedField name="double(# edge device)" optype="continuous" dataType="double">
				<FieldRef field="# edge device"/>
			</DerivedField>
			<DerivedField name="double(# links (1))" optype="continuous" dataType="double">
				<FieldRef field="# links (1)"/>
			</DerivedField>
			<DerivedField name="double(# links (2))" optype="continuous" dataType="double">
				<FieldRef field="# links (2)"/>
			</DerivedField>
		</LocalTransformations>
		<Segmentation multipleModelMethod="sum">
			<Segment id="1">
				<True/>
				<TreeModel functionName="regression" missingValueStrategy="nullPrediction" noTrueChildStrategy="returnLastPrediction">
					<MiningSchema>
						<MiningField name="double(CPU server average)"/>
						<MiningField name="double(# VNF Density current)"/>
						<MiningField name="double(BW server (2))"/>
						<MiningField name="double(CPU edge average (2))"/>
						<MiningField name="double(Time )"/>
						<MiningField name="double(CPU edge average (1))"/>
					</MiningSchema>
					<Node score="799.8362416107383">
						<True/>
						<Node score="132.3262599469496">
							<SimplePredicate field="double(CPU server average)" operator="lessOrEqual" value="22.191999435424805"/>
							<Node score="18.89855072463768">
								<SimplePredicate field="double(CPU server average)" operator="lessOrEqual" value="11.628000259399414"/>
								<Node score="-33.43298969072165">
									<SimplePredicate field="double(CPU server average)" operator="lessOrEqual" value="7.093000173568726"/>
									<Node score="-66.41684210526316">
										<SimplePredicate field="double(# VNF Density current)" operator="lessOrEqual" value="21.5"/>
										<Node score="-76.75830815709969">
											<SimplePredicate field="double(BW server (2))" operator="lessOrEqual" value="22.209500312805176"/>
										</Node>
									</Node>
									<Node score="-52.34146341463415">
										<SimplePredicate field="double(# VNF Density current)" operator="lessOrEqual" value="44.5"/>
									</Node>
								</Node>
								<Node score="2.0555555555555554">
									<SimplePredicate field="double(# VNF Density current)" operator="lessOrEqual" value="83.5"/>
									<Node score="-32.37293729372937">
										<SimplePredicate field="double(CPU edge average (2))" operator="lessOrEqual" value="46.5015983581543"/>
									</Node>
								</Node>
								<Node score="-3.2155172413793105">
									<SimplePredicate field="double(# VNF Density current)" operator="lessOrEqual" value="107.5"/>
								</Node>
							</Node>
							<Node score="59.21987951807229">
								<SimplePredicate field="double(CPU server average)" operator="lessOrEqual" value="17.00999927520752"/>
								<Node score="22.36378737541528">
									<SimplePredicate field="double(CPU server average)" operator="lessOrEqual" value="14.992000102996826"/>
									<Node score="80.49019607843137">
										<SimplePredicate field="double(Time )" operator="lessOrEqual" value="8.25"/>
									</Node>
								</Node>
								<Node score="115.3409090909091">
									<SimplePredicate field="double(Time )" operator="lessOrEqual" value="8.75"/>
								</Node>
							</Node>
							<Node score="239.0">
								<SimplePredicate field="double(Time )" operator="lessOrEqual" value="8.75"/>
								<Node score="179.83333333333334">
									<SimplePredicate field="double(CPU edge average (1))" operator="lessOrEqual" value="58.746665954589844"/>
								</Node>
							</Node>
							<Node score="91.05249343832021">
								<SimplePredicate field="double(CPU server average)" operator="lessOrEqual" value="19.406999588012695"/>
							</Node>
						</Node>
						<Node score="310.4193548387097">
							<SimplePredicate field="double(CPU server average)" operator="lessOrEqual" value="31.729000091552734"/>
							<Node score="216.69849246231155">
								<SimplePredicate field="double(CPU server average)" operator="lessOrEqual" value="25.95300006866455"/>
								<Node score="335.3">
									<SimplePredicate field="double(Time )" operator="lessOrEqual" value="8.75"/>
								</Node>
								<Node score="183.8109090909091">
									<SimplePredicate field="double(CPU server average)" operator="lessOrEqual" value="24.291000366210938"/>
								</Node>
							</Node>
							<Node score="301.3463687150838">
								<SimplePredicate field="double(CPU server average)" operator="lessOrEqual" value="29.881999969482422"/>
								<Node score="263.5470852017937">
									<SimplePredicate field="double(CPU edge average (1))" operator="lessOrEqual" value="60.95633316040039"/>
								</Node>
							</Node>
							<Node score="351.0508474576271">
								<SimplePredicate field="double(Time )" operator="lessOrEqual" value="16.75"/>
							</Node>
						</Node>
						<Node score="471.43548387096774">
							<SimplePredicate field="double(CPU server average)" operator="lessOrEqual" value="36.875999450683594"/>
							<Node score="417.65909090909093">
								<SimplePredicate field="double(CPU edge average (1))" operator="lessOrEqual" value="65.36333465576172"/>
								<Node score="372.18120805369125">
									<SimplePredicate field="double(CPU server average)" operator="lessOrEqual" value="35.21900177001953"/>
								</Node>
							</Node>
							<Node score="367.7317073170732">
								<SimplePredicate field="double(Time )" operator="lessOrEqual" value="10.25"/>
							</Node>
						</Node>
						<Node score="459.3333333333333">
							<SimplePredicate field="double(CPU server average)" operator="lessOrEqual" value="39.51599884033203"/>
							<Node score="543.0138888888889">
								<SimplePredicate field="double(Time )" operator="lessOrEqual" value="16.75"/>
							</Node>
						</Node>
						<Node score="527.7142857142857">
							<SimplePredicate field="double(CPU server average)" operator="lessOrEqual" value="40.40999984741211"/>
						</Node>
					</Node>
				</TreeModel>
			</Segment>
			<Segment id="2">
				<True/>
				<TreeModel functionName="regression" missingValueStrategy="nullPrediction" noTrueChildStrategy="returnLastPrediction">
					<MiningSchema>
						<MiningField name="double(CPU server average)"/>
						<MiningField name="double(# VNF Density current)"/>
						<MiningField name="double(CPU edge average (2))"/>
						<MiningField name="double(Time )"/>
						<MiningField name="double(CPU edge average (1))"/>
						<MiningField name="double(BW edge (1))"/>
					</MiningSchema>
					<Node score="730.4691809263169">
						<True/>
						<Node score="122.41753902180669">
							<SimplePredicate field="double(CPU server average)" operator="lessOrEqual" value="22.191999435424805"/>
							<Node score="24.9677981607203">
								<SimplePredicate field="double(CPU server average)" operator="lessOrEqual" value="11.97700023651123"/>
								<Node score="-31.07447209874493">
									<SimplePredicate field="double(CPU server average)" operator="lessOrEqual" value="7.296999931335449"/>
									<Node score="-60.00817786963548">
										<SimplePredicate field="double(# VNF Density current)" operator="lessOrEqual" value="20.5"/>
										<Node score="-69.15874676764787">
											<SimplePredicate field="double(BW edge (1))" operator="lessOrEqual" value="0.3532000035047531"/>
										</Node>
									</Node>
									<Node score="-48.462375324522114">
										<SimplePredicate field="double(# VNF Density current)" operator="lessOrEqual" value="39.5"/>
									</Node>
								</Node>
								<Node score="20.84372857175198">
									<SimplePredicate field="double(# VNF Density current)" operator="lessOrEqual" value="91.5"/>
									<Node score="-24.52034205428762">
										<SimplePredicate field="double(CPU edge average (2))" operator="lessOrEqual" value="48.3975887298584"/>
									</Node>
								</Node>
								<Node score="4.171987591448972">
									<SimplePredicate field="double(# VNF Density current)" operator="lessOrEqual" value="118.5"/>
								</Node>
							</Node>
							<Node score="57.32267952587298">
								<SimplePredicate field="double(CPU server average)" operator="lessOrEqual" value="17.95800018310547"/>
								<Node score="20.831582427507016">
									<SimplePredicate field="double(CPU server average)" operator="lessOrEqual" value="14.992000102996826"/>
									<Node score="66.8760367402775">
										<SimplePredicate field="double(Time )" operator="lessOrEqual" value="8.75"/>
									</Node>
								</Node>
								<Node score="114.01234567901234">
									<SimplePredicate field="double(Time )" operator="lessOrEqual" value="8.75"/>
								</Node>
							</Node>
							<Node score="215.1">
								<SimplePredicate field="double(Time )" operator="lessOrEqual" value="8.75"/>
								<Node score="163.31666666666666">
									<SimplePredicate field="double(CPU edge average (1))" operator="lessOrEqual" value="58.746665954589844"/>
								</Node>
							</Node>
							<Node score="93.60279480565593">
								<SimplePredicate field="double(CPU server average)" operator="lessOrEqual" value="19.937000274658203"/>
							</Node>
						</Node>
						<Node score="279.3774193548387">
							<SimplePredicate field="double(CPU server average)" operator="lessOrEqual" value="31.72700023651123"/>
							<Node score="209.35229443127935">
								<SimplePredicate field="double(CPU server average)" operator="lessOrEqual" value="26.166000366210938"/>
								<Node score="301.74081816543526">
									<SimplePredicate field="double(Time )" operator="lessOrEqual" value="8.75"/>
								</Node>
								<Node score="170.97689233569423">
									<SimplePredicate field="double(CPU server average)" operator="lessOrEqual" value="25.206000328063965"/>
								</Node>
							</Node>
							<Node score="274.19470444585687">
								<SimplePredicate field="double(CPU server average)" operator="lessOrEqual" value="29.881999969482422"/>
								<Node score="238.03913204021566">
									<SimplePredicate field="double(CPU edge average (1))" operator="lessOrEqual" value="61.0369987487793"/>
								</Node>
							</Node>
							<Node score="315.78284628872">
								<SimplePredicate field="double(Time )" operator="lessOrEqual" value="16.75"/>
							</Node>
						</Node>
						<Node score="349.18073741856756">
							<SimplePredicate field="double(CPU server average)" operator="lessOrEqual" value="35.439998626708984"/>
							<Node score="389.46485093870257">
								<SimplePredicate field="double(Time )" operator="lessOrEqual" value="16.75"/>
								<Node score="325.2581710326755">
									<SimplePredicate field="double(Time )" operator="lessOrEqual" value="10.25"/>
								</Node>
							</Node>
							<Node score="303.21194803268304">
								<SimplePredicate field="double(CPU server average)" operator="lessOrEqual" value="33.6609992980957"/>
							</Node>
						</Node>
						<Node score="388.83865758604725">
							<SimplePredicate field="double(CPU server average)" operator="lessOrEqual" value="38.795000076293945"/>
							<Node score="469.54158676114554">
								<SimplePredicate field="double(Time )" operator="lessOrEqual" value="16.75"/>
							</Node>
						</Node>
						<Node score="480.27570989133903">
							<SimplePredicate field="double(CPU server average)" operator="lessOrEqual" value="41.15999984741211"/>
						</Node>
					</Node>
				</TreeModel>
			</Segment>
			<Segment id="3">
				<True/>
				<TreeModel functionName="regression" missingValueStrategy="nullPrediction" noTrueChildStrategy="returnLastPrediction">
					<MiningSchema>
						<MiningField name="double(CPU server average)"/>
						<MiningField name="double(# VNF Density current)"/>
						<MiningField name="double(CPU edge average (2))"/>
						<MiningField name="double(Time )"/>
						<MiningField name="double(CPU edge average (1))"/>
						<MiningField name="double(BW edge (1))"/>
						<MiningField name="double(BW server (1))"/>
					</MiningSchema>
					<Node score="682.2940076796604">
						<True/>
						<Node score="106.77778464451342">
							<SimplePredicate field="double(CPU server average)" operator="lessOrEqual" value="22.191999435424805"/>
							<Node score="8.883256292158704">
								<SimplePredicate field="double(CPU server average)" operator="lessOrEqual" value="11.430999755859375"/>
								<Node score="-17.171384386430425">
									<SimplePredicate field="double(BW edge (1))" operator="lessOrEqual" value="1.6051499843597412"/>
									<Node score="-55.018563067338185">
										<SimplePredicate field="double(CPU edge average (2))" operator="lessOrEqual" value="40.50172233581543"/>
										<Node score="-62.33144809066644">
											<SimplePredicate field="double(BW server (1))" operator="lessOrEqual" value="30.800000190734863"/>
										</Node>
									</Node>
									<Node score="-37.18032739627425">
										<SimplePredicate field="double(CPU server average)" operator="lessOrEqual" value="8.455999851226807"/>
									</Node>
								</Node>
								<Node score="-17.20771605099495">
									<SimplePredicate field="double(CPU server average)" operator="lessOrEqual" value="8.627000331878662"/>
									<Node score="-40.33286835109903">
										<SimplePredicate field="double(# VNF Density current)" operator="lessOrEqual" value="53.5"/>
									</Node>
								</Node>
								<Node score="-15.388899735972451">
									<SimplePredicate field="double(# VNF Density current)" operator="lessOrEqual" value="93.5"/>
								</Node>
							</Node>
							<Node score="40.39771731904563">
								<SimplePredicate field="double(CPU server average)" operator="lessOrEqual" value="16.74400043487549"/>
								<Node score="9.571491308079874">
									<SimplePredicate field="double(CPU server average)" operator="lessOrEqual" value="13.79699993133545"/>
									<Node score="53.707777801071295">
										<SimplePredicate field="double(Time )" operator="lessOrEqual" value="8.25"/>
									</Node>
								</Node>
								<Node score="112.83437195751517">
									<SimplePredicate field="double(Time )" operator="lessOrEqual" value="8.25"/>
								</Node>
							</Node>
							<Node score="72.04974684490924">
								<SimplePredicate field="double(CPU server average)" operator="lessOrEqual" value="19.33199977874756"/>
								<Node score="136.25525645342313">
									<SimplePredicate field="double(Time )" operator="lessOrEqual" value="8.75"/>
								</Node>
							</Node>
							<Node score="189.09279999999998">
								<SimplePredicate field="double(Time )" operator="lessOrEqual" value="8.75"/>
							</Node>
						</Node>
						<Node score="270.98206741474183">
							<SimplePredicate field="double(CPU server average)" operator="lessOrEqual" value="31.551000595092773"/>
							<Node score="176.1375306684962">
								<SimplePredicate field="double(CPU server average)" operator="lessOrEqual" value="25.95300006866455"/>
								<Node score="271.5959181834565">
									<SimplePredicate field="double(Time )" operator="lessOrEqual" value="8.75"/>
								</Node>
								<Node score="148.33212894824874">
									<SimplePredicate field="double(CPU server average)" operator="lessOrEqual" value="24.291000366210938"/>
								</Node>
							</Node>
							<Node score="191.2921789964332">
								<SimplePredicate field="double(CPU server average)" operator="lessOrEqual" value="28.265999794006348"/>
								<Node score="222.93717634231166">
									<SimplePredicate field="double(Time )" operator="lessOrEqual" value="16.75"/>
								</Node>
							</Node>
							<Node score="239.26605607920231">
								<SimplePredicate field="double(CPU edge average (1))" operator="lessOrEqual" value="61.41633224487305"/>
							</Node>
						</Node>
						<Node score="377.42244706791035">
							<SimplePredicate field="double(CPU server average)" operator="lessOrEqual" value="35.965999603271484"/>
							<Node score="319.14416678102407">
								<SimplePredicate field="double(CPU edge average (1))" operator="lessOrEqual" value="65.36333465576172"/>
								<Node score="290.40588664123334">
									<SimplePredicate field="double(CPU server average)" operator="lessOrEqual" value="33.555999755859375"/>
								</Node>
							</Node>
							<Node score="289.0765355037196">
								<SimplePredicate field="double(Time )" operator="lessOrEqual" value="10.25"/>
							</Node>
						</Node>
						<Node score="356.3421330333107">
							<SimplePredicate field="double(CPU server average)" operator="lessOrEqual" value="39.13800048828125"/>
							<Node score="423.7480636243505">
								<SimplePredicate field="double(Time )" operator="lessOrEqual" value="16.75"/>
							</Node>
						</Node>
						<Node score="440.8141919152798">
							<SimplePredicate field="double(CPU server average)" operator="lessOrEqual" value="42.99100112915039"/>
						</Node>
					</Node>
				</TreeModel>
			</Segment>
			<Segment id="4">
				<True/>
				<TreeModel functionName="regression" missingValueStrategy="nullPrediction" noTrueChildStrategy="returnLastPrediction">
					<MiningSchema>
						<MiningField name="double(CPU server average)"/>
						<MiningField name="double(# VNF Density current)"/>
						<MiningField name="double(BW server (2))"/>
						<MiningField name="double(CPU edge average (2))"/>
						<MiningField name="double(Time )"/>
						<MiningField name="double(CPU edge average (1))"/>
						<MiningField name="double(BW edge (1))"/>
					</MiningSchema>
					<Node score="639.0074263990009">
						<True/>
						<Node score="107.42180613571445">
							<SimplePredicate field="double(CPU server average)" operator="lessOrEqual" value="22.187000274658203"/>
							<Node score="-12.061544161426557">
								<SimplePredicate field="double(CPU server average)" operator="lessOrEqual" value="11.712999820709229"/>
								<Node score="-16.46686948427524">
									<SimplePredicate field="double(BW edge (1))" operator="lessOrEqual" value="1.607550024986267"/>
									<Node score="-49.18703047142233">
										<SimplePredicate field="double(CPU edge average (2))" operator="lessOrEqual" value="40.50172233581543"/>
										<Node score="-56.03850577163742">
											<SimplePredicate field="double(BW server (2))" operator="lessOrEqual" value="21.19499969482422"/>
										</Node>
									</Node>
									<Node score="-33.46230674179526">
										<SimplePredicate field="double(CPU edge average (1))" operator="lessOrEqual" value="33.11666679382324"/>
									</Node>
								</Node>
								<Node score="-17.48796674024649">
									<SimplePredicate field="double(CPU server average)" operator="lessOrEqual" value="8.627000331878662"/>
									<Node score="-37.22230417087147">
										<SimplePredicate field="double(# VNF Density current)" operator="lessOrEqual" value="50.5"/>
									</Node>
								</Node>
								<Node score="15.982418937718254">
									<SimplePredicate field="double(Time )" operator="lessOrEqual" value="8.25"/>
								</Node>
							</Node>
							<Node score="47.51186171980109">
								<SimplePredicate field="double(CPU server average)" operator="lessOrEqual" value="17.65499973297119"/>
								<Node score="16.84427693237036">
									<SimplePredicate field="double(CPU server average)" operator="lessOrEqual" value="15.34000015258789"/>
									<Node score="53.71240174116632">
										<SimplePredicate field="double(Time )" operator="lessOrEqual" value="8.75"/>
									</Node>
								</Node>
								<Node score="94.54299578735386">
									<SimplePredicate field="double(Time )" operator="lessOrEqual" value="8.75"/>
								</Node>
							</Node>
							<Node score="174.94490771773286">
								<SimplePredicate field="double(Time )" operator="lessOrEqual" value="8.75"/>
								<Node score="136.02270797231574">
									<SimplePredicate field="double(CPU edge average (1))" operator="lessOrEqual" value="58.746665954589844"/>
								</Node>
							</Node>
							<Node score="78.30148130102684">
								<SimplePredicate field="double(CPU server average)" operator="lessOrEqual" value="20.82599925994873"/>
							</Node>
						</Node>
						<Node score="205.00927865503598">
							<SimplePredicate field="double(CPU server average)" operator="lessOrEqual" value="31.069000244140625"/>
							<Node score="151.47837426929385">
								<SimplePredicate field="double(CPU server average)" operator="lessOrEqual" value="25.749000549316406"/>
								<Node score="244.74346922225368">
									<SimplePredicate field="double(Time )" operator="lessOrEqual" value="8.75"/>
								</Node>
								<Node score="129.49184451138427">
									<SimplePredicate field="double(CPU server average)" operator="lessOrEqual" value="23.682000160217285"/>
								</Node>
							</Node>
							<Node score="204.6802250970727">
								<SimplePredicate field="double(CPU server average)" operator="lessOrEqual" value="28.125"/>
								<Node score="178.53139137283256">
									<SimplePredicate field="double(CPU edge average (1))" operator="lessOrEqual" value="60.007667541503906"/>
								</Node>
							</Node>
							<Node score="235.6620838459267">
								<SimplePredicate field="double(Time )" operator="lessOrEqual" value="17.75"/>
							</Node>
						</Node>
						<Node score="282.2774130901109">
							<SimplePredicate field="double(CPU server average)" operator="lessOrEqual" value="35.430999755859375"/>
							<Node score="315.88696838150275">
								<SimplePredicate field="double(Time )" operator="lessOrEqual" value="16.25"/>
								<Node score="260.81035492944767">
									<SimplePredicate field="double(Time )" operator="lessOrEqual" value="10.25"/>
								</Node>
							</Node>
							<Node score="245.3048682208773">
								<SimplePredicate field="double(CPU server average)" operator="lessOrEqual" value="33.74300003051758"/>
							</Node>
						</Node>
						<Node score="296.1772055442461">
							<SimplePredicate field="double(CPU server average)" operator="lessOrEqual" value="36.875999450683594"/>
							<Node score="368.56326724753916">
								<SimplePredicate field="double(Time )" operator="lessOrEqual" value="16.75"/>
							</Node>
						</Node>
						<Node score="386.98052803180576">
							<SimplePredicate field="double(CPU server average)" operator="lessOrEqual" value="44.18599891662598"/>
						</Node>
					</Node>
				</TreeModel>
			</Segment>
			<Segment id="5">
				<True/>
				<TreeModel functionName="regression" missingValueStrategy="nullPrediction" noTrueChildStrategy="returnLastPrediction">
					<MiningSchema>
						<MiningField name="double(CPU server average)"/>
						<MiningField name="double(# VNF Density current)"/>
						<MiningField name="double(BW server (2))"/>
						<MiningField name="double(CPU edge average (2))"/>
						<MiningField name="double(Time )"/>
						<MiningField name="double(CPU edge average (1))"/>
						<MiningField name="double(BW edge (1))"/>
					</MiningSchema>
					<Node score="558.6676509006868">
						<True/>
						<Node score="85.01451535500071">
							<SimplePredicate field="double(CPU server average)" operator="lessOrEqual" value="22.005000114440918"/>
							<Node score="19.39352418509446">
								<SimplePredicate field="double(CPU server average)" operator="lessOrEqual" value="11.97700023651123"/>
								<Node score="-17.35235986320034">
									<SimplePredicate field="double(CPU server average)" operator="lessOrEqual" value="7.296999931335449"/>
									<Node score="-42.880968599578374">
										<SimplePredicate field="double(# VNF Density current)" operator="lessOrEqual" value="26.5"/>
										<Node score="-50.36135574251499">
											<SimplePredicate field="double(BW server (2))" operator="lessOrEqual" value="22.877142906188965"/>
										</Node>
									</Node>
									<Node score="-30.90658157826134">
										<SimplePredicate field="double(BW edge (1))" operator="lessOrEqual" value="3.6301666498184204"/>
									</Node>
								</Node>
								<Node score="16.27055955003302">
									<SimplePredicate field="double(# VNF Density current)" operator="lessOrEqual" value="85.5"/>
									<Node score="-19.639516264044456">
										<SimplePredicate field="double(CPU edge average (2))" operator="lessOrEqual" value="48.3975887298584"/>
									</Node>
								</Node>
								<Node score="0.8232178682934854">
									<SimplePredicate field="double(# VNF Density current)" operator="lessOrEqual" value="113.5"/>
								</Node>
							</Node>
							<Node score="41.06559144881608">
								<SimplePredicate field="double(CPU server average)" operator="lessOrEqual" value="17.95800018310547"/>
								<Node score="14.526937280041555">
									<SimplePredicate field="double(CPU server average)" operator="lessOrEqual" value="14.808000087738037"/>
									<Node score="60.5742818158334">
										<SimplePredicate field="double(Time )" operator="lessOrEqual" value="8.25"/>
									</Node>
								</Node>
								<Node score="82.92622195008649">
									<SimplePredicate field="double(Time )" operator="lessOrEqual" value="8.75"/>
								</Node>
							</Node>
							<Node score="157.45041694595957">
								<SimplePredicate field="double(Time )" operator="lessOrEqual" value="8.75"/>
								<Node score="118.17207725102881">
									<SimplePredicate field="double(CPU edge average (1))" operator="lessOrEqual" value="58.746665954589844"/>
								</Node>
							</Node>
							<Node score="60.405583679842465">
								<SimplePredicate field="double(Time )" operator="lessOrEqual" value="11.25"/>
							</Node>
						</Node>
						<Node score="213.31751759161173">
							<SimplePredicate field="double(CPU server average)" operator="lessOrEqual" value="31.069000244140625"/>
							<Node score="136.02227189617727">
								<SimplePredicate field="double(CPU server average)" operator="lessOrEqual" value="25.73300075531006"/>
								<Node score="220.2691223000283">
									<SimplePredicate field="double(Time )" operator="lessOrEqual" value="8.75"/>
								</Node>
								<Node score="116.24897468218404">
									<SimplePredicate field="double(CPU server average)" operator="lessOrEqual" value="23.682000160217285"/>
								</Node>
							</Node>
							<Node score="154.00489408536467">
								<SimplePredicate field="double(CPU server average)" operator="lessOrEqual" value="28.586000442504883"/>
								<Node score="180.5037230281003">
									<SimplePredicate field="double(Time )" operator="lessOrEqual" value="16.75"/>
								</Node>
							</Node>
							<Node score="182.39145837961075">
								<SimplePredicate field="double(Time )" operator="lessOrEqual" value="10.25"/>
							</Node>
						</Node>
						<Node score="253.04648647634826">
							<SimplePredicate field="double(CPU server average)" operator="lessOrEqual" value="35.439998626708984"/>
							<Node score="217.6407872591155">
								<SimplePredicate field="double(CPU server average)" operator="lessOrEqual" value="33.63699913024902"/>
								<Node score="256.95578542693596">
									<SimplePredicate field="double(Time )" operator="lessOrEqual" value="16.75"/>
								</Node>
							</Node>
							<Node score="293.95958952451025">
								<SimplePredicate field="double(# VNF Density current)" operator="lessOrEqual" value="494.5"/>
							</Node>
						</Node>
						<Node score="280.1676967278821">
							<SimplePredicate field="double(CPU server average)" operator="lessOrEqual" value="38.795000076293945"/>
							<Node score="343.75398856520684">
								<SimplePredicate field="double(Time )" operator="lessOrEqual" value="16.75"/>
							</Node>
						</Node>
						<Node score="331.18215564859383">
							<SimplePredicate field="double(CPU edge average (1))" operator="lessOrEqual" value="69.23400115966797"/>
						</Node>
					</Node>
				</TreeModel>
			</Segment>
			<Segment id="6">
				<True/>
				<TreeModel functionName="regression" missingValueStrategy="nullPrediction" noTrueChildStrategy="returnLastPrediction">
					<MiningSchema>
						<MiningField name="double(CPU server average)"/>
						<MiningField name="double(# VNF Density current)"/>
						<MiningField name="double(CPU edge average (2))"/>
						<MiningField name="double(Time )"/>
					</MiningSchema>
					<Node score="553.8270418050566">
						<True/>
						<Node score="77.37482075662074">
							<SimplePredicate field="double(CPU server average)" operator="lessOrEqual" value="22.005000114440918"/>
							<Node score="26.28208361837656">
								<SimplePredicate field="double(CPU server average)" operator="lessOrEqual" value="12.461000442504883"/>
								<Node score="-11.381866236659498">
									<SimplePredicate field="double(CPU server average)" operator="lessOrEqual" value="7.8399999141693115"/>
									<Node score="-38.24120701445422">
										<SimplePredicate field="double(# VNF Density current)" operator="lessOrEqual" value="28.5"/>
										<Node score="-45.39378033970761">
											<SimplePredicate field="double(CPU server average)" operator="lessOrEqual" value="3.097999930381775"/>
										</Node>
									</Node>
									<Node score="-26.294953839194807">
										<SimplePredicate field="double(# VNF Density current)" operator="lessOrEqual" value="59.5"/>
									</Node>
								</Node>
								<Node score="25.935147753898004">
									<SimplePredicate field="double(# VNF Density current)" operator="lessOrEqual" value="95.5"/>
									<Node score="-13.981909774782359">
										<SimplePredicate field="double(CPU edge average (2))" operator="lessOrEqual" value="50.24292182922363"/>
									</Node>
								</Node>
								<Node score="7.163989079563724">
									<SimplePredicate field="double(# VNF Density current)" operator="lessOrEqual" value="130.5"/>
								</Node>
							</Node>
							<Node score="39.838236349863216">
								<SimplePredicate field="double(CPU server average)" operator="lessOrEqual" value="18.16699981689453"/>
								<Node score="16.21754466985014">
									<SimplePredicate field="double(CPU server average)" operator="lessOrEqual" value="15.34000015258789"/>
									<Node score="53.56271667356599">
										<SimplePredicate field="double(Time )" operator="lessOrEqual" value="8.75"/>
									</Node>
								</Node>
								<Node score="80.65294713779349">
									<SimplePredicate field="double(Time )" operator="lessOrEqual" value="8.75"/>
								</Node>
							</Node>
							<Node score="124.76118168108275">
								<SimplePredicate field="double(Time )" operator="lessOrEqual" value="8.75"/>
							</Node>
							<Node score="53.5671624077776">
								<SimplePredicate field="double(Time )" operator="lessOrEqual" value="10.75"/>
							</Node>
						</Node>
						<Node score="166.2987780440243">
							<SimplePredicate field="double(CPU server average)" operator="lessOrEqual" value="31.069000244140625"/>
							<Node score="128.50137392306237">
								<SimplePredicate field="double(CPU server average)" operator="lessOrEqual" value="25.95300006866455"/>
								<Node score="198.46725816886334">
									<SimplePredicate field="double(Time )" operator="lessOrEqual" value="8.75"/>
								</Node>
								<Node score="107.36456340055038">
									<SimplePredicate field="double(CPU server average)" operator="lessOrEqual" value="24.291000366210938"/>
								</Node>
							</Node>
							<Node score="138.02738142852135">
								<SimplePredicate field="double(CPU server average)" operator="lessOrEqual" value="28.125"/>
								<Node score="161.3275355248728">
									<SimplePredicate field="double(Time )" operator="lessOrEqual" value="16.75"/>
								</Node>
							</Node>
							<Node score="193.63185580358373">
								<SimplePredicate field="double(Time )" operator="lessOrEqual" value="16.75"/>
							</Node>
						</Node>
						<Node score="263.3846955731973">
							<SimplePredicate field="double(CPU server average)" operator="lessOrEqual" value="36.48899841308594"/>
							<Node score="195.87670853320398">
								<SimplePredicate field="double(CPU server average)" operator="lessOrEqual" value="33.63699913024902"/>
								<Node score="231.26020688424236">
									<SimplePredicate field="double(Time )" operator="lessOrEqual" value="16.75"/>
								</Node>
							</Node>
							<Node score="225.96991723865386">
								<SimplePredicate field="double(Time )" operator="lessOrEqual" value="10.25"/>
							</Node>
						</Node>
						<Node score="268.8858322907119">
							<SimplePredicate field="double(CPU server average)" operator="lessOrEqual" value="45.57099914550781"/>
							<Node score="331.470602549945">
								<SimplePredicate field="double(Time )" operator="lessOrEqual" value="17.75"/>
							</Node>
						</Node>
						<Node score="340.6073011140806">
							<SimplePredicate field="double(CPU server average)" operator="lessOrEqual" value="47.07299995422363"/>
						</Node>
					</Node>
				</TreeModel>
			</Segment>
			<Segment id="7">
				<True/>
				<TreeModel functionName="regression" missingValueStrategy="nullPrediction" noTrueChildStrategy="returnLastPrediction">
					<MiningSchema>
						<MiningField name="double(CPU server average)"/>
						<MiningField name="double(# VNF Density current)"/>
						<MiningField name="double(CPU edge average (2))"/>
						<MiningField name="double(Time )"/>
						<MiningField name="double(CPU edge average (1))"/>
						<MiningField name="double(BW edge (1))"/>
						<MiningField name="double(BW edge (1).1)"/>
					</MiningSchema>
					<Node score="499.71082792417076">
						<True/>
						<Node score="70.92093398987184">
							<SimplePredicate field="double(CPU server average)" operator="lessOrEqual" value="22.005000114440918"/>
							<Node score="10.548210883688267">
								<SimplePredicate field="double(CPU server average)" operator="lessOrEqual" value="11.044999599456787"/>
								<Node score="-39.141874957388495">
									<SimplePredicate field="double(BW edge (1))" operator="lessOrEqual" value="1.3822333216667175"/>
									<Node score="-35.76547710777132">
										<SimplePredicate field="double(CPU edge average (2))" operator="lessOrEqual" value="33.20241928100586"/>
										<Node score="-40.84873731086182">
											<SimplePredicate field="double(# VNF Density current)" operator="lessOrEqual" value="6.5"/>
										</Node>
									</Node>
									<Node score="-29.091281104614577">
										<SimplePredicate field="double(Time )" operator="lessOrEqual" value="8.25"/>
									</Node>
								</Node>
								<Node score="-24.48134232950317">
									<SimplePredicate field="double(# VNF Density current)" operator="lessOrEqual" value="71.5"/>
									<Node score="4.841712137721067">
										<SimplePredicate field="double(Time )" operator="lessOrEqual" value="8.25"/>
									</Node>
								</Node>
								<Node score="-1.9847841820761123">
									<SimplePredicate field="double(# VNF Density current)" operator="lessOrEqual" value="104.5"/>
								</Node>
							</Node>
							<Node score="56.21595168398976">
								<SimplePredicate field="double(CPU server average)" operator="lessOrEqual" value="16.217000007629395"/>
								<Node score="6.318880980547613">
									<SimplePredicate field="double(# VNF Density current)" operator="lessOrEqual" value="141.5"/>
									<Node score="39.675120550060484">
										<SimplePredicate field="double(Time )" operator="lessOrEqual" value="8.75"/>
									</Node>
								</Node>
								<Node score="33.63833072331989">
									<SimplePredicate field="double(BW edge (1).1)" operator="lessOrEqual" value="13.745627880096436"/>
								</Node>
							</Node>
							<Node score="44.76789314692263">
								<SimplePredicate field="double(CPU server average)" operator="lessOrEqual" value="19.33199977874756"/>
								<Node score="83.4009221008906">
									<SimplePredicate field="double(Time )" operator="lessOrEqual" value="8.75"/>
								</Node>
							</Node>
							<Node score="126.34468231209081">
								<SimplePredicate field="double(Time )" operator="lessOrEqual" value="8.75"/>
							</Node>
						</Node>
						<Node score="188.70254278189643">
							<SimplePredicate field="double(CPU server average)" operator="lessOrEqual" value="31.72700023651123"/>
							<Node score="124.33438243201053">
								<SimplePredicate field="double(CPU server average)" operator="lessOrEqual" value="26.166000366210938"/>
								<Node score="179.1084640603878">
									<SimplePredicate field="double(Time )" operator="lessOrEqual" value="8.75"/>
								</Node>
								<Node score="99.94645047284827">
									<SimplePredicate field="double(CPU server average)" operator="lessOrEqual" value="25.206000328063965"/>
								</Node>
							</Node>
							<Node score="155.50905718482488">
								<SimplePredicate field="double(CPU server average)" operator="lessOrEqual" value="30.07100009918213"/>
								<Node score="133.9354489524978">
									<SimplePredicate field="double(Time )" operator="lessOrEqual" value="10.75"/>
								</Node>
							</Node>
							<Node score="164.70227657654704">
								<SimplePredicate field="double(Time )" operator="lessOrEqual" value="10.75"/>
							</Node>
						</Node>
						<Node score="251.42688480320973">
							<SimplePredicate field="double(CPU server average)" operator="lessOrEqual" value="36.48899841308594"/>
							<Node score="174.74812973065514">
								<SimplePredicate field="double(Time )" operator="lessOrEqual" value="9.25"/>
							</Node>
							<Node score="198.62528426898155">
								<SimplePredicate field="double(CPU edge average (1))" operator="lessOrEqual" value="65.36333465576172"/>
							</Node>
						</Node>
						<Node score="280.1814974193605">
							<SimplePredicate field="double(CPU server average)" operator="lessOrEqual" value="45.57099914550781"/>
							<Node score="226.75048149900286">
								<SimplePredicate field="double(Time )" operator="lessOrEqual" value="11.25"/>
							</Node>
						</Node>
						<Node score="314.5928010932385">
							<SimplePredicate field="double(CPU server average)" operator="lessOrEqual" value="47.32699966430664"/>
						</Node>
					</Node>
				</TreeModel>
			</Segment>
			<Segment id="8">
				<True/>
				<TreeModel functionName="regression" missingValueStrategy="nullPrediction" noTrueChildStrategy="returnLastPrediction">
					<MiningSchema>
						<MiningField name="double(CPU server average)"/>
						<MiningField name="double(# VNF Density current)"/>
						<MiningField name="double(BW server (2))"/>
						<MiningField name="double(CPU edge average (2))"/>
						<MiningField name="double(Time )"/>
						<MiningField name="double(CPU edge average (1))"/>
						<MiningField name="double(BW edge (1))"/>
						<MiningField name="double(BW server (1))"/>
						<MiningField name="double(BW edge (1).1)"/>
						<MiningField name="double(# edge device)"/>
					</MiningSchema>
					<Node score="451.6873631282157">
						<True/>
						<Node score="74.20584546065957">
							<SimplePredicate field="double(CPU server average)" operator="lessOrEqual" value="22.324999809265137"/>
							<Node score="19.24800069005189">
								<SimplePredicate field="double(CPU server average)" operator="lessOrEqual" value="12.461000442504883"/>
								<Node score="-7.860387903244851">
									<SimplePredicate field="double(CPU server average)" operator="lessOrEqual" value="7.976000070571899"/>
									<Node score="-30.998129986593813">
										<SimplePredicate field="double(# VNF Density current)" operator="lessOrEqual" value="31.5"/>
										<Node score="-36.81203030120173">
											<SimplePredicate field="double(# edge device)" operator="lessOrEqual" value="128.5"/>
										</Node>
									</Node>
									<Node score="-20.368673970528416">
										<SimplePredicate field="double(# VNF Density current)" operator="lessOrEqual" value="59.5"/>
									</Node>
								</Node>
								<Node score="-14.14122033209767">
									<SimplePredicate field="double(# VNF Density current)" operator="lessOrEqual" value="90.5"/>
									<Node score="5.953236329201704">
										<SimplePredicate field="double(Time )" operator="lessOrEqual" value="8.25"/>
									</Node>
								</Node>
								<Node score="3.6810676979970185">
									<SimplePredicate field="double(# VNF Density current)" operator="lessOrEqual" value="123.5"/>
								</Node>
							</Node>
							<Node score="38.69398497396552">
								<SimplePredicate field="double(CPU server average)" operator="lessOrEqual" value="18.16699981689453"/>
								<Node score="98.80845289010941">
									<SimplePredicate field="double(Time )" operator="lessOrEqual" value="8.25"/>
									<Node score="53.54708495741751">
										<SimplePredicate field="double(BW server (1))" operator="lessOrEqual" value="380.378662109375"/>
									</Node>
								</Node>
								<Node score="13.794678426856123">
									<SimplePredicate field="double(BW edge (1))" operator="lessOrEqual" value="9.74560022354126"/>
								</Node>
							</Node>
							<Node score="112.61830130868475">
								<SimplePredicate field="double(Time )" operator="lessOrEqual" value="8.75"/>
								<Node score="85.99692363939324">
									<SimplePredicate field="double(BW edge (1))" operator="lessOrEqual" value="10.804916858673096"/>
								</Node>
							</Node>
							<Node score="52.68796017865655">
								<SimplePredicate field="double(CPU server average)" operator="lessOrEqual" value="20.834999084472656"/>
							</Node>
						</Node>
						<Node score="178.42716330469017">
							<SimplePredicate field="double(CPU server average)" operator="lessOrEqual" value="32.593000411987305"/>
							<Node score="117.51050061981923">
								<SimplePredicate field="double(CPU server average)" operator="lessOrEqual" value="28.00999927520752"/>
								<Node score="179.17188708689793">
									<SimplePredicate field="double(Time )" operator="lessOrEqual" value="8.75"/>
								</Node>
								<Node score="90.85064701703905">
									<SimplePredicate field="double(CPU server average)" operator="lessOrEqual" value="25.206000328063965"/>
								</Node>
							</Node>
							<Node score="137.1279296102408">
								<SimplePredicate field="double(Time )" operator="lessOrEqual" value="9.75"/>
								<Node score="103.29966196546596">
									<SimplePredicate field="double(BW server (2))" operator="lessOrEqual" value="420.3587188720703"/>
								</Node>
							</Node>
							<Node score="141.51055610173145">
								<SimplePredicate field="double(CPU edge average (1))" operator="lessOrEqual" value="61.96099853515625"/>
							</Node>
						</Node>
						<Node score="184.12907996151014">
							<SimplePredicate field="double(CPU server average)" operator="lessOrEqual" value="36.875999450683594"/>
							<Node score="230.6665875218186">
								<SimplePredicate field="double(Time )" operator="lessOrEqual" value="16.75"/>
								<Node score="173.4710258395594">
									<SimplePredicate field="double(Time )" operator="lessOrEqual" value="9.75"/>
								</Node>
							</Node>
							<Node score="153.66531344938718">
								<SimplePredicate field="double(BW edge (1).1)" operator="lessOrEqual" value="31.902798652648926"/>
							</Node>
						</Node>
						<Node score="253.9837941129703">
							<SimplePredicate field="double(CPU server average)" operator="lessOrEqual" value="45.57099914550781"/>
							<Node score="204.67551814724152">
								<SimplePredicate field="double(Time )" operator="lessOrEqual" value="11.25"/>
							</Node>
						</Node>
						<Node score="255.99640025419583">
							<SimplePredicate field="double(CPU edge average (2))" operator="lessOrEqual" value="70.04582214355469"/>
						</Node>
					</Node>
				</TreeModel>
			</Segment>
			<Segment id="9">
				<True/>
				<TreeModel functionName="regression" missingValueStrategy="nullPrediction" noTrueChildStrategy="returnLastPrediction">
					<MiningSchema>
						<MiningField name="double(CPU server average)"/>
						<MiningField name="double(# VNF Density current)"/>
						<MiningField name="double(CPU edge average (2))"/>
						<MiningField name="double(Time )"/>
						<MiningField name="double(CPU edge average (1))"/>
						<MiningField name="double(BW edge (1))"/>
					</MiningSchema>
					<Node score="411.26105356660986">
						<True/>
						<Node score="53.718353321548804">
							<SimplePredicate field="double(CPU server average)" operator="lessOrEqual" value="21.496000289916992"/>
							<Node score="2.6707386185375444">
								<SimplePredicate field="double(CPU server average)" operator="lessOrEqual" value="11.044999599456787"/>
								<Node score="-11.027565662757551">
									<SimplePredicate field="double(BW edge (1))" operator="lessOrEqual" value="1.607550024986267"/>
									<Node score="-29.583859881189877">
										<SimplePredicate field="double(CPU edge average (2))" operator="lessOrEqual" value="40.50172233581543"/>
										<Node score="-33.172128783631116">
											<SimplePredicate field="double(CPU server average)" operator="lessOrEqual" value="2.7109999656677246"/>
										</Node>
									</Node>
									<Node score="-20.12457372783743">
										<SimplePredicate field="double(CPU edge average (1))" operator="lessOrEqual" value="33.11666679382324"/>
									</Node>
								</Node>
								<Node score="-21.502587448530356">
									<SimplePredicate field="double(BW edge (1))" operator="lessOrEqual" value="4.149916648864746"/>
									<Node score="8.94102962059699">
										<SimplePredicate field="double(Time )" operator="lessOrEqual" value="8.25"/>
									</Node>
								</Node>
								<Node score="-7.785674977350152">
									<SimplePredicate field="double(# VNF Density current)" operator="lessOrEqual" value="75.5"/>
								</Node>
							</Node>
							<Node score="43.8077719534897">
								<SimplePredicate field="double(CPU server average)" operator="lessOrEqual" value="15.945000171661377"/>
								<Node score="5.156165419674807">
									<SimplePredicate field="double(# VNF Density current)" operator="lessOrEqual" value="151.5"/>
									<Node score="32.4213377777076">
										<SimplePredicate field="double(Time )" operator="lessOrEqual" value="8.75"/>
									</Node>
								</Node>
								<Node score="28.827228222171325">
									<SimplePredicate field="double(# VNF Density current)" operator="lessOrEqual" value="171.0"/>
								</Node>
							</Node>
							<Node score="33.247649391571876">
								<SimplePredicate field="double(CPU server average)" operator="lessOrEqual" value="18.890999794006348"/>
								<Node score="67.95659220438058">
									<SimplePredicate field="double(Time )" operator="lessOrEqual" value="8.75"/>
								</Node>
							</Node>
							<Node score="97.1021746503494">
								<SimplePredicate field="double(Time )" operator="lessOrEqual" value="8.75"/>
							</Node>
						</Node>
						<Node score="134.30289206222844">
							<SimplePredicate field="double(CPU server average)" operator="lessOrEqual" value="30.44600009918213"/>
							<Node score="85.25025451232416">
								<SimplePredicate field="double(CPU server average)" operator="lessOrEqual" value="25.213000297546387"/>
								<Node score="131.280162256163">
									<SimplePredicate field="double(Time )" operator="lessOrEqual" value="8.75"/>
								</Node>
								<Node score="55.889150907808485">
									<SimplePredicate field="double(Time )" operator="lessOrEqual" value="10.75"/>
								</Node>
							</Node>
							<Node score="92.671460916345">
								<SimplePredicate field="double(CPU server average)" operator="lessOrEqual" value="28.074000358581543"/>
								<Node score="116.09385744004244">
									<SimplePredicate field="double(Time )" operator="lessOrEqual" value="16.75"/>
								</Node>
							</Node>
							<Node score="111.53868323284726">
								<SimplePredicate field="double(Time )" operator="lessOrEqual" value="9.75"/>
							</Node>
						</Node>
						<Node score="146.13820646942966">
							<SimplePredicate field="double(CPU server average)" operator="lessOrEqual" value="35.33100128173828"/>
							<Node score="155.54399192728135">
								<SimplePredicate field="double(Time )" operator="lessOrEqual" value="9.75"/>
								<Node score="111.33763260982812">
									<SimplePredicate field="double(BW edge (1))" operator="lessOrEqual" value="27.3975830078125"/>
								</Node>
							</Node>
							<Node score="180.73168342781543">
								<SimplePredicate field="double(Time )" operator="lessOrEqual" value="16.75"/>
							</Node>
						</Node>
						<Node score="221.5371528577413">
							<SimplePredicate field="double(CPU server average)" operator="lessOrEqual" value="45.02400016784668"/>
							<Node score="159.84501572941352">
								<SimplePredicate field="double(Time )" operator="lessOrEqual" value="10.25"/>
							</Node>
						</Node>
						<Node score="253.39540221088694">
							<SimplePredicate field="double(CPU server average)" operator="lessOrEqual" value="48.07600021362305"/>
						</Node>
					</Node>
				</TreeModel>
			</Segment>
			<Segment id="10">
				<True/>
				<TreeModel functionName="regression" missingValueStrategy="nullPrediction" noTrueChildStrategy="returnLastPrediction">
					<MiningSchema>
						<MiningField name="double(CPU server average)"/>
						<MiningField name="double(# VNF Density current)"/>
						<MiningField name="double(CPU edge average (2))"/>
						<MiningField name="double(Time )"/>
						<MiningField name="double(CPU edge average (1))"/>
						<MiningField name="double(BW edge (1))"/>
						<MiningField name="double(BW edge (1).1)"/>
					</MiningSchema>
					<Node score="299.51701041252323">
						<True/>
						<Node score="46.33392504132217">
							<SimplePredicate field="double(CPU server average)" operator="lessOrEqual" value="20.861000061035156"/>
							<Node score="1.658807213922565">
								<SimplePredicate field="double(CPU server average)" operator="lessOrEqual" value="10.26200008392334"/>
								<Node score="-29.179929697499837">
									<SimplePredicate field="double(BW edge (1))" operator="lessOrEqual" value="1.3240666389465332"/>
									<Node score="-25.285083188805196">
										<SimplePredicate field="double(CPU edge average (2))" operator="lessOrEqual" value="34.78262519836426"/>
										<Node score="-29.73562100084256">
											<SimplePredicate field="double(BW edge (1))" operator="lessOrEqual" value="0.9541166424751282"/>
										</Node>
									</Node>
									<Node score="-20.38404375273254">
										<SimplePredicate field="double(Time )" operator="lessOrEqual" value="8.25"/>
									</Node>
								</Node>
								<Node score="-19.998473945987907">
									<SimplePredicate field="double(# VNF Density current)" operator="lessOrEqual" value="62.5"/>
									<Node score="-2.0540673855707503">
										<SimplePredicate field="double(Time )" operator="lessOrEqual" value="8.25"/>
									</Node>
								</Node>
								<Node score="-6.351558172292282">
									<SimplePredicate field="double(BW edge (1))" operator="lessOrEqual" value="5.371583461761475"/>
								</Node>
							</Node>
							<Node score="39.197548130275734">
								<SimplePredicate field="double(CPU server average)" operator="lessOrEqual" value="15.34000015258789"/>
								<Node score="-1.3983652090278818">
									<SimplePredicate field="double(BW edge (1))" operator="lessOrEqual" value="8.319666862487793"/>
									<Node score="24.35191362274113">
										<SimplePredicate field="double(Time )" operator="lessOrEqual" value="8.75"/>
									</Node>
								</Node>
								<Node score="18.599587041907434">
									<SimplePredicate field="double(# VNF Density current)" operator="lessOrEqual" value="164.0"/>
								</Node>
							</Node>
							<Node score="81.2641018121123">
								<SimplePredicate field="double(Time )" operator="lessOrEqual" value="8.75"/>
								<Node score="45.12720574743188">
									<SimplePredicate field="double(CPU server average)" operator="lessOrEqual" value="16.85300064086914"/>
								</Node>
							</Node>
							<Node score="25.342333421332157">
								<SimplePredicate field="double(BW edge (1))" operator="lessOrEqual" value="12.337816715240479"/>
							</Node>
						</Node>
						<Node score="135.10986216775765">
							<SimplePredicate field="double(CPU server average)" operator="lessOrEqual" value="30.08199977874756"/>
							<Node score="74.72093774946813">
								<SimplePredicate field="double(CPU server average)" operator="lessOrEqual" value="25.213000297546387"/>
								<Node score="112.30729192593236">
									<SimplePredicate field="double(Time )" operator="lessOrEqual" value="8.75"/>
								</Node>
								<Node score="48.413194651553724">
									<SimplePredicate field="double(Time )" operator="lessOrEqual" value="10.75"/>
								</Node>
							</Node>
							<Node score="103.86673635609947">
								<SimplePredicate field="double(CPU edge average (1))" operator="lessOrEqual" value="61.21933364868164"/>
								<Node score="88.0355913669799">
									<SimplePredicate field="double(BW edge (1).1)" operator="lessOrEqual" value="24.321516036987305"/>
								</Node>
							</Node>
							<Node score="101.32135780743842">
								<SimplePredicate field="double(Time )" operator="lessOrEqual" value="12.25"/>
							</Node>
						</Node>
						<Node score="127.56605370292714">
							<SimplePredicate field="double(CPU server average)" operator="lessOrEqual" value="34.96099853515625"/>
							<Node score="136.93767056297685">
								<SimplePredicate field="double(Time )" operator="lessOrEqual" value="9.75"/>
								<Node score="108.79670470853482">
									<SimplePredicate field="double(BW edge (1))" operator="lessOrEqual" value="27.3975830078125"/>
								</Node>
							</Node>
							<Node score="158.76646419904532">
								<SimplePredicate field="double(Time )" operator="lessOrEqual" value="16.75"/>
							</Node>
						</Node>
						<Node score="177.90757641515734">
							<SimplePredicate field="double(CPU edge average (1))" operator="lessOrEqual" value="67.33300018310547"/>
							<Node score="155.53102917233812">
								<SimplePredicate field="double(# VNF Density current)" operator="lessOrEqual" value="612.5"/>
							</Node>
						</Node>
						<Node score="145.05255465577218">
							<SimplePredicate field="double(Time )" operator="lessOrEqual" value="10.25"/>
						</Node>
					</Node>
				</TreeModel>
			</Segment>
			<Segment id="11">
				<True/>
				<TreeModel functionName="regression" missingValueStrategy="nullPrediction" noTrueChildStrategy="returnLastPrediction">
					<MiningSchema>
						<MiningField name="double(CPU server average)"/>
						<MiningField name="double(# VNF Density current)"/>
						<MiningField name="double(BW server (2))"/>
						<MiningField name="double(CPU edge average (2))"/>
						<MiningField name="double(Time )"/>
						<MiningField name="double(BW edge (1))"/>
					</MiningSchema>
					<Node score="245.92048483769224">
						<True/>
						<Node score="19.15004746071339">
							<SimplePredicate field="double(CPU server average)" operator="lessOrEqual" value="22.725000381469727"/>
							<Node score="23.56553884438864">
								<SimplePredicate field="double(CPU server average)" operator="lessOrEqual" value="13.476999759674072"/>
								<Node score="-21.486140627967842">
									<SimplePredicate field="double(BW edge (1))" operator="lessOrEqual" value="2.7732999324798584"/>
									<Node score="-21.158333328661833">
										<SimplePredicate field="double(CPU edge average (2))" operator="lessOrEqual" value="44.44181442260742"/>
										<Node score="-26.616831979105022">
											<SimplePredicate field="double(BW edge (1))" operator="lessOrEqual" value="0.8381166756153107"/>
										</Node>
									</Node>
									<Node score="2.804665461847275">
										<SimplePredicate field="double(Time )" operator="lessOrEqual" value="8.25"/>
									</Node>
								</Node>
								<Node score="-7.873057502439673">
									<SimplePredicate field="double(# VNF Density current)" operator="lessOrEqual" value="110.5"/>
									<Node score="25.83069400063026">
										<SimplePredicate field="double(Time )" operator="lessOrEqual" value="8.25"/>
									</Node>
								</Node>
								<Node score="9.245230564418687">
									<SimplePredicate field="double(# VNF Density current)" operator="lessOrEqual" value="139.5"/>
								</Node>
							</Node>
							<Node score="42.884790111947154">
								<SimplePredicate field="double(CPU server average)" operator="lessOrEqual" value="18.890999794006348"/>
								<Node score="66.91630755683805">
									<SimplePredicate field="double(Time )" operator="lessOrEqual" value="8.25"/>
								</Node>
								<Node score="18.187851321189424">
									<SimplePredicate field="double(# VNF Density current)" operator="lessOrEqual" value="188.5"/>
								</Node>
							</Node>
							<Node score="70.29488472344634">
								<SimplePredicate field="double(BW server (2))" operator="lessOrEqual" value="290.9053192138672"/>
								<Node score="49.205114873886686">
									<SimplePredicate field="double(CPU edge average (2))" operator="lessOrEqual" value="54.172746658325195"/>
								</Node>
							</Node>
							<Node score="45.633309763678895">
								<SimplePredicate field="double(Time )" operator="lessOrEqual" value="17.75"/>
							</Node>
						</Node>
						<Node score="95.22629881052728">
							<SimplePredicate field="double(CPU server average)" operator="lessOrEqual" value="32.593000411987305"/>
							<Node score="81.34467529272004">
								<SimplePredicate field="double(CPU server average)" operator="lessOrEqual" value="28.00999927520752"/>
								<Node score="148.54761357299083">
									<SimplePredicate field="double(Time )" operator="lessOrEqual" value="8.75"/>
								</Node>
								<Node score="57.226850207576106">
									<SimplePredicate field="double(Time )" operator="lessOrEqual" value="10.75"/>
								</Node>
							</Node>
							<Node score="98.0754924276687">
								<SimplePredicate field="double(Time )" operator="lessOrEqual" value="9.75"/>
								<Node score="79.11344158157846">
									<SimplePredicate field="double(CPU server average)" operator="lessOrEqual" value="29.89400005340576"/>
								</Node>
							</Node>
							<Node score="124.45051007428465">
								<SimplePredicate field="double(Time )" operator="lessOrEqual" value="17.75"/>
							</Node>
						</Node>
						<Node score="155.49205045447428">
							<SimplePredicate field="double(CPU server average)" operator="lessOrEqual" value="37.10499954223633"/>
							<Node score="115.847604289344">
								<SimplePredicate field="double(CPU server average)" operator="lessOrEqual" value="34.104000091552734"/>
								<Node score="143.5040111734171">
									<SimplePredicate field="double(Time )" operator="lessOrEqual" value="16.75"/>
								</Node>
							</Node>
							<Node score="132.6496421909752">
								<SimplePredicate field="double(Time )" operator="lessOrEqual" value="10.25"/>
							</Node>
						</Node>
						<Node score="152.0063670755265">
							<SimplePredicate field="double(CPU server average)" operator="lessOrEqual" value="50.11899948120117"/>
							<Node score="216.9048756865263">
								<SimplePredicate field="double(Time )" operator="lessOrEqual" value="16.75"/>
							</Node>
						</Node>
						<Node score="396.2261013929517">
							<SimplePredicate field="double(Time )" operator="lessOrEqual" value="17.75"/>
						</Node>
					</Node>
				</TreeModel>
			</Segment>
			<Segment id="12">
				<True/>
				<TreeModel functionName="regression" missingValueStrategy="nullPrediction" noTrueChildStrategy="returnLastPrediction">
					<MiningSchema>
						<MiningField name="double(CPU server average)"/>
						<MiningField name="double(# VNF Density current)"/>
						<MiningField name="double(CPU edge average (2))"/>
						<MiningField name="double(Time )"/>
						<MiningField name="double(CPU edge average (1))"/>
						<MiningField name="double(BW edge (1))"/>
						<MiningField name="double(# edge device)"/>
						<MiningField name="double(# links (1))"/>
					</MiningSchema>
					<Node score="362.6691522602972">
						<True/>
						<Node score="33.83958993104174">
							<SimplePredicate field="double(CPU server average)" operator="lessOrEqual" value="20.861000061035156"/>
							<Node score="-8.094170925623851">
								<SimplePredicate field="double(BW edge (1))" operator="lessOrEqual" value="5.005133390426636"/>
								<Node score="-7.686636643652555">
									<SimplePredicate field="double(BW edge (1))" operator="lessOrEqual" value="1.607550024986267"/>
									<Node score="-21.662245230941437">
										<SimplePredicate field="double(CPU edge average (2))" operator="lessOrEqual" value="40.50172233581543"/>
										<Node score="-24.274684629163396">
											<SimplePredicate field="double(Time )" operator="lessOrEqual" value="6.75"/>
										</Node>
									</Node>
									<Node score="-14.59696763220614">
										<SimplePredicate field="double(# edge device)" operator="lessOrEqual" value="225.5"/>
									</Node>
								</Node>
								<Node score="42.36924702909301">
									<SimplePredicate field="double(Time )" operator="lessOrEqual" value="8.25"/>
									<Node score="9.041575042433418">
										<SimplePredicate field="double(CPU server average)" operator="lessOrEqual" value="12.444000244140625"/>
									</Node>
								</Node>
								<Node score="-18.22046598766251">
									<SimplePredicate field="double(# VNF Density current)" operator="lessOrEqual" value="43.5"/>
								</Node>
							</Node>
							<Node score="31.97973226388553">
								<SimplePredicate field="double(CPU server average)" operator="lessOrEqual" value="15.945000171661377"/>
								<Node score="3.6918095948460827">
									<SimplePredicate field="double(# VNF Density current)" operator="lessOrEqual" value="137.5"/>
									<Node score="34.34434896840862">
										<SimplePredicate field="double(Time )" operator="lessOrEqual" value="8.75"/>
									</Node>
								</Node>
								<Node score="18.441785085178534">
									<SimplePredicate field="double(# VNF Density current)" operator="lessOrEqual" value="168.5"/>
								</Node>
							</Node>
							<Node score="71.40749766846685">
								<SimplePredicate field="double(Time )" operator="lessOrEqual" value="8.75"/>
								<Node score="43.22037028627223">
									<SimplePredicate field="double(CPU edge average (2))" operator="lessOrEqual" value="60.00700378417969"/>
								</Node>
							</Node>
							<Node score="13.557326940957017">
								<SimplePredicate field="double(Time )" operator="lessOrEqual" value="10.75"/>
							</Node>
						</Node>
						<Node score="84.90192664862853">
							<SimplePredicate field="double(CPU server average)" operator="lessOrEqual" value="30.07100009918213"/>
							<Node score="80.78746442942351">
								<SimplePredicate field="double(CPU server average)" operator="lessOrEqual" value="24.32100009918213"/>
								<Node score="53.98201252335902">
									<SimplePredicate field="double(CPU edge average (1))" operator="lessOrEqual" value="58.05833435058594"/>
									<Node score="34.9120018809969">
										<SimplePredicate field="double(Time )" operator="lessOrEqual" value="10.75"/>
									</Node>
								</Node>
								<Node score="56.70272981734353">
									<SimplePredicate field="double(# links (1))" operator="lessOrEqual" value="12.5"/>
								</Node>
							</Node>
							<Node score="161.3937021266407">
								<SimplePredicate field="double(Time )" operator="lessOrEqual" value="8.75"/>
							</Node>
							<Node score="59.29616002504975">
								<SimplePredicate field="double(Time )" operator="lessOrEqual" value="10.25"/>
							</Node>
						</Node>
						<Node score="104.39163618549006">
							<SimplePredicate field="double(CPU server average)" operator="lessOrEqual" value="34.96099853515625"/>
							<Node score="112.5225035068686">
								<SimplePredicate field="double(Time )" operator="lessOrEqual" value="10.75"/>
								<Node score="88.6535200112709">
									<SimplePredicate field="double(BW edge (1))" operator="lessOrEqual" value="27.976449966430664"/>
								</Node>
							</Node>
							<Node score="140.22737714233304">
								<SimplePredicate field="double(Time )" operator="lessOrEqual" value="15.75"/>
							</Node>
						</Node>
						<Node score="161.33672310388624">
							<SimplePredicate field="double(CPU server average)" operator="lessOrEqual" value="50.11899948120117"/>
							<Node score="104.42957237450517">
								<SimplePredicate field="double(Time )" operator="lessOrEqual" value="9.75"/>
							</Node>
						</Node>
						<Node score="213.2508961610388">
							<SimplePredicate field="double(CPU server average)" operator="lessOrEqual" value="52.520999908447266"/>
						</Node>
					</Node>
				</TreeModel>
			</Segment>
			<Segment id="13">
				<True/>
				<TreeModel functionName="regression" missingValueStrategy="nullPrediction" noTrueChildStrategy="returnLastPrediction">
					<MiningSchema>
						<MiningField name="double(CPU server average)"/>
						<MiningField name="double(# VNF Density current)"/>
						<MiningField name="double(CPU edge average (2))"/>
						<MiningField name="double(Time )"/>
						<MiningField name="double(CPU edge average (1))"/>
						<MiningField name="double(BW edge (1))"/>
						<MiningField name="double(BW edge (1).1)"/>
					</MiningSchema>
					<Node score="325.3402319176151">
						<True/>
						<Node score="33.42496814856328">
							<SimplePredicate field="double(CPU server average)" operator="lessOrEqual" value="20.70699977874756"/>
							<Node score="5.7862187880284495">
								<SimplePredicate field="double(CPU server average)" operator="lessOrEqual" value="10.138000011444092"/>
								<Node score="-17.61538167416656">
									<SimplePredicate field="double(# VNF Density current)" operator="lessOrEqual" value="45.5"/>
									<Node score="-17.514444764077243">
										<SimplePredicate field="double(BW edge (1))" operator="lessOrEqual" value="0.8659166693687439"/>
										<Node score="-21.771447622787132">
											<SimplePredicate field="double(CPU edge average (2))" operator="lessOrEqual" value="33.20241928100586"/>
										</Node>
									</Node>
									<Node score="-6.027232241529809">
										<SimplePredicate field="double(Time )" operator="lessOrEqual" value="8.25"/>
									</Node>
								</Node>
								<Node score="-5.8569934183156676">
									<SimplePredicate field="double(# VNF Density current)" operator="lessOrEqual" value="72.5"/>
									<Node score="-9.361872450888933">
										<SimplePredicate field="double(BW edge (1))" operator="lessOrEqual" value="4.149916648864746"/>
									</Node>
								</Node>
								<Node score="-0.7587898683096053">
									<SimplePredicate field="double(# VNF Density current)" operator="lessOrEqual" value="101.5"/>
								</Node>
							</Node>
							<Node score="29.142452893004197">
								<SimplePredicate field="double(CPU server average)" operator="lessOrEqual" value="14.67900037765503"/>
								<Node score="-1.7389119647192672">
									<SimplePredicate field="double(# VNF Density current)" operator="lessOrEqual" value="129.5"/>
									<Node score="21.718774136372836">
										<SimplePredicate field="double(Time )" operator="lessOrEqual" value="8.25"/>
									</Node>
								</Node>
								<Node score="15.753527335787757">
									<SimplePredicate field="double(# VNF Density current)" operator="lessOrEqual" value="162.5"/>
								</Node>
							</Node>
							<Node score="39.544597875005245">
								<SimplePredicate field="double(BW edge (1).1)" operator="lessOrEqual" value="15.835423469543457"/>
								<Node score="19.054275689233357">
									<SimplePredicate field="double(CPU edge average (1))" operator="lessOrEqual" value="53.42700004577637"/>
								</Node>
							</Node>
							<Node score="50.05471700741889">
								<SimplePredicate field="double(CPU edge average (2))" operator="lessOrEqual" value="45.02383613586426"/>
							</Node>
						</Node>
						<Node score="74.99878966990437">
							<SimplePredicate field="double(CPU server average)" operator="lessOrEqual" value="30.034000396728516"/>
							<Node score="49.468157873166405">
								<SimplePredicate field="double(CPU server average)" operator="lessOrEqual" value="24.93299961090088"/>
								<Node score="34.07643182394467">
									<SimplePredicate field="double(CPU server average)" operator="lessOrEqual" value="23.31999969482422"/>
									<Node score="50.34989239750588">
										<SimplePredicate field="double(Time )" operator="lessOrEqual" value="16.75"/>
									</Node>
								</Node>
								<Node score="67.50622219250478">
									<SimplePredicate field="double(Time )" operator="lessOrEqual" value="15.75"/>
								</Node>
							</Node>
							<Node score="90.85408689009435">
								<SimplePredicate field="double(Time )" operator="lessOrEqual" value="16.75"/>
								<Node score="67.57748058956672">
									<SimplePredicate field="double(Time )" operator="lessOrEqual" value="10.75"/>
								</Node>
							</Node>
							<Node score="53.194685505600646">
								<SimplePredicate field="double(# VNF Density current)" operator="lessOrEqual" value="392.5"/>
							</Node>
						</Node>
						<Node score="99.69503105614312">
							<SimplePredicate field="double(CPU server average)" operator="lessOrEqual" value="37.10499954223633"/>
							<Node score="102.56079151764436">
								<SimplePredicate field="double(CPU server average)" operator="lessOrEqual" value="32.593000411987305"/>
								<Node score="81.73335027913967">
									<SimplePredicate field="double(Time )" operator="lessOrEqual" value="11.75"/>
								</Node>
							</Node>
							<Node score="127.97876925990276">
								<SimplePredicate field="double(Time )" operator="lessOrEqual" value="16.75"/>
							</Node>
						</Node>
						<Node score="120.59727790160363">
							<SimplePredicate field="double(CPU server average)" operator="lessOrEqual" value="50.229000091552734"/>
							<Node score="178.0763003988953">
								<SimplePredicate field="double(Time )" operator="lessOrEqual" value="16.75"/>
							</Node>
						</Node>
						<Node score="191.6677798836881">
							<SimplePredicate field="double(CPU server average)" operator="lessOrEqual" value="52.520999908447266"/>
						</Node>
					</Node>
				</TreeModel>
			</Segment>
			<Segment id="14">
				<True/>
				<TreeModel functionName="regression" missingValueStrategy="nullPrediction" noTrueChildStrategy="returnLastPrediction">
					<MiningSchema>
						<MiningField name="double(CPU server average)"/>
						<MiningField name="double(# VNF Density current)"/>
						<MiningField name="double(CPU edge average (2))"/>
						<MiningField name="double(Time )"/>
						<MiningField name="double(CPU edge average (1))"/>
						<MiningField name="double(BW edge (1))"/>
						<MiningField name="double(BW edge (1).1)"/>
					</MiningSchema>
					<Node score="267.52859320336006">
						<True/>
						<Node score="35.411029615210964">
							<SimplePredicate field="double(BW edge (1))" operator="lessOrEqual" value="14.323116779327393"/>
							<Node score="-6.278113606696323">
								<SimplePredicate field="double(BW edge (1))" operator="lessOrEqual" value="5.396450042724609"/>
								<Node score="-19.83446712955954">
									<SimplePredicate field="double(BW edge (1))" operator="lessOrEqual" value="2.2976666688919067"/>
									<Node score="-17.45000800423946">
										<SimplePredicate field="double(CPU edge average (2))" operator="lessOrEqual" value="40.937129974365234"/>
										<Node score="-19.670243195851256">
											<SimplePredicate field="double(Time )" operator="lessOrEqual" value="6.75"/>
										</Node>
									</Node>
									<Node score="-5.302627970321858">
										<SimplePredicate field="double(Time )" operator="lessOrEqual" value="8.25"/>
									</Node>
								</Node>
								<Node score="28.55705279612386">
									<SimplePredicate field="double(Time )" operator="lessOrEqual" value="8.75"/>
									<Node score="9.035695181018657">
										<SimplePredicate field="double(CPU server average)" operator="lessOrEqual" value="12.559999942779541"/>
									</Node>
								</Node>
								<Node score="-13.664828070940288">
									<SimplePredicate field="double(# VNF Density current)" operator="lessOrEqual" value="47.5"/>
								</Node>
							</Node>
							<Node score="27.27322236111901">
								<SimplePredicate field="double(CPU edge average (1))" operator="lessOrEqual" value="51.03566551208496"/>
								<Node score="3.1961714499469966">
									<SimplePredicate field="double(BW edge (1))" operator="lessOrEqual" value="8.820799827575684"/>
									<Node score="28.57872578853133">
										<SimplePredicate field="double(Time )" operator="lessOrEqual" value="8.75"/>
									</Node>
								</Node>
								<Node score="15.030271369736136">
									<SimplePredicate field="double(BW edge (1).1)" operator="lessOrEqual" value="14.36144733428955"/>
								</Node>
							</Node>
							<Node score="58.058373992792184">
								<SimplePredicate field="double(Time )" operator="lessOrEqual" value="8.75"/>
								<Node score="31.28303717605661">
									<SimplePredicate field="double(CPU server average)" operator="lessOrEqual" value="16.85300064086914"/>
								</Node>
							</Node>
							<Node score="12.605430169787944">
								<SimplePredicate field="double(Time )" operator="lessOrEqual" value="10.75"/>
							</Node>
						</Node>
						<Node score="61.13540469346744">
							<SimplePredicate field="double(CPU server average)" operator="lessOrEqual" value="30.0649995803833"/>
							<Node score="87.37443331313533">
								<SimplePredicate field="double(CPU server average)" operator="lessOrEqual" value="24.93299961090088"/>
								<Node score="71.15264388120687">
									<SimplePredicate field="double(CPU edge average (1))" operator="lessOrEqual" value="59.06800079345703"/>
									<Node score="40.7624817917433">
										<SimplePredicate field="double(BW edge (1))" operator="lessOrEqual" value="21.922082901000977"/>
									</Node>
								</Node>
								<Node score="46.91409629930833">
									<SimplePredicate field="double(Time )" operator="lessOrEqual" value="10.5"/>
								</Node>
							</Node>
							<Node score="81.30915045622739">
								<SimplePredicate field="double(Time )" operator="lessOrEqual" value="16.75"/>
								<Node score="60.6101941858416">
									<SimplePredicate field="double(Time )" operator="lessOrEqual" value="10.75"/>
								</Node>
							</Node>
							<Node score="37.06119391846601">
								<SimplePredicate field="double(BW edge (1))" operator="lessOrEqual" value="21.93773365020752"/>
							</Node>
						</Node>
						<Node score="113.10715002210331">
							<SimplePredicate field="double(CPU server average)" operator="lessOrEqual" value="37.10499954223633"/>
							<Node score="91.68135028593106">
								<SimplePredicate field="double(CPU server average)" operator="lessOrEqual" value="33.63699913024902"/>
								<Node score="66.79266808086948">
									<SimplePredicate field="double(Time )" operator="lessOrEqual" value="9.75"/>
								</Node>
							</Node>
							<Node score="97.22519063368657">
								<SimplePredicate field="double(Time )" operator="lessOrEqual" value="12.25"/>
							</Node>
						</Node>
						<Node score="116.29370491631617">
							<SimplePredicate field="double(CPU edge average (1))" operator="lessOrEqual" value="73.39366912841797"/>
							<Node score="153.57839184800585">
								<SimplePredicate field="double(Time )" operator="lessOrEqual" value="15.25"/>
							</Node>
						</Node>
						<Node score="180.10611432070382">
							<SimplePredicate field="double(Time )" operator="lessOrEqual" value="13.25"/>
						</Node>
					</Node>
				</TreeModel>
			</Segment>
			<Segment id="15">
				<True/>
				<TreeModel functionName="regression" missingValueStrategy="nullPrediction" noTrueChildStrategy="returnLastPrediction">
					<MiningSchema>
						<MiningField name="double(CPU server average)"/>
						<MiningField name="double(# VNF Density current)"/>
						<MiningField name="double(BW server (2))"/>
						<MiningField name="double(CPU edge average (2))"/>
						<MiningField name="double(Time )"/>
						<MiningField name="double(CPU edge average (1))"/>
						<MiningField name="double(BW edge (1))"/>
						<MiningField name="double(BW edge (1).1)"/>
						<MiningField name="double(# links (2))"/>
					</MiningSchema>
					<Node score="245.79558242411116">
						<True/>
						<Node score="26.240262503574506">
							<SimplePredicate field="double(BW edge (1))" operator="lessOrEqual" value="13.968483448028564"/>
							<Node score="0.42915816197253387">
								<SimplePredicate field="double(CPU server average)" operator="lessOrEqual" value="9.591000080108643"/>
								<Node score="-18.22095509498512">
									<SimplePredicate field="double(BW edge (1).1)" operator="lessOrEqual" value="4.530654191970825"/>
									<Node score="-13.574674680879982">
										<SimplePredicate field="double(CPU edge average (2))" operator="lessOrEqual" value="40.937129974365234"/>
										<Node score="-17.411986517763513">
											<SimplePredicate field="double(# links (2))" operator="lessOrEqual" value="10.5"/>
										</Node>
									</Node>
									<Node score="-6.39875484113376">
										<SimplePredicate field="double(Time )" operator="lessOrEqual" value="8.25"/>
									</Node>
								</Node>
								<Node score="-6.995339559736384">
									<SimplePredicate field="double(# VNF Density current)" operator="lessOrEqual" value="62.5"/>
									<Node score="-10.368654989040593">
										<SimplePredicate field="double(BW edge (1).1)" operator="lessOrEqual" value="5.452998161315918"/>
									</Node>
								</Node>
								<Node score="-3.957460537761082">
									<SimplePredicate field="double(# VNF Density current)" operator="lessOrEqual" value="75.5"/>
								</Node>
							</Node>
							<Node score="18.741131500572337">
								<SimplePredicate field="double(CPU server average)" operator="lessOrEqual" value="13.957000255584717"/>
								<Node score="-4.354585202446305">
									<SimplePredicate field="double(# VNF Density current)" operator="lessOrEqual" value="116.5"/>
									<Node score="15.86767276101385">
										<SimplePredicate field="double(Time )" operator="lessOrEqual" value="8.25"/>
									</Node>
								</Node>
								<Node score="8.874989602403796">
									<SimplePredicate field="double(# VNF Density current)" operator="lessOrEqual" value="145.5"/>
								</Node>
							</Node>
							<Node score="21.363544674798604">
								<SimplePredicate field="double(CPU edge average (1))" operator="lessOrEqual" value="53.42700004577637"/>
								<Node score="11.456149503652828">
									<SimplePredicate field="double(# links (2))" operator="lessOrEqual" value="15.5"/>
								</Node>
							</Node>
							<Node score="48.357598914983534">
								<SimplePredicate field="double(Time )" operator="lessOrEqual" value="8.75"/>
							</Node>
						</Node>
						<Node score="74.96318313615066">
							<SimplePredicate field="double(CPU server average)" operator="lessOrEqual" value="31.199000358581543"/>
							<Node score="41.76095529558475">
								<SimplePredicate field="double(CPU server average)" operator="lessOrEqual" value="25.213000297546387"/>
								<Node score="43.399265384155484">
									<SimplePredicate field="double(CPU edge average (1))" operator="lessOrEqual" value="56.4543342590332"/>
									<Node score="30.270195650206265">
										<SimplePredicate field="double(BW edge (1).1)" operator="lessOrEqual" value="18.863536834716797"/>
									</Node>
								</Node>
								<Node score="71.68061277253358">
									<SimplePredicate field="double(BW server (2))" operator="lessOrEqual" value="357.79356384277344"/>
								</Node>
							</Node>
							<Node score="56.016506359225176">
								<SimplePredicate field="double(CPU server average)" operator="lessOrEqual" value="28.586000442504883"/>
								<Node score="84.34354477997177">
									<SimplePredicate field="double(BW edge (1).1)" operator="lessOrEqual" value="18.999003410339355"/>
								</Node>
							</Node>
							<Node score="59.517851033177784">
								<SimplePredicate field="double(Time )" operator="lessOrEqual" value="10.25"/>
							</Node>
						</Node>
						<Node score="122.27154121596962">
							<SimplePredicate field="double(CPU server average)" operator="lessOrEqual" value="39.231998443603516"/>
							<Node score="78.20445145548291">
								<SimplePredicate field="double(Time )" operator="lessOrEqual" value="9.75"/>
								<Node score="50.0004217950229">
									<SimplePredicate field="double(CPU server average)" operator="lessOrEqual" value="33.60099983215332"/>
								</Node>
							</Node>
							<Node score="85.49445887354992">
								<SimplePredicate field="double(CPU edge average (2))" operator="lessOrEqual" value="67.95692825317383"/>
							</Node>
						</Node>
						<Node score="112.1080153774277">
							<SimplePredicate field="double(CPU edge average (1))" operator="lessOrEqual" value="73.39366912841797"/>
							<Node score="113.56919620901357">
								<SimplePredicate field="double(Time )" operator="lessOrEqual" value="18.25"/>
							</Node>
						</Node>
						<Node score="167.06196686750508">
							<SimplePredicate field="double(CPU server average)" operator="lessOrEqual" value="45.8439998626709"/>
						</Node>
					</Node>
				</TreeModel>
			</Segment>
			<Segment id="16">
				<True/>
				<TreeModel functionName="regression" missingValueStrategy="nullPrediction" noTrueChildStrategy="returnLastPrediction">
					<MiningSchema>
						<MiningField name="double(CPU server average)"/>
						<MiningField name="double(# VNF Density current)"/>
						<MiningField name="double(Time )"/>
						<MiningField name="double(CPU edge average (1))"/>
						<MiningField name="double(BW edge (1))"/>
						<MiningField name="double(BW server (1))"/>
						<MiningField name="double(BW edge (1).1)"/>
						<MiningField name="double(# links (2))"/>
					</MiningSchema>
					<Node score="115.65570649079875">
						<True/>
						<Node score="16.59313392320159">
							<SimplePredicate field="double(BW edge (1))" operator="lessOrEqual" value="13.968483448028564"/>
							<Node score="0.38624234577528294">
								<SimplePredicate field="double(CPU server average)" operator="lessOrEqual" value="9.591000080108643"/>
								<Node score="-0.8805924133061338">
									<SimplePredicate field="double(# VNF Density current)" operator="lessOrEqual" value="32.5"/>
									<Node score="-13.258747919018356">
										<SimplePredicate field="double(CPU edge average (1))" operator="lessOrEqual" value="34.647666931152344"/>
										<Node score="-15.859270005698448">
											<SimplePredicate field="double(CPU server average)" operator="lessOrEqual" value="3.5350000858306885"/>
										</Node>
									</Node>
								</Node>
								<Node score="-7.842012607770541">
									<SimplePredicate field="double(BW edge (1))" operator="lessOrEqual" value="4.149916648864746"/>
									<Node score="-13.805586865249927">
										<SimplePredicate field="double(Time )" operator="lessOrEqual" value="13.25"/>
									</Node>
								</Node>
								<Node score="-3.743579813014766">
									<SimplePredicate field="double(# VNF Density current)" operator="lessOrEqual" value="75.5"/>
								</Node>
							</Node>
							<Node score="16.867018350515103">
								<SimplePredicate field="double(CPU server average)" operator="lessOrEqual" value="13.957000255584717"/>
								<Node score="-4.478569454466887">
									<SimplePredicate field="double(# VNF Density current)" operator="lessOrEqual" value="111.5"/>
									<Node score="14.28090548491246">
										<SimplePredicate field="double(Time )" operator="lessOrEqual" value="8.25"/>
									</Node>
								</Node>
								<Node score="7.222414088256298">
									<SimplePredicate field="double(# VNF Density current)" operator="lessOrEqual" value="145.5"/>
								</Node>
							</Node>
							<Node score="46.48820570893481">
								<SimplePredicate field="double(Time )" operator="lessOrEqual" value="8.75"/>
								<Node score="25.921189529474805">
									<SimplePredicate field="double(# VNF Density current)" operator="lessOrEqual" value="103.5"/>
								</Node>
							</Node>
							<Node score="1.1683246398474516">
								<SimplePredicate field="double(# links (2))" operator="lessOrEqual" value="12.5"/>
							</Node>
						</Node>
						<Node score="76.29650156727598">
							<SimplePredicate field="double(CPU server average)" operator="lessOrEqual" value="31.199000358581543"/>
							<Node score="26.882735365253293">
								<SimplePredicate field="double(BW edge (1).1)" operator="lessOrEqual" value="22.592726707458496"/>
								<Node score="102.67172478402753">
									<SimplePredicate field="double(Time )" operator="lessOrEqual" value="8.75"/>
								</Node>
								<Node score="41.93852248656848">
									<SimplePredicate field="double(Time )" operator="lessOrEqual" value="16.75"/>
								</Node>
							</Node>
							<Node score="65.1839604647908">
								<SimplePredicate field="double(CPU edge average (1))" operator="lessOrEqual" value="58.54166603088379"/>
								<Node score="47.58362826520635">
									<SimplePredicate field="double(# VNF Density current)" operator="lessOrEqual" value="444.5"/>
								</Node>
							</Node>
							<Node score="57.04726878093642">
								<SimplePredicate field="double(Time )" operator="lessOrEqual" value="12.75"/>
							</Node>
						</Node>
						<Node score="77.47584343701962">
							<SimplePredicate field="double(BW edge (1).1)" operator="lessOrEqual" value="46.59749221801758"/>
							<Node score="45.985255347266346">
								<SimplePredicate field="double(Time )" operator="lessOrEqual" value="9.75"/>
								<Node score="68.35227254671715">
									<SimplePredicate field="double(BW server (1))" operator="lessOrEqual" value="455.0904846191406"/>
								</Node>
							</Node>
							<Node score="114.86524766066007">
								<SimplePredicate field="double(Time )" operator="lessOrEqual" value="15.75"/>
							</Node>
						</Node>
						<Node score="252.2824725548304">
							<SimplePredicate field="double(Time )" operator="lessOrEqual" value="17.75"/>
							<Node score="132.3033361557774">
								<SimplePredicate field="double(BW edge (1).1)" operator="lessOrEqual" value="53.47622489929199"/>
							</Node>
						</Node>
						<Node score="92.52842439548488">
							<SimplePredicate field="double(Time )" operator="lessOrEqual" value="18.25"/>
						</Node>
					</Node>
				</TreeModel>
			</Segment>
			<Segment id="17">
				<True/>
				<TreeModel functionName="regression" missingValueStrategy="nullPrediction" noTrueChildStrategy="returnLastPrediction">
					<MiningSchema>
						<MiningField name="double(CPU server average)"/>
						<MiningField name="double(# VNF Density current)"/>
						<MiningField name="double(BW server (2))"/>
						<MiningField name="double(CPU edge average (2))"/>
						<MiningField name="double(Time )"/>
						<MiningField name="double(CPU edge average (1))"/>
						<MiningField name="double(BW edge (1))"/>
						<MiningField name="double(BW edge (1).1)"/>
						<MiningField name="double(# edge device)"/>
						<MiningField name="double(# links (1))"/>
					</MiningSchema>
					<Node score="151.8089579368705">
						<True/>
						<Node score="26.596416527077555">
							<SimplePredicate field="double(BW edge (1))" operator="lessOrEqual" value="14.323116779327393"/>
							<Node score="-6.548748194281835">
								<SimplePredicate field="double(BW edge (1))" operator="lessOrEqual" value="5.396450042724609"/>
								<Node score="-1.5940584029241707">
									<SimplePredicate field="double(BW edge (1))" operator="lessOrEqual" value="2.065750002861023"/>
									<Node score="-12.729686270367651">
										<SimplePredicate field="double(CPU edge average (2))" operator="lessOrEqual" value="40.937129974365234"/>
										<Node score="-14.364230897167916">
											<SimplePredicate field="double(BW server (2))" operator="lessOrEqual" value="18.854999542236328"/>
										</Node>
									</Node>
									<Node score="-9.789859044798144">
										<SimplePredicate field="double(CPU server average)" operator="lessOrEqual" value="8.546000003814697"/>
									</Node>
								</Node>
								<Node score="23.71631581458819">
									<SimplePredicate field="double(Time )" operator="lessOrEqual" value="8.75"/>
									<Node score="6.566703930004106">
										<SimplePredicate field="double(CPU server average)" operator="lessOrEqual" value="12.559999942779541"/>
									</Node>
								</Node>
								<Node score="-19.1656329879293">
									<SimplePredicate field="double(Time )" operator="lessOrEqual" value="10.25"/>
								</Node>
							</Node>
							<Node score="24.80060135390148">
								<SimplePredicate field="double(CPU edge average (1))" operator="lessOrEqual" value="49.73266792297363"/>
								<Node score="7.846041638708073">
									<SimplePredicate field="double(# VNF Density current)" operator="lessOrEqual" value="164.5"/>
									<Node score="0.5899864973761673">
										<SimplePredicate field="double(BW edge (1))" operator="lessOrEqual" value="7.689383268356323"/>
									</Node>
								</Node>
								<Node score="14.036891913500778">
									<SimplePredicate field="double(# links (1))" operator="lessOrEqual" value="20.5"/>
								</Node>
							</Node>
							<Node score="55.38236214644292">
								<SimplePredicate field="double(Time )" operator="lessOrEqual" value="8.25"/>
							</Node>
							<Node score="13.838729958552655">
								<SimplePredicate field="double(# edge device)" operator="lessOrEqual" value="285.5"/>
							</Node>
						</Node>
						<Node score="47.24881125269384">
							<SimplePredicate field="double(CPU server average)" operator="lessOrEqual" value="32.273000717163086"/>
							<Node score="36.00692411443761">
								<SimplePredicate field="double(BW edge (1).1)" operator="lessOrEqual" value="22.592726707458496"/>
								<Node score="94.25306554911185">
									<SimplePredicate field="double(Time )" operator="lessOrEqual" value="8.75"/>
								</Node>
								<Node score="19.81158038328005">
									<SimplePredicate field="double(Time )" operator="lessOrEqual" value="10.75"/>
								</Node>
							</Node>
							<Node score="67.11753229523131">
								<SimplePredicate field="double(Time )" operator="lessOrEqual" value="17.75"/>
								<Node score="44.99235727407351">
									<SimplePredicate field="double(Time )" operator="lessOrEqual" value="10.75"/>
								</Node>
							</Node>
							<Node score="19.628766275992767">
								<SimplePredicate field="double(Time )" operator="lessOrEqual" value="18.25"/>
							</Node>
						</Node>
						<Node score="72.42938381246181">
							<SimplePredicate field="double(CPU server average)" operator="lessOrEqual" value="52.111000061035156"/>
							<Node score="47.430815474679456">
								<SimplePredicate field="double(Time )" operator="lessOrEqual" value="9.25"/>
							</Node>
							<Node score="105.93723758702133">
								<SimplePredicate field="double(Time )" operator="lessOrEqual" value="16.75"/>
							</Node>
						</Node>
						<Node score="259.659974419889">
							<SimplePredicate field="double(Time )" operator="lessOrEqual" value="17.75"/>
							<Node score="132.52422201022634">
								<SimplePredicate field="double(CPU server average)" operator="lessOrEqual" value="54.378000259399414"/>
							</Node>
						</Node>
						<Node score="81.90909534622287">
							<SimplePredicate field="double(BW edge (1).1)" operator="lessOrEqual" value="57.803579330444336"/>
						</Node>
					</Node>
				</TreeModel>
			</Segment>
			<Segment id="18">
				<True/>
				<TreeModel functionName="regression" missingValueStrategy="nullPrediction" noTrueChildStrategy="returnLastPrediction">
					<MiningSchema>
						<MiningField name="double(CPU server average)"/>
						<MiningField name="double(# VNF Density current)"/>
						<MiningField name="double(BW server (2))"/>
						<MiningField name="double(CPU edge average (2))"/>
						<MiningField name="double(Time )"/>
						<MiningField name="double(CPU edge average (1))"/>
						<MiningField name="double(BW edge (1))"/>
						<MiningField name="double(BW edge (1).1)"/>
						<MiningField name="double(# links (1))"/>
					</MiningSchema>
					<Node score="239.60408299134443">
						<True/>
						<Node score="37.546057691288496">
							<SimplePredicate field="double(CPU server average)" operator="lessOrEqual" value="19.949999809265137"/>
							<Node score="3.0694250499229105">
								<SimplePredicate field="double(BW edge (1))" operator="lessOrEqual" value="4.450850009918213"/>
								<Node score="-4.353098486221646">
									<SimplePredicate field="double(CPU edge average (1))" operator="lessOrEqual" value="34.65199851989746"/>
									<Node score="-10.743419486226921">
										<SimplePredicate field="double(BW edge (1).1)" operator="lessOrEqual" value="4.320998191833496"/>
										<Node score="-12.859577724977868">
											<SimplePredicate field="double(CPU server average)" operator="lessOrEqual" value="3.5390000343322754"/>
										</Node>
									</Node>
									<Node score="-7.46871452106843">
										<SimplePredicate field="double(BW edge (1).1)" operator="lessOrEqual" value="5.488874197006226"/>
									</Node>
								</Node>
								<Node score="20.942633055444585">
									<SimplePredicate field="double(Time )" operator="lessOrEqual" value="8.25"/>
									<Node score="4.508730553824548">
										<SimplePredicate field="double(CPU edge average (2))" operator="lessOrEqual" value="50.56162643432617"/>
									</Node>
								</Node>
								<Node score="-11.108411360316255">
									<SimplePredicate field="double(# links (1))" operator="lessOrEqual" value="5.5"/>
								</Node>
							</Node>
							<Node score="12.616407098656193">
								<SimplePredicate field="double(CPU server average)" operator="lessOrEqual" value="13.476999759674072"/>
								<Node score="-8.564850441611497">
									<SimplePredicate field="double(# VNF Density current)" operator="lessOrEqual" value="101.5"/>
									<Node score="-0.8133833215434614">
										<SimplePredicate field="double(BW server (2))" operator="lessOrEqual" value="160.55916595458984"/>
									</Node>
								</Node>
								<Node score="4.790515001941045">
									<SimplePredicate field="double(# VNF Density current)" operator="lessOrEqual" value="143.5"/>
								</Node>
							</Node>
							<Node score="9.844285653231776">
								<SimplePredicate field="double(# links (1))" operator="lessOrEqual" value="21.5"/>
								<Node score="39.003038824277134">
									<SimplePredicate field="double(Time )" operator="lessOrEqual" value="8.25"/>
								</Node>
							</Node>
							<Node score="23.387507364262365">
								<SimplePredicate field="double(# VNF Density current)" operator="lessOrEqual" value="248.5"/>
							</Node>
						</Node>
						<Node score="37.151464708327296">
							<SimplePredicate field="double(BW edge (1))" operator="lessOrEqual" value="27.97760009765625"/>
							<Node score="30.295459903270707">
								<SimplePredicate field="double(CPU server average)" operator="lessOrEqual" value="25.651999473571777"/>
								<Node score="76.95990421613806">
									<SimplePredicate field="double(Time )" operator="lessOrEqual" value="8.75"/>
									<Node score="37.659217049149525">
										<SimplePredicate field="double(CPU edge average (2))" operator="lessOrEqual" value="65.69515609741211"/>
									</Node>
								</Node>
								<Node score="13.857187380700037">
									<SimplePredicate field="double(Time )" operator="lessOrEqual" value="10.25"/>
								</Node>
							</Node>
							<Node score="41.182879462046664">
								<SimplePredicate field="double(Time )" operator="lessOrEqual" value="10.25"/>
								<Node score="14.26384085912131">
									<SimplePredicate field="double(BW server (2))" operator="lessOrEqual" value="385.28533935546875"/>
								</Node>
							</Node>
							<Node score="58.37943062369435">
